tree
version=v3
num_class=1
num_tree_per_iteration=1
label_index=0
max_feature_idx=11
objective=regression
feature_names=passenger_count pickup_longitude pickup_latitude dropoff_longitude dropoff_latitude pickup_day pickup_month pickup_hour pickup_min pickup_weekday vendor_id_2 store_and_fwd_flag_Y
feature_infos=[0:6] [-77.89601898193358:-65.897384643554688] [34.712234497070313:41.319164276123047] [-77.89601898193358:-65.897384643554688] [32.181140899658203:41.319831848144531] -1:14:16:5:12:15:20:4:10:19:17:9:6:18:7:13:8:11:3:21:22:2:29:26:25:27:1:28:24:23:30:31 -1:3:4:5:2:6:1 -1:18:19:21:20:22:17:14:15:12:13:23:11:9:8:10:16:7:0:1:6:2:3:4:5 -1:49:52:20:42:45:6:57:10:31:12:17:9:47:14:46:18:27:19:39:48:2:32:38:37:16:22:51:44:53:40:43:21:25:7:30:11:50:33:55:54:3:24:58:26:8:56:59:36:1:29:35:41:13:28:34:5:23:15:0:4 -1:4:5:3:2:1:6:0 -1:1:0 none
tree_sizes=2502 2025 2284 2761 2755 2560 2570 2845 2940 2573 2402 2919 3122 2781 3010 2779 3013 2865 2519 1916 2901 2846 2902 2890 2834 2735 3127 3064 2781 2554 3004 2843 2871 2362 2806 2839 2880 2989 2091

Tree=0
num_leaves=26
num_cat=10
split_feature=1 4 2 10 2 4 4 2 4 7 8 8 2 4 7 9 7 9 4 4 2 7 2 4 7
split_gain=3.18327e+10 9.65275e+09 6.25722e+09 3.11469e+09 9.68334e+08 2.41322e+09 2.30782e+09 1.07555e+09 6.68631e+08 6.33921e+08 8.0775e+08 4.61496e+08 3.83769e+08 7.59597e+08 2.76307e+08 2.65602e+08 2.43435e+08 2.26031e+08 1.70494e+08 8.42247e+07 1.27548e+08 6.17546e+07 6.11928e+07 7.87188e+07 1.6726e+07
threshold=-73.930179595947251 40.701631546020515 40.743604660034187 0 40.727392196655281 40.741670608520515 40.730604171752937 40.746381759643562 40.794092178344734 1 2 3 40.718976974487312 40.723459243774421 4 5 6 7 40.781450271606452 40.774644851684577 40.763906478881843 8 40.735498428344734 40.74322700500489 9
decision_type=2 2 2 1 2 2 2 2 2 1 1 1 2 2 1 1 1 1 2 2 2 1 2 2 1
left_child=1 -1 -2 4 5 -3 7 -6 9 10 -8 16 -5 -14 15 19 -11 -12 22 20 -15 -13 -16 -24 -17
right_child=2 3 -4 12 6 -7 8 -9 -10 11 17 21 13 14 18 24 -18 -19 -20 -21 -22 -23 23 -25 -26
leaf_value=1184.1465346666077 1529.9979425592701 929.6585256782538 1183.4859630778617 957.17215710134201 977.56002882688256 1139.1926596400356 1011.0889894316547 1127.2742053859204 1010.6531578879058 955.39869448345519 955.0180525794874 895.63562610093027 964.88187879547718 908.02470430207381 884.65692072228069 881.73370324227108 898.14714063308918 907.80091794015971 907.76728691861047 887.0372106520158 950.27591675288841 868.22634144016899 881.65558622200319 846.80200451166922 863.48668068155905
leaf_weight=12750 7772 10807 9996 7844 8231 7839 13457 7709 8533 16638 14744 14894 10638 20169 7849 14720 9770 19703 7737 8166 8463 15001 7709 25322 10033
leaf_count=12750 7772 10807 9996 7844 8231 7839 13457 7709 8533 16638 14744 14894 10638 20169 7849 14720 9770 19703 7737 8166 8463 15001 7709 25322 10033
internal_value=961.186 939.454 1336.46 928.104 956.734 1018.04 947.828 1050.32 933.298 926.939 951.349 906.214 895.335 891.324 884.222 897.238 934.106 927.957 867.876 912.95 920.464 881.696 860.393 854.777 874.083
internal_weight=0 288726 17768 275976 147326 18646 128680 15940 112740 104207 47904 56303 128650 120806 110168 61551 26408 34447 48617 36798 28632 29895 40880 33031 24753
internal_count=306494 288726 17768 275976 147326 18646 128680 15940 112740 104207 47904 56303 128650 120806 110168 61551 26408 34447 48617 36798 28632 29895 40880 33031 24753
cat_boundaries=0 1 2 4 6 7 8 9 10 11 12
cat_threshold=2 520458 596156931 12616036 1871039482 20472192 524032 30 13110785 14 2100868 516096
is_linear=0
shrinkage=1


Tree=1
num_leaves=20
num_cat=11
split_feature=1 4 4 4 2 7 8 4 2 2 8 5 9 5 7 8 8 5 8
split_gain=1.15614e+10 5.8519e+09 1.14331e+09 9.37614e+08 1.27524e+09 6.50837e+08 4.36633e+08 4.44539e+08 9.4911e+08 5.29888e+08 3.25914e+08 3.54124e+08 2.61094e+08 1.04486e+08 8.98679e+07 8.54257e+07 7.99124e+07 6.91593e+07 3.1358e+07
threshold=-73.889999389648423 40.683759689331062 40.804552078247077 40.713085174560554 40.714700698852546 0 1 40.775316238403327 40.77301216125489 40.774309158325202 2 3 4 5 6 7 8 9 10
decision_type=2 2 2 2 2 1 1 2 2 2 1 1 1 1 1 1 1 1 1
left_child=1 -1 3 -3 -5 6 13 9 -9 -8 14 12 -12 18 17 -13 -15 -7 -6
right_child=-2 2 -4 4 5 10 7 8 -10 -11 11 15 -14 16 -16 -17 -18 -19 -20
leaf_value=230.3150550685065 241.30410880128684 42.540769452366341 73.855275452816826 73.583593944468234 -37.451481585354358 -42.491879678531909 -8.0924385401496206 18.898066137894645 -122.23331007243753 70.089928833121405 26.421543527382969 -77.454880773965456 -37.095320810733703 -14.349780398581554 -90.012731602312044 -43.962934157529553 -41.358827474384285 -70.822657884242261 -58.050826791788616
leaf_weight=7729 15189 15389 9722 9357 9416 11108 59902 7825 7935 8132 9636 11434 12011 16587 13724 15283 20495 23147 22249
leaf_count=7729 15189 15389 9722 9357 9416 11108 59902 7825 7935 8132 9636 11434 12011 16587 13724 15283 20495 23147 22249
internal_value=0 -16.253 -23.026 -26.4837 -30.6059 -34.5399 -22.8019 -8.81536 -52.3533 1.30589 -53.091 -36.291 -8.82657 -39.8232 -69.9479 -58.4619 -29.3277 -61.7415 -52.0219
internal_weight=0 291081 283352 273630 258241 248884 152541 83794 15760 68034 96343 48364 21647 68747 47979 26717 37082 34255 31665
internal_count=306270 291081 283352 273630 258241 248884 152541 83794 15760 68034 96343 48364 21647 68747 47979 26717 37082 34255 31665
cat_boundaries=0 1 3 5 6 7 8 9 11 13 14 16
cat_threshold=5241857 2841265927 57418887 3191819909 26665664 1878130776 56 1618887908 11535106 1082142986 201917448 537020161 786566 1259882784 537396738 271360
is_linear=0
shrinkage=0.288339


Tree=2
num_leaves=23
num_cat=12
split_feature=1 4 4 9 8 5 4 2 2 8 5 1 4 4 2 6 5 8 8 6 5 5
split_gain=5.49169e+09 2.93811e+09 7.04125e+08 4.25293e+08 4.6964e+08 5.53534e+08 3.75078e+08 2.04854e+09 5.54227e+08 3.1914e+08 2.43566e+08 1.87894e+08 5.2789e+08 3.47188e+08 2.2745e+08 1.57431e+08 1.87888e+08 1.39958e+08 1.27534e+08 9.16942e+07 8.2703e+07 5.00811e+07
threshold=-73.889999389648423 40.687383651733406 40.805738449096687 0 1 2 40.722433090209968 40.737661361694343 40.721490859985359 3 4 -73.979709625244126 40.761098861694343 40.760488510131843 40.750806808471687 5 6 7 8 9 10 11
decision_type=2 2 2 1 1 1 2 2 2 1 1 2 2 2 2 1 1 1 1 1 1 1
left_child=1 -1 3 6 5 -5 7 -3 -8 10 -10 12 14 -13 18 17 -17 -11 -6 -12 -15 -7
right_child=-2 2 -4 4 11 21 8 -9 9 15 19 13 -14 20 -16 16 -18 -19 -20 -21 -22 -23
leaf_value=154.67213556922113 167.43388929953352 -61.514498143602552 65.39098279915379 51.018374683654329 -39.67965971360168 -10.883789421228924 59.033083260056763 136.9089864867006 34.276087411729733 -14.098650201520789 -33.174898336059137 -27.620739822615366 19.45555795604178 -63.959958435390313 -8.0877117576146027 5.2800368848144039 -32.710193376207464 -50.205752124394408 -79.759803347740572 -1.3326100763544195 -105.28144252577647 -40.207802102219354
leaf_weight=8629 15117 9185 8602 10750 12065 7808 8212 8075 13262 12470 11050 14798 12338 7729 8426 19524 24177 32126 15368 23251 9954 13053
leaf_count=8629 15117 9185 8602 10750 12065 7808 8212 8075 13262 12470 11050 14798 12338 7729 8426 19524 24177 32126 15368 23251 9954 13053
internal_value=0 -10.4789 -15.5602 -18.119 -31.7399 -1.93714 -8.62779 31.4687 -13.4432 -17.8482 1.19575 -43.4051 -31.9183 -60.3725 -49.5979 -28.0976 -15.7559 -40.1477 -62.3016 -11.6376 -87.5939 -29.306
internal_weight=0 290852 282223 273621 112289 31611 161332 17260 144072 135860 47563 80678 48197 32481 35859 88297 43701 44596 27433 34301 17683 20861
internal_count=305969 290852 282223 273621 112289 31611 161332 17260 144072 135860 47563 80678 48197 32481 35859 88297 43701 44596 27433 34301 17683 20861
cat_boundaries=0 1 3 4 6 7 8 9 11 13 14 15 16
cat_threshold=30 1343291536 2137755 3575271434 2551353398 38298082 1092094102 14 235301734 12599424 70258709 633901122 256917540 6 1388338018 176162916
is_linear=0
shrinkage=0.288339


Tree=3
num_leaves=28
num_cat=8
split_feature=3 1 1 10 8 1 3 3 8 4 4 2 8 8 8 6 3 0 4 4 2 2 2 4 4 6 2
split_gain=6.24219e+09 7.02848e+09 4.09131e+09 1.5175e+09 7.34492e+08 3.80315e+08 1.96716e+09 8.66335e+08 3.81503e+08 2.38661e+08 3.08722e+08 1.46444e+09 3.35749e+08 2.43418e+08 1.88686e+08 1.54268e+08 9.64519e+07 8.29486e+07 6.96823e+07 4.60252e+07 1.19678e+09 7.14876e+08 1.58202e+08 2.29725e+08 3.67661e+07 1.33731e+07 3.06194e+06
threshold=-73.922252655029283 -73.889999389648423 -73.972866058349581 0 1 -73.98888778686522 -73.978649139404283 -73.991138458251939 2 40.724603652954109 40.753110885620124 40.757513046264656 3 4 5 6 -73.949069976806626 1.5000000000000002 40.761518478393562 40.766622543334968 40.76104927062989 40.770090103149421 40.759794235229499 40.752538681030281 40.768503189086921 7 40.775030136108406
decision_type=2 2 2 1 1 2 2 2 1 2 2 2 1 1 1 1 2 2 2 2 2 2 2 2 2 1 2
left_child=1 3 -2 4 9 6 8 -7 -6 -1 12 -12 -11 -13 24 -16 17 19 -17 21 -21 22 23 -5 -9 -19 -22
right_child=2 -3 -4 16 5 7 -8 14 -10 10 11 13 -14 -15 15 18 -18 25 -20 20 26 -23 -24 -25 -26 -27 -28
leaf_value=72.686098186120603 316.91422604819815 204.5011148284062 24.211713025700856 -72.901694436318991 13.198440857016529 42.38073877504798 131.88560788138273 -53.632774615432517 -61.180528079091388 28.674889868148878 122.68518599422526 -49.18103803655459 -48.924183733678291 17.988075277210751 -59.341652150959199 7.7268119630726018 -12.021888125799734 -22.121359266845907 -28.563857899531271 34.381784564046605 -93.125635039841868 33.984583609073098 -23.953378088351226 -30.003268942818043 -77.288024782511144 -36.601989769653628 -107.25756220371824
leaf_weight=7782 8104 11999 7750 39913 9411 11465 8100 13997 14528 9062 10433 8225 9351 9711 8842 7750 7807 11593 10049 7776 7843 8390 11258 14187 10108 10817 9664
leaf_count=7782 8104 11999 7750 39913 9411 11465 8100 13997 14528 9062 10433 8225 9351 9711 8842 7750 7807 11593 10049 7776 7843 8390 11258 14187 10108 10817 9664
internal_value=0 -11.0098 174.462 -20.3517 -0.497706 -15.9075 9.60178 -29.0443 -31.9999 26.1062 18.2798 37.1213 -10.7747 -12.8918 -45.2125 -28.3501 -43.2004 -45.1977 -12.7814 -48.794 -59.5639 -45.0562 -55.2247 -61.6981 -63.6937 -29.2168 -101.267
internal_weight=0 290061 15854 278062 148814 94250 32039 62211 23939 54564 46782 28369 18413 17936 50746 26641 129248 121441 17799 99031 25283 73748 65358 54100 24105 22410 17507
internal_count=305915 290061 15854 278062 148814 94250 32039 62211 23939 54564 46782 28369 18413 17936 50746 26641 129248 121441 17799 99031 25283 73748 65358 54100 24105 22410 17507
cat_boundaries=0 1 3 5 7 9 11 12 13
cat_threshold=2 839411340 105451288 213159938 10637376 536887820 4786704 1164 71893512 3290927201 8450050 12 112
is_linear=0
shrinkage=0.288339


Tree=4
num_leaves=28
num_cat=11
split_feature=3 1 8 0 4 2 2 5 8 9 5 5 4 9 3 1 1 8 1 2 8 1 4 8 3 5 3
split_gain=2.46407e+09 3.22217e+09 5.05484e+08 4.0049e+08 3.65072e+08 1.74599e+09 4.8675e+08 2.19822e+08 3.14621e+08 1.73093e+08 2.37359e+08 1.57371e+08 1.47672e+08 1.36244e+08 1.32757e+08 7.85717e+08 5.95785e+08 1.79956e+08 1.32987e+08 1.29153e+08 1.30629e+08 1.12096e+08 2.58772e+08 1.03651e+08 7.93096e+07 3.55146e+07 3.2865e+07
threshold=-73.88390731811522 -73.866806030273423 0 3.5000000000000004 40.720182418823249 40.732038497924812 40.722951889038093 1 2 3 4 5 40.723459243774421 6 -73.984912872314439 -73.979923248291001 -73.990207672119126 7 -73.97454452514647 40.737272262573249 8 -73.978908538818345 40.750215530395515 9 -73.98003768920897 10 -73.983379364013658
decision_type=2 2 1 2 2 2 2 1 1 1 1 1 2 1 2 2 2 1 2 2 1 2 2 1 2 1 2
left_child=1 2 3 7 5 -4 -6 8 11 10 -8 -1 -9 -10 15 17 -16 -11 -18 -14 24 22 -15 -12 -21 -25 -22
right_child=-2 -3 4 -5 6 -7 9 12 13 14 23 -13 19 21 16 -17 18 -19 -20 20 26 -23 -24 25 -26 -27 -28
leaf_value=69.954311198091759 138.29640920832205 167.0910426429532 -74.997792045608918 49.685337291620826 34.689089727388939 105.29889515233457 29.745994125160557 22.07523403477429 -31.510214228758645 -17.342007846688915 1.366439806006619 14.122242781377356 10.234430252826202 -11.379214887499286 18.918109752369688 46.67966525921166 -41.547014922638276 -70.866825248160907 -71.902828825221846 12.530464866742392 -26.096706614462391 -14.5006943440674 59.518309215080691 -48.12946894266446 -25.55772600688184 -24.678055673207673 -49.468599335715389
leaf_weight=8787 10278 8726 8624 13711 10127 9135 7935 7812 10554 8229 8327 8085 9321 9169 9860 9526 21797 14575 27675 7968 7783 12180 7941 10909 10434 11205 15324
leaf_count=8787 10278 8726 8624 13711 10127 9135 7935 7812 10554 8229 8327 8085 9321 9169 9860 9526 21797 14575 27675 7968 7783 12180 7941 10909 10434 11205 15324
internal_value=0 -4.91321 -10.1769 3.20878 -21.1128 17.786 -26.0484 -2.33779 10.4545 -30.7924 -14.4892 43.3695 -14.7076 -3.5346 -37.5982 -22.6704 -45.7073 -51.6874 -58.5951 -20.3832 -27.2637 6.59639 21.6175 -26.0622 -9.07286 -36.3628 -41.667
internal_weight=0 295719 286993 129069 157924 17759 140165 115358 56716 130038 38376 16872 58642 39844 91662 32330 59332 22804 49472 50830 41509 29290 17110 30441 18402 22114 23107
internal_count=305997 295719 286993 129069 157924 17759 140165 115358 56716 130038 38376 16872 58642 39844 91662 32330 59332 22804 49472 50830 41509 29290 17110 30441 18402 22114 23107
cat_boundaries=0 2 3 5 6 7 8 9 11 13 15 16
cat_threshold=3447730142 34763146 2017088154 150995584 33693824 12 2822799908 1479671826 68 37081088 67174913 2239760792 1064968 4984833 138414081 1376938056
is_linear=0
shrinkage=0.288339


Tree=5
num_leaves=26
num_cat=19
split_feature=1 3 8 10 8 5 5 8 5 5 8 5 8 5 8 2 9 9 4 2 2 8 5 8 5
split_gain=1.94948e+09 4.13803e+09 7.48169e+08 6.85069e+08 4.58902e+08 5.23186e+08 2.16411e+08 1.64562e+08 2.23296e+08 1.89268e+08 1.53447e+08 1.55971e+08 1.11817e+08 1.08194e+08 9.99701e+07 9.155e+07 7.58723e+07 5.06504e+07 4.64734e+07 9.48056e+08 3.41886e+08 3.32203e+07 1.92038e+07 1.57167e+07 1.11137e+07
threshold=-73.866806030273423 -73.907646179199205 0 1 2 3 4 5 6 7 8 9 10 11 12 40.749956130981452 13 14 40.72509956359864 40.735990524291999 40.729410171508796 15 16 17 18
decision_type=2 2 1 1 1 1 1 1 1 1 1 1 1 1 1 2 1 1 2 2 2 1 1 1 1
left_child=1 2 -1 4 5 -4 -6 8 -7 12 13 -12 -9 -8 -11 -13 23 -15 19 -18 -20 24 -23 -5 -22
right_child=-2 -3 3 16 6 7 10 9 -10 14 11 15 -14 17 -16 -17 18 -19 20 -21 21 22 -24 -25 -26
leaf_value=71.111217381917285 124.49337006770213 178.90455169766312 70.101683772528773 -34.473051364130889 21.526881935625052 19.801678322400772 -9.3462183234915592 62.689505084987395 -37.236029438331492 21.410442567604683 28.097843591568157 -39.731206213863985 18.789543804062831 -34.849586308065447 -22.140032991059776 -3.191393870025832 -74.060652495285481 -64.548872561872173 24.026479699518742 63.374660340910445 -34.325907027340818 -33.070241745105029 -22.56240979180556 -52.966957453413741 -47.418489345458418
leaf_weight=9512 10489 10129 13375 8229 12167 10190 9305 8713 12805 7842 8037 9658 10939 12349 9754 13821 8799 8229 10133 7830 12409 31986 28270 8765 12161
leaf_count=9512 10489 10129 13375 8229 12167 10190 9305 8713 12805 7842 8037 9658 10939 12349 9754 13821 8799 8229 10133 7830 12409 31986 28270 8765 12161
internal_value=0 -1.65346 -8.10062 -10.85 2.58281 18.6686 -13.5169 7.18116 -11.9763 19.0087 -20.4781 -6.41482 38.4074 -35.2598 -2.72217 -18.2777 -26.2211 -46.9054 -23.456 -9.35124 -25.9209 -31.9003 -28.1725 -44.1907 -40.923
internal_weight=0 295407 285278 275766 147184 73618 73566 60243 22995 37248 61399 31516 19652 29883 17596 23479 128582 20578 111588 16629 94959 84826 60256 16994 24570
internal_count=305896 295407 285278 275766 147184 73618 73566 60243 22995 37248 61399 31516 19652 29883 17596 23479 128582 20578 111588 16629 94959 84826 60256 16994 24570
cat_boundaries=0 2 3 5 6 7 9 10 11 13 14 16 17 19 20 21 23 24 26 27
cat_threshold=0 80 2 3446740382 140479746 2952806440 100671512 1075840280 4423936 81934784 236725462 33612320 50360333 2148728902 2215645190 1048578 149162144 155254914 786432 64 30 159387800 105929090 2042137142 2859138855 21831716 2814747980
is_linear=0
shrinkage=0.288339


Tree=6
num_leaves=27
num_cat=16
split_feature=7 4 1 1 3 9 7 9 7 3 6 5 5 5 5 5 7 4 9 5 7 3 7 4 1 3
split_gain=1.23973e+09 1.10772e+09 1.39572e+09 5.10633e+08 1.52011e+09 3.98559e+08 2.84899e+08 2.44285e+08 2.21947e+08 2.14167e+08 1.97398e+08 2.51146e+08 1.84038e+08 1.56492e+08 1.48374e+08 1.25825e+08 1.08866e+08 9.81007e+07 5.84874e+07 5.26947e+07 5.21649e+07 4.97425e+07 4.41699e+07 4.34125e+07 1.76514e+08 1.79679e+07
threshold=0 40.728075027465827 -73.98382186889647 -73.941600799560533 -73.938938140869126 1 2 3 4 -73.956836700439439 5 6 7 8 9 10 11 40.724042892456062 12 13 14 -73.977443695068345 15 40.753763198852546 -73.973834991455064 -73.991283416748033
decision_type=1 2 2 2 2 1 1 1 1 2 1 1 1 1 1 1 1 2 1 1 1 2 1 2 2 2
left_child=1 2 -1 4 7 6 -3 22 13 14 11 -8 21 -9 20 -12 19 -16 -19 -14 -10 -7 -2 -17 -25 -22
right_child=3 5 -4 -5 -6 12 10 8 9 -11 15 -13 16 -15 17 23 -18 18 -20 -21 25 -23 -24 24 -26 -27
leaf_value=18.705450148982376 -35.926246471780786 -17.578582657221641 168.35225308976791 -78.254419282679606 97.233927670824613 29.179516992903604 94.940520450164442 -9.5709356565917272 -49.384047978267972 22.969781653986381 -1.8297526325705997 27.713659585954108 8.3690172020128184 -59.504301080687206 20.645295835279089 15.561762667699883 -41.709686578362209 9.428629615231543 -16.369814628101629 -23.409220709810857 -34.434243988528621 -2.6060981307137219 -65.67038447027025 71.220361853459039 10.016297598578934 -18.176225611149604
leaf_weight=12610 8199 11903 8757 10484 9745 8443 7787 8206 8632 14055 14525 11468 8364 14468 9475 8680 14860 8993 38025 8884 8448 7874 9314 7922 7740 17953
leaf_count=12610 8199 11903 8757 10484 9745 8443 7787 8206 8632 14055 14525 11468 8364 14468 9475 8680 14860 8993 38025 8884 8448 7874 9314 7922 7740 17953
internal_value=0 20.0036 80.3367 -16.8402 -12.6723 9.08662 22.9857 -20.057 -15.6751 -10.1012 31.3044 55.1473 -11.0179 -41.5185 -15.1926 19.4141 -23.6729 -6.03353 -11.4309 -8.02676 -29.9161 13.8782 -51.9445 32.0599 41.1285 -23.4366
internal_weight=0 139817 21367 165997 155513 118450 70025 145768 128255 105581 58122 19255 48425 22674 91526 38867 32108 56493 47018 17248 35033 16317 17513 24342 15662 26401
internal_count=305814 139817 21367 165997 155513 118450 70025 145768 128255 105581 58122 19255 48425 22674 91526 38867 32108 56493 47018 17248 35033 16317 17513 24342 15662 26401
cat_boundaries=0 1 2 3 4 5 6 7 8 9 10 11 12 13 14 15 16
cat_threshold=261696 30 131136 1 169 96 646395956 100832090 152120984 2794865700 1118978358 246272 32 421874688 4194326 1311120
is_linear=0
shrinkage=0.288339


Tree=7
num_leaves=30
num_cat=16
split_feature=5 9 10 3 1 5 4 2 9 6 5 10 6 9 5 4 9 5 1 3 5 5 1 3 3 2 4 5 4
split_gain=9.38009e+08 1.24519e+09 5.70231e+08 4.78419e+08 1.0583e+09 3.30017e+08 2.53504e+08 3.08768e+08 1.36542e+08 1.3095e+08 1.08619e+08 8.72633e+07 8.02727e+07 6.8312e+07 6.46105e+07 4.94676e+07 4.7111e+07 4.19529e+07 4.10397e+07 3.32298e+08 3.40787e+07 2.50464e+07 1.90503e+07 1.46924e+08 1.67421e+07 1.4253e+07 1.10872e+08 1.07556e+07 1.94072e+06
threshold=0 1 2 -73.926296234130845 -73.944568634033189 3 40.765203475952156 40.760446548461921 4 5 6 7 8 9 10 40.760854721069343 11 12 -73.955944061279283 -73.956516265869126 13 14 -73.974765777587876 -73.976222991943345 -73.982837677001939 40.739698410034187 40.751604080200202 15 40.746309280395515
decision_type=1 1 1 2 2 1 2 2 1 1 1 1 1 1 1 2 1 1 2 2 1 1 2 2 2 2 2 1 2
left_child=1 -1 3 4 5 6 7 8 -2 14 15 -3 16 -12 -7 -11 21 -15 19 22 -18 -4 23 27 -16 -22 -27 -14 -29
right_child=2 11 12 -5 -6 9 -8 -9 -10 10 13 -13 18 17 24 -17 20 -19 -20 -21 25 -23 -24 -25 -26 26 -28 28 -30
leaf_value=128.09347275636389 34.008568456136416 25.400608522945575 -33.327932027215333 75.934211287878924 106.88122958421386 -10.369780343841303 -13.816814707855849 80.29973250203463 -9.1515283643049568 -8.2563327540638891 24.133135214429661 -11.973024532354518 -34.535476131262151 10.661924350999104 -28.801748494388026 -35.600677507068106 -15.811978542274726 -15.693030324577446 -42.898563363091277 33.59645968044947 11.329654374966051 -12.320833801918875 -19.324219246612923 1.6759358051694573 -47.500997456111605 25.047332147077256 -17.512769672869478 -50.593423657038095 -42.678438799795074
leaf_weight=10901 14524 11057 8531 8409 7978 10694 14285 8228 10425 14456 12110 9698 9719 9455 7760 8871 15189 10556 8484 7805 7953 10817 10284 7739 9227 7710 14690 10668 8397
leaf_count=10901 14524 11057 8531 8409 7978 10694 14285 8228 10425 14456 12110 9698 9719 9455 7760 8871 15189 10556 8484 7805 7953 10817 10284 7739 9227 7710 14690 10668 8397
internal_value=0 49.5133 -2.84761 9.40372 5.33513 -0.914601 18.2526 32.0667 16.0047 -11.8642 -3.76556 7.94869 -16.9151 7.10578 -28.0358 -18.7124 -9.77511 -3.2461 -24.2362 -21.2972 -4.69551 -21.6709 -30.4823 -33.5869 -39.0682 0.89041 -2.83531 -43.0521 -47.2282
internal_weight=0 31656 274964 146978 138569 130591 47462 33177 24949 83129 55448 20755 127986 32121 27681 23327 64890 20011 63096 54612 45542 19348 46807 36523 16987 30353 22400 28784 19065
internal_count=306620 31656 274964 146978 138569 130591 47462 33177 24949 83129 55448 20755 127986 32121 27681 23327 64890 20011 63096 54612 45542 19348 46807 36523 16987 30353 22400 28784 19065
cat_boundaries=0 1 2 3 4 5 6 7 8 9 10 11 12 13 14 15 16
cat_threshold=24608 34 2 1112213778 120 10 2885947528 2 112 76 219185792 96 278922304 4269803536 1896354586 3871932420
is_linear=0
shrinkage=0.288339


Tree=8
num_leaves=30
num_cat=13
split_feature=7 3 1 7 8 8 1 3 3 8 7 3 1 1 3 1 3 7 8 1 4 7 7 8 8 2 4 8 3
split_gain=7.80272e+08 7.48686e+08 8.94492e+08 4.27766e+08 3.67836e+08 3.39367e+08 1.88173e+08 1.77459e+09 6.04043e+08 2.21613e+08 3.1892e+08 1.91464e+08 4.18005e+08 2.87576e+08 2.31134e+08 1.56854e+08 4.386e+08 1.50043e+08 1.09925e+08 9.08483e+07 8.49939e+07 8.11369e+07 5.50108e+07 5.28126e+07 5.27985e+07 4.86805e+07 1.00842e+08 4.72961e+07 5.16005e+06
threshold=0 -73.948383331298814 -73.953586578369126 1 2 3 -73.982433319091783 -73.972873687744126 -73.990268707275376 4 5 -73.97161483764647 -73.967632293701158 -73.954578399658189 -73.956836700439439 -73.951679229736314 -73.949687957763658 6 7 -74.001003265380831 40.724603652954109 8 9 10 11 40.743604660034187 40.760282516479499 12 -73.982227325439439
decision_type=1 2 2 1 1 1 2 2 2 1 1 2 2 2 2 2 2 1 1 2 2 1 1 1 1 2 2 1 2
left_child=1 2 4 -2 17 15 7 9 -8 10 -7 12 -10 14 -13 16 19 -1 -19 -5 -21 -11 23 -22 28 -26 -27 -24 -6
right_child=3 -3 -4 5 24 6 8 -9 11 21 -12 13 -14 -15 -16 -17 -18 18 -20 20 22 -23 27 -25 25 26 -28 -29 -30
leaf_value=52.904864197329054 -61.063171198769219 105.3101695778772 104.61539657637792 0.79354888028346571 -22.709628014533504 52.54371648802384 58.478747157408208 112.48588917958645 -34.622179261069476 -16.638014115988831 -22.268178825513907 -50.54946213645205 50.515671492402696 -84.086278596344457 15.571081428391118 -57.200014779205617 48.091900957820187 37.274310637816519 -4.793259274676279 -1.360057956142354 -37.292534219013717 -51.681087190677381 -24.437530186894758 -14.57467341506849 11.759895351521816 7.2061318467178346 -35.530262274693058 -52.333680213374699 -33.664715275378775
leaf_weight=10951 13471 7834 7837 11005 7725 8150 9126 11987 12248 12132 11119 8927 7794 8027 8560 8842 7779 8361 13297 8980 14858 10156 8043 20218 7776 8655 9673 14731 8099
leaf_count=10951 13471 7834 7837 11005 7725 8150 9126 11987 12248 12132 11119 8927 7794 8027 8560 8842 7779 8361 13297 8980 14858 10156 8043 20218 7776 8655 9673 14731 8099
internal_value=0 20.4746 12.338 -11.4409 2.55921 -8.12286 2.90008 15.0424 -8.99219 -13.1862 9.44911 -22.5678 -1.46081 -39.105 -18.2396 -20.7457 -16.9456 25.4981 11.5139 -23.4778 -27.472 -32.7186 -31.5194 -24.2534 -15.2943 -7.29102 -15.3905 -42.5874 -28.4056
internal_weight=0 90208 82374 216153 74537 202682 108226 53544 54682 41557 19269 45556 20042 25514 17487 94456 85614 32609 21658 77835 66830 22288 57850 35076 41928 26104 18328 22774 15824
internal_count=306361 90208 82374 216153 74537 202682 108226 53544 54682 41557 19269 45556 20042 25514 17487 94456 85614 32609 21658 77835 66830 22288 57850 35076 41928 26104 18328 22774 15824
cat_boundaries=0 1 2 4 6 8 9 10 12 13 14 16 18 20
cat_threshold=258048 112 154485216 85682098 2333951114 238002382 1677728032 29380657 4720141 49152 327808 1705376 6032385 2887044 2165834890 565250 617120795 2112 1114242 101195908
is_linear=0
shrinkage=0.288339


Tree=9
num_leaves=27
num_cat=11
split_feature=7 10 7 2 4 4 1 3 3 1 10 7 9 3 1 1 7 4 2 9 7 3 1 1 10 9
split_gain=5.39681e+08 3.76448e+08 2.5737e+08 2.16546e+08 7.5563e+08 5.2655e+08 2.127e+08 3.47786e+08 1.30241e+08 3.49859e+08 9.30059e+07 8.21862e+07 2.1685e+08 1.21822e+08 1.45186e+08 9.85079e+07 5.59649e+07 4.96485e+07 2.07789e+08 4.34451e+07 5.52669e+07 3.55654e+07 2.49092e+08 1.33984e+07 6.2844e+06 4.89958e+06
threshold=0 1 2 40.764078140258796 40.76477241516114 40.757280349731452 -73.945819854736314 -73.937175750732408 -73.994045257568345 -73.98760604858397 3 4 5 -73.99377059936522 -73.992404937744126 -73.979923248291001 6 40.726022720336921 40.738042831420906 7 8 -73.982486724853501 -73.976734161376939 -73.988269805908189 9 10
decision_type=1 1 1 2 2 2 2 2 2 2 1 1 1 2 2 2 1 2 2 1 1 2 2 2 1 1
left_child=1 3 24 5 -5 8 7 10 -1 -10 11 12 -4 -13 -15 -16 -12 -3 -19 -18 23 -20 -23 -21 -2 -22
right_child=2 17 6 4 -6 -7 -8 -9 9 -11 16 13 -14 14 15 -17 19 18 21 20 25 22 -24 -25 -26 -27
leaf_value=-8.0212846294549358 -39.029796373252914 17.720388557157325 35.074038000217193 75.908008137064755 -36.852621188234274 90.243157610031702 -43.557571700754167 53.088214121399766 79.102363553927447 -4.0846818638380018 -34.360169958817288 -32.564468868849296 -14.442190948853735 35.416890526837498 -27.418557626412873 3.9453964247026212 -25.355207253187068 34.764382953461542 -3.9709667206702934 12.552080433547523 -13.569115753798252 14.145826807747889 -46.850746079504972 -2.1905655561854531 -51.740044144431415 -22.100799262472751
leaf_weight=9328 8085 7869 15252 7964 12800 12993 12404 8225 7756 9081 10586 12456 14083 7720 13463 21628 14800 7996 12360 7741 16352 9079 14233 14898 7826 9158
leaf_count=9328 8085 7869 15252 7964 12800 12993 12404 8225 7756 9081 10586 12456 14083 7720 13463 21628 14800 7996 12360 7741 16352 9079 14233 14898 7826 9158
internal_value=0 14.7909 -10.3627 30.321 6.48995 42.928 -7.22534 -4.50202 19.2791 34.3796 -7.51649 -0.994878 11.3243 -7.53985 -0.224888 -8.11354 -15.0125 -3.27699 -7.08018 -11.7216 -7.49995 -16.5028 -23.1193 2.86837 -45.4248 -16.6846
internal_weight=0 111459 194677 59922 20764 39158 178766 166362 26165 16837 158137 84602 29335 55267 42811 35091 73535 51537 43668 62949 48149 35672 23312 22639 15911 25510
internal_count=306136 111459 194677 59922 20764 39158 178766 166362 26165 16837 158137 84602 29335 55267 42811 35091 73535 51537 43668 62949 48149 35672 23312 22639 15911 25510
cat_boundaries=0 1 2 3 4 5 6 7 8 9 10 11
cat_threshold=4710400 2 100 2 1572891 112 27 96 7936 2 28
is_linear=0
shrinkage=0.288339


Tree=10
num_leaves=25
num_cat=14
split_feature=7 5 10 7 4 2 1 4 5 5 7 4 2 2 7 1 5 4 2 9 9 5 5 7
split_gain=5.66079e+08 3.69087e+08 5.72191e+08 2.31594e+08 1.74776e+08 1.79921e+08 1.44675e+08 1.24235e+09 2.04402e+08 1.38152e+08 1.56548e+08 1.28505e+08 5.75758e+08 5.38208e+08 1.03928e+08 1.69885e+08 9.00686e+07 7.59518e+07 6.71045e+07 6.60507e+07 6.28015e+07 1.0252e+08 7.83914e+07 3.68133e+07
threshold=0 1 2 3 40.736772537231452 40.747941970825202 -73.998027801513658 40.748811721801765 4 5 6 40.760488510131843 40.75891304016114 40.75775337219239 7 -73.945819854736314 8 40.718423843383796 40.770090103149421 9 10 11 12 13
decision_type=1 1 1 1 2 2 2 2 1 1 1 2 2 2 1 2 1 2 2 1 1 1 1 1
left_child=1 2 -1 -2 -3 -6 7 8 -5 10 -8 12 19 -13 16 17 -11 -16 -7 -12 22 -22 -19 -15
right_child=3 4 -4 6 5 18 9 -9 -10 14 11 13 -14 23 15 -17 -18 20 -20 -21 21 -23 -24 -25
leaf_value=90.317323652489037 -44.565552176748547 40.086727119627255 3.4164628504358525 8.6836496210725791 31.851462630803685 -32.836671785742752 -48.58013405756909 83.361992356780675 -48.815872354628397 36.841734555309003 -10.716909928930543 37.391870956503126 49.422052752934157 -36.76614512756619 22.405863788503851 -47.240606328986317 -0.70604921760611972 -22.441511368547495 -0.41718946412790292 -41.01760038302676 3.6610530578174787 -24.949917912263022 9.8952130870522534 -62.431695438598638
leaf_weight=13443 13390 8930 11818 7807 7711 12606 11903 12684 14891 9282 11151 7700 12256 8485 8759 7794 12295 7870 9142 13039 17580 25422 28931 11815
leaf_count=13443 13390 8930 11818 7807 7711 12606 11903 12684 14891 9282 11151 7700 12256 8485 8759 7794 12295 7870 9142 13039 17580 25422 28931 11815
internal_value=0 22.7291 49.7473 -7.80253 4.89183 -5.83457 -5.64616 11.2982 -29.0851 -8.73492 -18.285 -12.6428 -1.3497 -27.312 -2.54419 -6.59611 15.5125 -2.99016 -19.2481 -27.1327 -5.79249 -13.266 2.95004 -51.8934
internal_weight=0 63650 25261 243054 38389 29459 229664 35382 22698 194282 76349 64446 36446 28000 117933 96356 21577 88562 21748 24190 79803 43002 36801 20300
internal_count=306704 63650 25261 243054 38389 29459 229664 35382 22698 194282 76349 64446 36446 28000 117933 96356 21577 88562 21748 24190 79803 43002 36801 20300
cat_boundaries=0 1 2 3 4 5 6 7 8 9 10 11 12 13 14
cat_threshold=491520 110152282 2 112 3389710376 1879222708 8388619 16768 114562048 52 56 2355118594 2281963586 527236
is_linear=0
shrinkage=0.288339


Tree=11
num_leaves=30
num_cat=25
split_feature=8 8 5 7 8 5 1 3 3 1 8 7 9 7 7 8 8 7 5 5 7 7 9 8 8 8 7 8 7
split_gain=6.03658e+08 2.70975e+08 2.98779e+08 2.4905e+08 2.19667e+08 2.08857e+08 1.49508e+08 7.98894e+08 4.34957e+08 3.42551e+08 1.90291e+08 1.35659e+08 1.31078e+08 1.13596e+08 1.12251e+08 1.01226e+08 9.92177e+07 1.88676e+08 1.25646e+08 8.78201e+07 1.40127e+08 7.35048e+07 4.89936e+07 1.10633e+08 4.48618e+07 4.33857e+07 3.30238e+07 3.12591e+07 2.75011e+07
threshold=0 1 2 3 4 5 -73.982738494873033 -73.972637176513658 -73.978649139404283 -73.973361968994112 6 7 8 9 10 11 12 13 14 15 16 17 18 19 20 21 22 23 24
decision_type=1 1 1 1 1 1 2 2 2 2 1 1 1 1 1 1 1 1 1 1 1 1 1 1 1 1 1 1 1
left_child=-1 5 3 4 -3 14 7 10 9 -8 -7 -12 -5 -10 -2 -14 17 25 -19 26 -21 -17 23 -16 -24 -4 -18 -22 -25
right_child=1 2 16 12 -6 6 8 -9 13 -11 11 -13 15 -15 22 21 19 18 -20 20 27 -23 24 28 -26 -27 -28 -29 -30
leaf_value=68.725045375459743 -0.82575583994278978 70.593429982666066 -32.912815610931823 32.350203614919344 16.638311208019079 19.856966032427266 -18.013393560242157 93.46911714768936 -20.37821914343829 65.194533586422395 -6.4559815827678886 -56.346440349466114 17.526077112577791 -59.131857364125189 4.8712889381642928 2.2525347548409504 -18.144570044445622 44.475088407892997 2.0100248313471956 22.226088671268187 -6.4765224249528863 -32.907544497187089 -25.179219722062854 -23.981253609538335 -53.102734134560166 -4.9666690351194589 -44.499845505227341 -30.001543098872865 -47.760299063742373
leaf_weight=10267 12863 12224 7718 12302 12955 10864 8269 7744 15113 8085 10468 7959 12651 10877 8158 9808 7986 11036 12137 10122 8485 9886 8312 8394 12105 11448 8150 10622 8379
leaf_count=10267 12863 12224 7718 12302 12955 10864 8269 7744 15113 8085 10468 7959 12651 10877 8158 9808 7986 11036 12137 10122 8485 9886 8312 8394 12105 11448 8150 10622 8379
internal_value=0 -2.1635 6.00081 20.0647 42.9563 -11.5094 -1.88356 11.4866 -13.5779 23.2095 -10.3343 -28.1372 7.10744 -36.7268 -24.6174 -2.542 -5.20313 4.83226 22.3074 -14.5625 -5.10785 -15.4504 -31.3539 -22.656 -41.8603 -16.2999 -31.5917 -19.6171 -36.0101
internal_weight=0 295120 157530 69826 25179 137590 79379 37035 42344 16354 29291 18427 44647 25990 58211 32345 87704 42339 23173 45365 29229 19694 45348 24931 20417 19166 16136 19107 16773
internal_count=305387 295120 157530 69826 25179 137590 79379 37035 42344 16354 29291 18427 44647 25990 58211 32345 87704 42339 23173 45365 29229 19694 45348 24931 20417 19166 16136 19107 16773
cat_boundaries=0 2 4 5 6 8 9 11 12 13 14 15 17 19 20 21 22 23 24 25 27 29 31 32 34 35
cat_threshold=524288 65536 1327895538 34617314 3843680776 9347084 2692802572 2670612 1687184120 1275068512 4930 12344644 72 4650880 2107712 2693792769 90472448 2420122625 27920397 16007385 4325814 172097824 9454813 4214401 30 1157894658 1048608 36045216 13056 2151677952 2754560 1551138 1146880 4489232 251520
is_linear=0
shrinkage=0.288339


Tree=12
num_leaves=32
num_cat=26
split_feature=8 7 8 5 2 4 8 7 8 8 5 5 8 8 5 8 7 7 5 4 7 5 4 8 4 8 5 7 8 8 5
split_gain=1.5867e+09 4.50138e+08 5.59644e+08 4.19996e+08 3.71182e+08 3.08961e+08 1.86402e+08 1.76916e+08 2.77114e+08 1.6622e+08 2.0236e+08 1.12608e+08 1.68367e+08 1.09698e+08 1.09141e+08 1.02738e+08 1.0466e+08 9.78327e+07 9.69026e+07 8.31995e+07 7.27063e+07 6.12644e+07 5.97156e+07 5.67833e+07 5.46603e+07 4.94407e+07 6.14132e+07 4.56514e+07 3.99961e+07 1.91863e+07 1.73557e+07
threshold=0 1 2 3 40.719968795776374 40.724042892456062 4 5 6 7 8 9 10 11 12 13 14 15 16 40.75866889953614 17 18 40.760053634643562 19 40.752538681030281 20 21 22 23 24 25
decision_type=1 1 1 1 2 2 1 1 1 1 1 1 1 1 1 1 1 1 1 2 1 1 2 1 2 1 1 1 1 1 1
left_child=-1 2 3 13 -4 -6 14 -5 -9 18 22 12 -8 -2 19 17 -17 -13 -7 -3 -12 -18 -11 -19 -14 26 -16 -27 -20 -23 -29
right_child=1 6 4 7 5 9 11 8 -10 10 20 15 24 -15 25 16 21 23 28 -21 -22 29 -24 -25 -26 27 -28 30 -30 -31 -32
leaf_value=115.27926684042218 30.296885411929761 -19.246546873991171 58.574792976632899 98.484653680544923 46.439987980981954 -1.5588514359100059 36.814222730173384 82.547744172440204 8.976769284118415 6.0239113552751355 -1.4190702611735548 32.711530380926163 -24.338777837420658 -13.778526820197342 -36.267775349050147 7.9569594652230986 -10.43664847971446 10.737728517557397 -22.151073957301573 15.400270276640201 -34.614477170292005 -24.821533961398359 41.548694062070844 -22.954895634430038 9.2390489593213641 -23.181531217062123 -3.536233176681125 -36.125286841950853 -47.654606338447508 -44.276455223885975 -55.747601127635839
leaf_weight=10129 8528 14134 7755 8055 7884 7830 13362 8574 8440 7749 10587 7900 7707 10279 8322 10467 13507 8234 8144 9644 11344 7755 7983 8271 8329 12548 11087 8044 14854 10477 8629
leaf_count=10129 8528 14134 7755 8055 7884 7830 13362 8574 8440 7749 10587 7900 7707 10279 8322 10467 13507 8234 8144 9644 11344 7755 7983 8271 8329 12548 11087 8044 14854 10477 8629
internal_value=0 -0.389935 12.4946 38.867 -1.28 -7.39913 -10.1841 63.2544 46.2391 -13.632 -0.768065 -1.84939 12.9956 6.24486 -21.2228 -8.40806 -17.0092 6.47233 -29.3058 -5.18814 -18.6458 -25.2425 24.1255 -6.17112 -6.92403 -29.044 -17.6512 -36.5506 -38.7186 -36.1287 -46.4722
internal_weight=0 296423 128006 43876 84130 76375 168417 25069 17014 68491 37663 96009 29398 18807 72408 66611 42206 24405 30828 23778 21931 31739 15732 16505 16036 48630 19409 29221 22998 18232 16673
internal_count=306552 296423 128006 43876 84130 76375 168417 25069 17014 68491 37663 96009 29398 18807 72408 66611 42206 24405 30828 23778 21931 31739 15732 16505 16036 48630 19409 29221 22998 18232 16673
cat_boundaries=0 2 3 5 6 8 9 11 13 14 15 17 19 20 22 23 24 25 26 27 29 31 32 33 35 37 38
cat_threshold=16384 64 520468 313692205 201345673 1210268972 2559293612 222319384 270356 36831264 134234249 1628185664 34309394 1499758774 2212561042 1196426754 8521862 276955137 67127816 277315916 103023168 36470816 4194944 1572938 2684464256 364544 1275861508 35913792 33554464 143329416 134217736 1713901602 2100896 271424 1026 1078985729 140290 1650472576
is_linear=0
shrinkage=0.288339


Tree=13
num_leaves=29
num_cat=28
split_feature=8 5 8 10 5 7 7 5 8 8 5 8 10 8 7 5 10 7 5 7 5 8 7 5 8 7 7 9
split_gain=7.18583e+08 2.62813e+09 5.03113e+08 4.00162e+08 4.84665e+08 6.84318e+08 2.01123e+08 5.17837e+08 1.86638e+08 1.82149e+08 1.59092e+08 1.56335e+08 2.95922e+08 1.09235e+08 1.28229e+08 1.04869e+08 1.16942e+08 9.32701e+07 6.67383e+07 6.16064e+07 6.6638e+07 6.13179e+07 5.47243e+07 7.51342e+07 3.48179e+07 1.80747e+07 1.71421e+07 1.30801e+07
threshold=0 1 2 3 4 5 6 7 8 9 10 11 12 13 14 15 16 17 18 19 20 21 22 23 24 25 26 27
decision_type=1 1 1 1 1 1 1 1 1 1 1 1 1 1 1 1 1 1 1 1 1 1 1 1 1 1 1 1
left_child=1 -1 -3 4 -4 -6 7 -2 -9 15 11 12 -11 22 -15 -8 19 -13 -16 -17 -21 -19 -12 -24 -20 -18 -5 -28
right_child=6 2 3 26 5 -7 9 8 -10 10 13 17 -14 14 18 16 25 21 24 20 -22 -23 23 -25 -26 -27 27 -29
leaf_value=184.30783553287282 80.925542719093613 -52.560632042396122 3.7447530599746481 -16.62172633510788 19.854558465316941 136.36154389739772 4.627838090032613 26.572138759210794 -23.550034920673458 57.330988217644553 -37.193409177295244 14.065148583504792 -6.7270112573190559 28.493419898585667 -27.016086328180567 -54.578182255562716 -3.7555155480180034 0.9968834114701669 -12.890131587361285 -7.0760179069358031 -42.532960467627461 -33.38862195952467 8.1755110748560291 -26.152207550641254 11.85629788386472 -19.24753058110128 6.8423704510858707 -8.1637930884271679
leaf_weight=7944 7846 9236 14953 8410 8896 7919 11786 10242 15334 12909 12434 14303 11129 9922 10994 11204 13587 8077 8280 7859 10093 9179 8431 14095 10825 11633 9113 10117
leaf_count=7944 7846 9236 14953 8410 8896 7919 11786 10242 15334 12909 12434 14303 11129 9922 10994 11204 13587 8077 8280 7859 10093 9179 8431 14095 10825 11633 9113 10117
internal_value=0 28.0507 9.7979 19.5433 41.589 75.0621 -4.18047 16.4772 -3.46013 -7.69446 -1.4461 10.2345 27.7187 -10.1087 0.182775 -20.0115 -25.3514 -3.11431 -9.19368 -37.7776 -27.0992 -17.354 -21.8673 -13.3179 1.12268 -10.9398 -5.8225 -1.05268
internal_weight=0 76588 68644 59408 31768 16815 230162 33422 25576 196740 130578 55597 24038 74981 40021 66162 54376 31559 30099 29156 17952 17256 34960 22526 19105 25220 27640 19230
internal_count=306750 76588 68644 59408 31768 16815 230162 33422 25576 196740 130578 55597 24038 74981 40021 66162 54376 31559 30099 29156 17952 17256 34960 22526 19105 25220 27640 19230
cat_boundaries=0 2 3 5 6 7 8 9 10 12 14 15 17 18 20 21 22 23 24 25 26 27 29 30 31 33 34 35 36
cat_threshold=35713116 49736 8288 16384 64 2 1286686862 14298337 43008 35723792 2148271489 238167332 270009251 18423824 831992464 2160199680 136318372 2 2227176448 207620516 4211464 2300838016 2 9786380 2187330570 11616536 1086570794 1141113856 100925441 12845433 2185267464 553715712 33558529 4129664 4235391 14
is_linear=0
shrinkage=0.288339


Tree=14
num_leaves=31
num_cat=17
split_feature=8 10 8 0 9 8 2 4 2 8 4 2 8 10 9 9 8 8 8 10 8 0 8 1 3 4 4 2 2 8
split_gain=3.50914e+08 3.12745e+08 2.26916e+08 1.54895e+08 1.22122e+08 4.06576e+08 1.1395e+08 1.58681e+08 2.88405e+08 3.05782e+08 8.29411e+07 1.8433e+08 1.18359e+08 1.11732e+08 7.52919e+07 6.68015e+07 7.70055e+07 6.00509e+07 4.16714e+07 6.9891e+07 3.97614e+07 3.60037e+07 2.63028e+07 1.65554e+07 2.73595e+08 1.24836e+07 9.83178e+06 1.7734e+08 1.56841e+08 2.05413e+06
threshold=0 1 2 1.5000000000000002 3 4 40.726972579956062 40.768270492553718 40.754705429077156 5 40.70741271972657 40.718976974487312 6 7 8 9 10 11 12 13 14 1.5000000000000002 15 -73.967922210693345 -73.96581649780272 40.748567581176765 40.746988296508796 40.739431381225593 40.752336502075202 16
decision_type=1 1 1 2 1 1 2 2 2 1 2 2 1 1 1 1 1 1 1 1 1 2 1 2 2 2 2 2 2 1
left_child=10 2 3 -2 5 -4 -6 8 9 -8 -1 -12 14 15 17 16 -14 -13 -16 -20 25 23 -15 24 26 -3 27 -22 -28 -24
right_child=1 20 4 -5 6 -7 7 -9 -10 -11 11 12 13 22 18 -17 -18 -19 19 -21 21 -23 29 -25 -26 -27 28 -29 -30 -31
leaf_value=12.934992736732164 61.3099224898193 -28.231294703336765 64.189239532045036 10.974786148628958 -30.192336341822145 -12.307371133251605 -48.397102354842659 -19.081261347993458 46.546399565101915 30.486211775950277 24.942036674945946 -15.408898430179118 -10.421608310255001 -28.877379138770081 -1.4330932486083068 -59.092350235354047 -49.517466925240221 14.398385891255876 -8.9127909292325658 -40.793709685054004 -52.205068648457022 9.5761230757564562 -5.6163031580020144 -16.207688457393182 43.022074712843327 -13.118017851712768 18.388722987386259 9.1440120014330155 -37.748773467962522 -12.108080631049365
leaf_weight=8276 13369 7710 11574 8229 8113 11430 8035 13657 15193 8172 8094 9557 8331 8195 7712 11472 8478 13430 10753 12254 7813 12461 8315 13744 7964 11480 7721 7766 8788 8380
leaf_count=8276 13369 7710 11574 8229 8113 11430 8035 13657 15193 8172 8094 9557 8331 8195 7712 11472 8478 13430 10753 12254 7813 12461 8315 13744 7964 11480 7721 7766 8788 8380
internal_value=0 5.02445 16.157 42.1966 8.73954 26.2577 1.13547 6.80961 18.0859 -8.66643 -14.8694 -16.878 -20.0575 -29.6955 -10.4852 -42.091 -30.2649 1.99602 -19.8087 -25.9445 -7.71546 -4.35657 -15.5554 -7.59201 -4.61533 -19.2499 -16.4972 -21.7044 -11.5218 -8.91264
internal_weight=0 183219 97772 21598 76174 23004 53170 45057 31400 16207 123247 114971 106877 53171 53706 28281 16809 22987 30719 23007 85447 66257 24890 53796 40052 19190 32088 15579 16509 16695
internal_count=306466 183219 97772 21598 76174 23004 53170 45057 31400 16207 123247 114971 106877 53171 53706 28281 16809 22987 30719 23007 85447 66257 24890 53796 40052 19190 32088 15579 16509 16695
cat_boundaries=0 2 3 5 6 8 10 12 13 14 15 17 19 21 22 24 26 28
cat_threshold=582277424 40146506 2 652 8337 24 1141376066 152584484 2369790018 202393604 538187824 35914754 2 21 58 8437760 4168 537919504 33555456 1048592 33554432 1 1074266112 213041 8404992 72 33554688 4227072
is_linear=0
shrinkage=0.288339


Tree=15
num_leaves=29
num_cat=28
split_feature=8 10 5 5 9 8 8 10 9 8 8 8 10 9 5 8 9 6 5 5 8 5 5 9 8 8 8 6
split_gain=3.8942e+08 3.76113e+08 3.74305e+08 2.94933e+08 1.97969e+08 2.30615e+08 1.96744e+08 1.42591e+08 1.90416e+08 1.88808e+08 1.28015e+08 1.15491e+08 1.04871e+08 9.32912e+07 1.31332e+08 1.07075e+08 7.97536e+07 6.8252e+07 1.07297e+08 4.67476e+07 9.60316e+07 3.71285e+07 1.9332e+07 1.40741e+07 1.02637e+07 7.2045e+06 5.36463e+06 4.27351e+06
threshold=0 1 2 3 4 5 6 7 8 9 10 11 12 13 14 15 16 17 18 19 20 21 22 23 24 25 26 27
decision_type=1 1 1 1 1 1 1 1 1 1 1 1 1 1 1 1 1 1 1 1 1 1 1 1 1 1 1 1
left_child=1 2 10 6 -4 -6 16 8 -8 -10 -1 19 13 -13 -15 -16 -2 -18 -19 -5 -21 -14 -3 26 -23 -24 -9 -27
right_child=3 22 4 11 5 -7 7 23 9 -11 -12 12 21 14 15 -17 17 18 -20 20 -22 24 25 -25 -26 27 -28 -29
leaf_value=23.550874755235981 -33.062801765022812 -16.154096165602787 14.413791341353051 6.2622851738541954 31.658047910012179 94.106014491443915 55.162959557524083 -2.9405047466902956 33.402870207205183 -13.813739021946569 -24.642703226486937 -61.072764799380224 -29.191799799857694 1.0439362966002561 -17.983939814948044 -64.831707707176534 13.165104959124463 -37.999468634991878 3.9539977470052428 4.2488399460563357 -32.951485364236468 -0.86957193687350898 -6.7239135740570095 -9.0821280980603998 -13.580362483883924 6.5097743037315681 6.7106117921497068 -2.2366926216471024
leaf_weight=9596 11837 9679 7823 15203 8482 12044 11148 7968 14549 13528 8643 9603 8872 8738 7803 8586 10807 9220 11132 11542 11442 11008 12613 14062 10117 9340 11811 9117
leaf_count=9596 11837 9679 7823 15203 8482 12044 11148 7968 14549 13528 8643 9603 8872 8738 7803 8586 10807 9220 11132 11542 11442 11008 12613 14062 10117 9340 11811 9117
internal_value=0 15.2777 32.9589 -7.48658 53.645 68.4965 2.4784 11.5815 23.4007 10.6748 0.705471 -18.7188 -26.1339 -36.9171 -27.5261 -42.6991 -12.9845 -5.29946 -15.1164 -6.12508 -14.3136 -13.6087 -4.95164 -2.13137 -6.98234 -1.43131 2.82526 2.19647
internal_weight=0 87337 46588 218976 28349 20526 116062 73066 39225 28077 18239 102914 64727 34730 25127 16389 42996 31159 20352 38187 22984 29997 40749 33841 21125 31070 19779 18457
internal_count=306313 87337 46588 218976 28349 20526 116062 73066 39225 28077 18239 102914 64727 34730 25127 16389 42996 31159 20352 38187 22984 29997 40749 33841 21125 31070 19779 18457
cat_boundaries=0 2 3 4 5 6 8 10 11 12 14 16 18 19 20 21 23 24 25 26 27 29 30 31 32 34 36 38 39
cat_threshold=1610878784 180474112 2 629689522 473374094 17 3840 142622720 92426253 16910419 2 68 2318401696 1058348 1610614528 146800896 293802021 18612243 2 96 17310224 2187886616 139912 65 96 67982 1660985344 16908321 786435 24672 17358944 30 2323128330 132612 1074003968 42045440 273186992 1057312 112
is_linear=0
shrinkage=0.288339


Tree=16
num_leaves=31
num_cat=26
split_feature=8 5 7 5 8 8 5 8 7 8 7 5 8 7 3 1 1 7 8 8 7 8 7 9 5 7 7 8 8 1
split_gain=2.71675e+08 3.01998e+08 2.29572e+08 1.50006e+08 1.8467e+08 1.45107e+08 1.21467e+08 1.20628e+08 1.08749e+08 9.8341e+07 1.29653e+08 9.98017e+07 1.06981e+08 9.67973e+07 9.42797e+07 4.91673e+08 3.95096e+08 1.86244e+08 9.24398e+07 8.05644e+07 6.14599e+07 5.8998e+07 4.52421e+07 6.61737e+07 4.43687e+07 3.13188e+07 2.85974e+07 2.85657e+07 2.46199e+07 6.29014e+06
threshold=0 1 2 3 4 5 6 7 8 9 10 11 12 13 -73.97600936889647 -73.975177764892564 -73.97137069702147 14 15 16 17 18 19 20 21 22 23 24 25 -73.990711212158189
decision_type=1 1 1 1 1 1 1 1 1 1 1 1 1 1 2 2 2 1 1 1 1 1 1 1 1 1 1 1 1 2
left_child=2 5 6 4 -4 13 -1 -8 -6 14 11 -11 -13 21 15 17 -16 -3 -5 -12 -20 -2 -7 -24 -22 -9 -21 -25 -15 -19
right_child=1 9 3 18 8 22 7 25 -10 10 19 12 -14 28 16 -17 -18 29 20 26 24 -23 23 27 -26 -27 -28 -29 -30 -31
leaf_value=16.43146458241166 21.765820575168664 9.0683266001356291 4.5891447645933932 32.765533832268005 78.095899075430225 -54.596676001370959 5.4690254146610355 -19.120007284891972 30.754954703290036 -5.1349946550786951 -24.319848146973833 52.279030918531618 12.78183760192076 -34.972194467105524 11.128180058060639 61.099162110420217 -60.865207397300928 -45.780453653706402 17.489751663191804 18.396653570959941 4.2171895233576064 -13.002159724264502 -53.032849442185984 -9.55627225944081 -24.816443145630615 -41.881708506397366 -5.8378737709383586 -32.286342990604879 -15.731477899161986 -33.206547247396642
leaf_weight=12347 8201 11247 10012 8543 8083 9789 12352 10330 8340 10384 13206 9521 14251 10220 13241 8251 12068 7701 9150 7843 8024 7901 8160 8673 9515 10215 8238 9960 12509 7811
leaf_count=12347 8201 11247 10012 8543 8083 9789 12352 10330 8340 10384 13206 9521 14251 10220 13241 8251 12068 7701 9150 7843 8024 7901 8160 8673 9515 10215 8238 9960 12509 7811
internal_value=0 -10.3138 7.70032 19.1364 35.5277 -24.6883 -7.89207 -17.0372 54.2885 -1.54577 6.37606 18.4297 28.7086 -12.3745 -9.87584 -0.177788 -23.2624 -19.1672 6.79134 -7.69148 -1.58628 4.72239 -37.7102 -31.4139 -11.5689 -30.5416 6.00936 -21.7824 -24.4644 -39.5768
internal_weight=0 199175 106911 61667 26435 75413 45244 32897 16423 123762 63443 34156 23772 38831 60319 35010 25309 26759 35232 29287 26689 16102 36582 26793 17539 20545 16081 18633 22729 15512
internal_count=306086 199175 106911 61667 26435 75413 45244 32897 16423 123762 63443 34156 23772 38831 60319 35010 25309 26759 35232 29287 26689 16102 36582 26793 17539 20545 16081 18633 22729 15512
cat_boundaries=0 2 3 4 5 7 9 10 12 13 15 16 17 19 20 21 23 25 26 28 29 30 31 32 33 35 37
cat_threshold=4107275537 202004482 3489883940 6038638 887865412 608175361 655360 137044132 58991501 3502401536 873464833 526336 2212224 136528390 54789081 12905350 126355456 262216 9543680 6409008 13387292 4194305 530432 262184 10593280 2167296 2228228 50602753 12591191 96 185865344 1582080 1184816 16798218 4259904 134226052 33817345
is_linear=0
shrinkage=0.288339


Tree=17
num_leaves=30
num_cat=12
split_feature=5 7 10 1 3 7 4 5 1 3 1 1 1 3 1 1 10 1 3 6 5 5 1 10 3 4 1 7 5
split_gain=2.17355e+08 2.08527e+08 2.24802e+08 1.82585e+08 3.12913e+08 1.72835e+08 1.01888e+08 1.00172e+08 9.69059e+07 1.53637e+08 3.6355e+08 1.19571e+08 1.11648e+08 1.25824e+08 3.6271e+08 1.81478e+08 1.19399e+08 9.6217e+07 1.10047e+08 8.17171e+07 1.31229e+08 1.05105e+08 6.90689e+07 5.97284e+07 5.00088e+07 4.98558e+07 1.02307e+08 9.85875e+06 8.27726e+06
threshold=0 1 2 -73.986598968505845 -73.981952667236314 3 40.744108200073249 4 -74.001712799072251 -73.987201690673814 -73.991710662841783 -73.977558135986314 -73.948772430419908 -73.968395233154268 -73.977558135986314 -73.970470428466783 5 -73.990207672119126 -73.977642059326143 6 7 8 -73.967922210693345 9 -73.982654571533189 40.750070571899421 -73.975383758544893 10 11
decision_type=1 1 1 2 2 1 2 1 2 2 2 2 2 2 2 2 1 2 2 1 1 1 2 1 2 2 2 1 1
left_child=1 2 3 -1 -5 19 7 -3 -7 10 -10 -12 13 15 -15 16 -11 -8 -19 20 -2 23 -20 -21 -23 -22 -27 -4 -29
right_child=5 6 27 4 -6 8 17 -9 9 12 11 -13 -14 14 -16 -17 -18 18 22 21 25 24 -24 -25 -26 26 -28 28 -30
leaf_value=63.078029362417276 42.690978708936285 0.5668060572418433 -4.3649022597954019 66.641344552646103 -3.6733369596764058 10.736301677241263 33.634816225106235 -41.79138667383782 -50.443464061235474 -60.552401614490897 4.70170370160894 49.061035888842504 -55.883694280967838 31.985428951986176 -34.222244863982752 7.924885094363467 -21.558039279242756 22.444056915877479 0.76716617399403819 26.624658499155519 -10.804193777446514 -2.7168849886661923 -36.217201928174312 -6.6859858882843906 -32.137243948499147 37.50626432952528 -8.6729396296327579 13.328177942914598 1.4447814397063046
leaf_weight=13106 10013 9178 11025 7956 15297 12738 7814 9326 8163 13977 14104 7825 7755 12323 15420 7702 12396 9241 8919 9738 10982 8623 7866 8201 10822 7909 7948 8229 11877
leaf_count=13106 10013 9178 11025 7956 15297 12738 7814 9326 8163 13977 14104 7825 7755 12323 15420 7702 12396 9241 8919 9738 10982 8623 7866 8201 10822 7909 7948 8229 11877
internal_value=0 9.95589 20.5407 35.9228 20.4938 -5.77613 -3.7006 -20.8692 -12.9039 -15.9314 1.28166 20.6219 -23.3714 -19.2423 -4.80777 -30.9649 -42.3151 5.70613 -2.73665 5.01806 14.641 -4.47715 -16.6313 11.4177 -19.13 4.09178 14.4135 2.54698 6.33851
internal_weight=0 119834 67490 36359 23253 186639 52344 18504 112403 99665 30092 21929 69573 61818 27743 34075 26373 33840 26026 74236 36852 37384 16785 17939 19445 26839 15857 31131 20106
internal_count=306473 119834 67490 36359 23253 186639 52344 18504 112403 99665 30092 21929 69573 61818 27743 34075 26373 33840 26026 74236 36852 37384 16785 17939 19445 26839 15857 31131 20106
cat_boundaries=0 1 2 3 4 5 6 7 8 9 10 11 12
cat_threshold=730022668 2053509 2 8886784 159580164 2 112 3448832 1145608258 2 1052805 42139904
is_linear=0
shrinkage=0.288339


Tree=18
num_leaves=26
num_cat=8
split_feature=7 2 7 4 2 6 7 3 1 3 1 1 3 7 10 0 3 2 3 1 1 1 7 7 3
split_gain=3.54977e+08 5.33811e+08 1.4217e+08 1.33484e+08 2.87088e+08 1.07359e+08 9.20429e+07 9.45326e+07 2.39292e+08 8.16154e+07 9.25845e+08 4.6942e+08 3.87726e+08 9.78729e+07 6.41768e+07 8.52155e+07 5.1551e+07 7.21937e+07 3.4237e+07 5.00362e+08 2.54412e+08 3.15124e+07 4.29364e+07 2.27503e+07 1.52758e+07
threshold=0 40.748823165893562 1 40.704854965209968 40.713029861450202 2 3 -73.988140106201158 -73.97838973999022 -73.954936981201158 -73.967632293701158 -73.958988189697251 -73.973133087158189 4 5 1.5000000000000002 -73.970745086669908 40.754705429077156 -73.993267059326143 -73.99102401733397 -73.99102401733397 -73.990711212158189 6 7 -73.98003768920897
decision_type=1 2 1 2 2 1 1 2 2 2 2 2 2 1 1 2 2 2 2 2 2 2 1 1 2
left_child=1 -1 5 -4 -5 6 7 -2 -9 11 -11 13 -13 16 15 24 17 -6 19 -15 -20 -8 -23 -16 -7
right_child=2 -3 3 4 9 14 21 8 -10 10 -12 12 -14 18 23 -17 -18 -19 20 -21 -22 22 -24 -25 -26
leaf_value=96.140772840133522 -15.455580491496017 -6.3907213897939625 34.771401479797056 51.837290421032989 -14.256548689578716 -33.532521013027782 0.99692217109739401 60.069120416147548 -8.1961194830631694 72.999319076275697 -41.454794463134441 79.772304658769968 -4.8645228315094915 -68.731158648728226 -2.3884937490062574 -9.2067660205180388 21.629504474333412 11.849183101118101 20.000698395795155 19.708005984133461 -22.705344164690079 -7.5077845817371642 -36.696162526146935 -21.198358958337611 -51.980556418644682
leaf_weight=7749 7834 9174 9985 8604 22390 7753 7865 7728 9420 11305 12110 9323 8634 10986 14275 9837 7852 14436 15045 10217 49982 9101 7789 8505 8412
leaf_count=7749 7834 9174 9985 8604 22390 7753 7865 7728 9420 11305 12110 9323 8634 10986 14275 9837 7852 14436 15045 10217 49982 9101 7789 8505 8412
internal_value=0 40.7072 -2.17303 2.41875 0.62196 -11.0646 -1.6313 10.7011 22.67 -1.95291 13.8495 -4.44315 39.1961 -10.4446 -20.6662 -30.4473 0.510389 -4.01994 -16.1154 -26.1793 -12.8151 -14.0724 -21.0775 -9.45943 -43.2902
internal_weight=0 16923 289388 190869 180884 98519 49737 24982 17148 172280 23415 148865 17957 130908 48782 26002 44678 36826 86230 21203 65027 24755 16890 22780 16165
internal_count=306311 16923 289388 190869 180884 98519 49737 24982 17148 172280 23415 148865 17957 130908 48782 26002 44678 36826 86230 21203 65027 24755 16890 22780 16165
cat_boundaries=0 1 2 3 4 5 6 7 8
cat_threshold=4194304 205407 112 204804 11011072 2 592 197185
is_linear=0
shrinkage=0.288339


Tree=19
num_leaves=19
num_cat=2
split_feature=0 4 2 2 6 3 3 4 3 1 2 4 9 3 2 4 4 1
split_gain=1.91793e+08 1.87661e+08 1.19092e+09 5.8364e+08 1.09991e+08 1.24829e+08 2.03991e+08 1.5167e+08 9.20508e+07 4.96095e+08 8.92662e+07 3.09744e+08 7.01525e+07 7.14911e+07 6.17551e+07 1.0703e+09 4.23997e+08 3.95375e+07
threshold=1.5000000000000002 40.785982131958015 40.769731521606452 40.783395767211921 0 -73.958438873291001 -73.980594635009751 40.74945259094239 -73.947666168212862 -73.944568634033189 40.718412399291999 40.713085174560554 1 -73.980228424072251 40.759332656860359 40.752302169799812 40.763296127319343 -73.986598968505845
decision_type=2 2 2 2 1 2 2 2 2 2 2 2 1 2 2 2 2 2
left_child=1 3 -3 8 5 6 7 -2 9 10 -1 -12 13 -6 16 -16 -13 -14
right_child=4 2 -4 -5 12 -7 -8 -9 -10 -11 11 14 17 -15 15 -17 -18 -19
leaf_value=-36.727043695771734 12.12564040049827 107.21817149113978 -35.141653367676412 60.943854477728891 -4.4605180795202735 50.635316195070992 -14.605512526253476 61.453551535193675 -33.272343751701783 61.329765763454077 41.536624784662273 -27.43437348516775 4.7061901633589089 31.428465299254448 62.96418768722922 -30.741512832584782 25.02725897986349 -18.489091542167909
leaf_weight=12051 14430 8026 12292 9696 8946 9179 13732 8062 14682 7785 8740 76701 10064 9441 13656 38748 15324 15407
leaf_count=12051 14430 8026 12292 9696 8946 9179 13732 8062 14682 7785 8740 76701 10064 9441 13656 38748 15324 15407
internal_value=0 -5.10387 21.2426 -7.8216 10.7626 20.6985 13.0467 29.9238 -11.3925 -9.52468 -12.8844 -10.9948 0.457355 14.001 -14.1897 -6.27831 -18.6877 -9.33052
internal_weight=0 217701 20318 197383 89261 45403 36224 22492 187687 173005 165220 153169 43858 18387 144429 52404 92025 25471
internal_count=306962 217701 20318 197383 89261 45403 36224 22492 187687 173005 165220 153169 43858 18387 144429 52404 92025 25471
cat_boundaries=0 1 2
cat_threshold=88 26
is_linear=0
shrinkage=0.288339


Tree=20
num_leaves=30
num_cat=20
split_feature=8 8 7 1 3 1 3 3 8 8 7 8 8 0 6 8 7 8 7 7 7 6 9 2 1 7 9 2 8
split_gain=5.11537e+08 2.42293e+08 1.37281e+08 1.59756e+08 1.53929e+08 1.42387e+08 5.33333e+08 2.90535e+08 2.47254e+08 2.39376e+08 1.06433e+08 1.188e+08 8.50812e+07 8.34493e+07 9.76626e+07 1.33519e+08 1.2004e+08 1.06199e+08 1.60224e+08 5.79494e+07 5.01613e+07 4.70132e+07 4.31034e+07 8.62669e+07 3.83281e+07 3.33129e+07 2.73789e+07 2.87155e+07 8.69203e+06
threshold=0 1 2 -73.953922271728501 -73.959613800048814 -73.985843658447251 -73.975162506103501 -73.982486724853501 3 4 5 6 7 4.5000000000000009 8 9 10 11 12 13 14 15 16 40.754087448120124 -73.970157623291001 17 18 40.753751754760749 19
decision_type=1 1 1 2 2 2 2 2 1 1 1 1 1 2 1 1 1 1 1 1 1 1 1 2 2 1 1 2 1
left_child=-1 2 3 4 12 6 9 -7 -9 -4 11 21 20 14 17 16 -16 18 -12 -19 -2 -3 23 -14 -10 -17 27 -13 -27
right_child=1 10 5 -5 -6 7 -8 8 24 -11 13 26 22 -15 15 25 -18 19 -20 -21 -22 -23 -24 -25 -26 28 -28 -29 -30
leaf_value=67.099988425105735 15.451958749754859 32.806513631518101 47.758417750298001 38.47400015167846 29.034806864347306 41.928162050005511 98.677579587259004 21.945976138676176 -16.185686595448527 -11.191371574066281 38.757192268039688 11.58565990355339 -31.267857914754117 -38.952083444781941 26.710883538641898 -18.897409760862523 -20.586848116201466 2.2981700004310874 -13.051575452254131 -24.868838009924485 -12.950399712970889 6.756283360511941 -35.030783452058529 9.4240418751481965 -43.887607175240959 -32.392762509969081 -17.724143562005786 -11.662269696417251 -46.719195958792042
leaf_weight=10205 11727 11374 9349 8121 9471 14120 7770 12784 7849 14561 11143 8592 9109 8574 8008 10956 9894 12362 8857 13743 9135 11715 11273 8168 9029 8274 12984 8965 8137
leaf_count=10205 11727 11374 9349 8121 9471 14120 7770 12784 7849 14561 11143 8592 9109 8574 8008 10956 9894 12362 8857 13743 9135 11715 11273 8168 9029 8274 12984 8965 8137
internal_value=0 1.65667 10.2188 0.716473 -4.52445 18.6473 33.3567 7.97668 -8.23678 11.935 -6.28686 4.07219 -10.9846 -11.8444 -9.27803 -18.7798 0.591406 0.0674858 15.8475 -12.0316 3.0128 19.65 -21.1918 -12.0562 -31.0905 -31.4211 -7.72219 -0.283567 -39.6653
internal_weight=0 296044 142466 67004 58883 75462 31680 43782 29662 23910 153578 53630 49412 99948 91374 45269 17902 46105 20000 26105 20862 23089 28550 17277 16878 27367 30541 17557 16411
internal_count=306249 296044 142466 67004 58883 75462 31680 43782 29662 23910 153578 53630 49412 99948 91374 45269 17902 46105 20000 26105 20862 23089 28550 17277 16878 27367 30541 17557 16411
cat_boundaries=0 2 4 5 7 9 10 12 14 15 17 18 20 21 22 23 24 25 26 27 29
cat_threshold=0 2097216 3980728366 908459 4734944 2369781798 525315 1610881060 98338 1713682 34743360 184550164 2214660108 19593 112 268608129 79822864 10553609 3719297 42992388 6656033 350340 4731392 76 15 8423880 92 11011328 50339844
is_linear=0
shrinkage=0.288339


Tree=21
num_leaves=29
num_cat=13
split_feature=8 8 10 1 3 3 9 8 8 2 4 4 8 4 10 9 8 8 4 2 4 2 8 8 4 2 4 2
split_gain=5.76856e+08 2.55603e+08 2.05753e+08 1.17017e+08 5.81622e+08 5.21011e+08 2.7198e+08 5.19769e+08 3.19713e+08 8.11142e+07 6.93658e+08 3.05822e+08 7.5663e+07 1.01358e+08 1.14249e+08 6.80543e+07 6.32811e+07 4.26936e+07 3.57505e+07 1.82014e+08 6.78057e+07 7.20921e+07 1.82288e+07 1.199e+07 6.79613e+06 6.33251e+07 5.27568e+06 2.79431e+07
threshold=0 1 2 -73.971874237060533 -73.969440460205064 -73.961162567138658 3 4 5 40.722951889038093 40.732172012329109 40.715894699096687 6 40.733495712280281 7 8 9 10 40.776521682739265 40.768941879272468 40.755228042602546 40.751935958862312 11 12 40.747674942016609 40.756868362426765 40.744417190551765 40.760610580444343
decision_type=1 1 1 2 2 2 1 1 1 2 2 2 1 2 1 1 1 1 2 2 2 2 1 1 2 2 2 2
left_child=-1 2 3 5 -5 6 7 -2 -8 10 -3 -11 18 -14 15 -15 -17 -4 19 20 21 -13 26 -16 -24 -26 -19 -28
right_child=1 9 17 4 -6 -7 8 -9 -10 11 -12 12 13 14 23 16 -18 22 -20 -21 -22 -23 24 -25 25 -27 27 -29
leaf_value=67.746839047258689 91.362295924927693 -77.202882340104523 -22.124369237155477 49.834555300379797 -41.53130897465541 93.641207405516013 35.960399266977753 -4.2407830702396607 -33.192343236499838 41.434918252828197 31.523762695201174 -30.370853155487598 12.162147188478908 -17.489954769409032 -1.7186837619191258 -63.982251051697297 -29.744795060116829 -1.2133287816716047 -17.357040111897682 36.047379383196173 6.7007056587112919 3.9846266764826161 -11.241407069254983 -13.49982328306262 17.43300653785364 -16.40294042823507 19.98787554624619 -4.3938513700187878
leaf_weight=10259 8503 10470 9573 10755 12414 7847 8763 10536 14930 9980 9042 14719 8559 14063 13592 7834 11060 8218 11626 9457 14477 7716 12088 15243 7755 11115 7754 7781
leaf_count=10259 8503 10470 9573 10755 12414 7847 8763 10536 14930 9980 9042 14719 8559 14063 13592 7834 11060 8218 11626 9457 14477 7716 12088 15243 7755 11115 7754 7781
internal_value=0 -1.57315 7.48737 17.8754 0.899081 25.6412 13.0401 38.634 -7.58459 -9.49663 -26.8753 -7.03522 -10.8219 -17.1736 -21.2478 -32.8313 -44.1252 -4.43413 -3.10343 0.487176 -8.66681 -18.5753 -1.31341 -7.96739 -5.91803 -2.48545 4.68708 7.80498
internal_weight=0 295870 138032 73748 23169 50579 42732 19039 23693 157838 19512 138326 128346 70351 61792 32957 18894 64284 57995 46369 36912 22435 54711 28835 30958 18870 23753 15535
internal_count=306129 295870 138032 73748 23169 50579 42732 19039 23693 157838 19512 138326 128346 70351 61792 32957 18894 64284 57995 46369 36912 22435 54711 28835 30958 18870 23753 15535
cat_boundaries=0 1 3 4 5 7 9 11 12 13 15 17 19 21
cat_threshold=524544 741472848 247737584 2 112 1079824 265296 203440208 109051936 37879851 19005703 2 11 2415919108 573952 67108864 2128 671154688 205792256 25428996 1081856
is_linear=0
shrinkage=0.288339


Tree=22
num_leaves=30
num_cat=22
split_feature=8 8 5 2 4 2 5 8 9 8 9 3 9 8 8 6 5 3 4 2 6 8 5 5 9 8 5 8 8
split_gain=8.39464e+08 4.40991e+08 2.17119e+08 1.74071e+08 2.23843e+08 3.27065e+08 1.64937e+08 2.00117e+08 1.51439e+08 1.4299e+08 1.21203e+08 1.1526e+08 1.073e+08 1.03879e+08 9.91183e+07 9.65632e+07 6.9323e+07 6.58456e+07 1.42318e+08 8.18043e+07 6.54787e+07 6.21629e+07 6.20948e+07 5.13471e+07 5.07527e+07 7.0276e+07 3.88716e+07 3.13816e+07 3.10626e+07
threshold=0 1 2 40.788475036621101 40.780904769897468 40.768941879272468 3 4 5 6 7 -73.97881698608397 8 9 10 11 12 -73.993022918701158 40.748811721801765 40.754423141479499 13 14 15 16 17 18 19 20 21
decision_type=1 1 1 2 2 2 1 1 1 1 1 2 1 1 1 1 1 2 2 2 1 1 1 1 1 1 1 1 1
left_child=-1 2 14 4 6 -6 7 8 -3 12 11 -9 15 -4 22 -8 21 -16 -19 -20 23 -11 -2 -15 -18 -26 -22 -25 -28
right_child=1 3 13 -5 5 -7 9 10 -10 16 -12 -13 -14 20 17 -17 24 18 19 -21 26 -23 -24 27 25 -27 28 -29 -30
leaf_value=84.433192646828786 0.99146257116909453 66.59705994975279 -49.90272866182719 52.365075147667206 79.873942446421779 -1.9869745079296872 47.660148697870881 35.348113537148258 19.367216372568848 -16.724422262128321 -20.261664184752689 -10.350067646905808 -9.3033677626589988 9.2682192975900133 -13.051686116291954 5.8427916745251123 -6.7429601848642466 45.098252511330877 27.05363664968387 -9.2773170429311094 -43.389763212379471 11.915388159153462 -26.992117676031388 -3.775142683249384 -11.131245635550689 -48.223294718843619 -8.2086686462187295 -27.538075137617614 -32.018014652213004
leaf_weight=10354 12781 9043 10036 8059 8495 7713 9231 11129 15109 10943 12099 7741 10683 9301 8655 9128 12442 9333 7707 15251 9149 14656 13543 8421 8024 9117 9133 10266 9184
leaf_count=10354 12781 9043 10036 8059 8495 7713 9231 11129 15109 10943 12099 7741 10683 9301 8655 9128 12442 9333 7707 15251 9149 14656 13543 8421 8024 9117 9133 10266 9184
internal_value=0 1.1808 -11.1633 11.1978 9.04619 41.0538 5.30704 17.5586 37.193 -2.71948 2.19647 16.6185 13.6366 -22.9722 0.34491 26.9707 -11.3343 9.21418 15.1986 2.95708 -18.0414 -0.33915 -13.4382 -8.19145 -20.8249 -30.9766 -28.0316 -16.8845 -20.2237
internal_weight=0 296372 132760 163612 155553 16208 139345 55121 24152 84224 30969 18870 29042 65490 67270 18359 55182 40946 32291 22958 55454 25599 26324 27988 29583 17141 27466 18687 18317
internal_count=306726 296372 132760 163612 155553 16208 139345 55121 24152 84224 30969 18870 29042 65490 67270 18359 55182 40946 32291 22958 55454 25599 26324 27988 29583 17141 27466 18687 18317
cat_boundaries=0 2 4 5 6 8 9 11 12 13 15 17 18 19 20 22 23 24 25 27 28 30 32
cat_threshold=16384 131072 1886325297 16270554 2414898960 579378536 50372870 134257412 104 1089608 100933637 92 108 1074266112 80 2755088 1572930 52 2221941266 112 2147484034 16814848 2323663888 1074004102 28 2273313792 151028224 131174 805437488 9977984 330256 10503304
is_linear=0
shrinkage=0.288339


Tree=23
num_leaves=30
num_cat=28
split_feature=8 5 10 7 8 8 5 5 7 8 8 10 8 7 7 10 5 7 8 2 10 7 7 8 8 5 8 5 5
split_gain=3.14176e+08 2.20643e+08 2.42201e+08 2.53233e+08 4.80724e+08 4.22385e+08 2.73979e+08 2.04495e+08 3.00491e+08 2.53468e+08 1.71459e+08 1.61345e+08 2.31563e+08 1.8738e+08 1.83742e+08 1.35071e+08 1.03601e+08 8.96391e+07 8.8758e+07 7.70418e+07 6.55611e+07 4.9625e+07 4.44906e+07 2.56306e+07 2.30073e+07 1.00141e+07 8.16906e+06 7.84016e+06 7.05532e+06
threshold=0 1 2 3 4 5 6 7 8 9 10 11 12 13 14 15 16 17 18 40.753408432006843 19 20 21 22 23 24 25 26 27
decision_type=1 1 1 1 1 1 1 1 1 1 1 1 1 1 1 1 1 1 1 2 1 1 1 1 1 1 1 1 1
left_child=7 10 3 4 -3 -5 -7 8 9 -1 19 12 14 -14 -9 17 -15 -12 -10 -2 -20 26 -13 27 -24 -25 -4 -23 -26
right_child=1 2 21 5 -6 6 -8 11 18 -11 15 22 13 16 -16 -17 -18 -19 20 -21 -22 23 24 25 28 -27 -28 -29 -30
leaf_value=71.648766473894625 33.626156343025109 42.090336572362716 -8.3651082226763602 79.797133390298654 -35.126020382671548 57.568885841463512 -7.3989521683082371 -20.352230078560289 14.323550031745159 0.33189361545142171 -63.735994688425279 -27.117330015332357 17.812171555317807 -8.1623367920594987 -76.864400170638461 -2.9930105470113575 -51.848196120131753 -20.009388279994376 -33.389564113358901 -6.8488355489460426 -5.6877044060072537 18.58984856004902 -12.474379941923443 -9.2433719668074126 9.0352827574005889 3.1759246781883106 -21.563131287927256 6.1463954648606913 -1.7037340071343114
leaf_weight=7757 7722 13237 7916 13841 13438 8401 14837 7805 7768 8816 7925 7886 9498 8319 12628 13571 9904 7826 15050 7823 13462 8492 13313 9911 8768 11699 7965 8533 11939
leaf_count=7757 7722 13237 7916 13841 13438 8401 14837 7805 7768 8816 7925 7886 9498 8319 12628 13571 9904 7826 15050 7823 13462 8492 13313 9911 8768 11699 7965 8533 11939
internal_value=0 6.0624 12.592 24.6504 3.20058 40.0395 16.19 -12.4507 1.78725 33.8736 -11.1423 -20.8014 -32.1796 -14.9394 -55.4218 -24.1015 -32.0135 -42.2224 -12.9067 13.2997 -20.3429 -1.51873 -7.70411 4.06091 -3.15491 -2.53073 -15.051 12.4047 2.85793
internal_weight=0 163137 118270 63754 26675 37079 23238 142913 52853 16573 44867 90060 48154 27721 20433 29322 18223 15751 36280 15545 28512 54516 41906 38635 34020 21610 15881 17025 20707
internal_count=306050 163137 118270 63754 26675 37079 23238 142913 52853 16573 44867 90060 48154 27721 20433 29322 18223 15751 36280 15545 28512 54516 41906 38635 34020 21610 15881 17025 20707
cat_boundaries=0 2 3 4 5 7 9 10 11 12 14 16 17 19 20 21 22 23 24 26 27 28 29 31 33 34 36 37 38
cat_threshold=101480045 11179389 3624942080 2 1252276 3248718080 138486402 542115970 117719168 46284852 335924802 3232784 67122756 5432 1482719232 68231680 2 67134532 164152 170393 4726212 2 1221067184 15380491 262176 8421456 2 14696510 12582974 2019688578 22028416 34103297 2228325 541704298 3634561040 189800576 114114884 3267887372
is_linear=0
shrinkage=0.288339


Tree=24
num_leaves=29
num_cat=17
split_feature=8 8 10 6 8 8 8 10 2 2 4 4 2 2 8 1 8 8 1 9 8 4 4 8 8 9 9 2
split_gain=4.55255e+08 1.98195e+08 9.36264e+07 1.46998e+08 9.91858e+07 7.28636e+07 7.26594e+07 1.06061e+08 1.11854e+08 1.334e+08 2.02597e+08 6.6298e+07 8.57026e+08 6.53056e+08 1.3475e+08 1.1503e+08 1.32906e+08 1.01136e+08 7.1187e+07 6.14054e+07 4.85164e+07 4.41227e+07 4.34967e+07 1.69909e+07 1.52663e+07 7.67083e+06 4.09013e+06 3.04134e+06
threshold=0 1 2 3 4 5 6 7 40.733552932739265 40.749105453491218 40.767976760864265 40.748811721801765 40.74267768859864 40.752538681030281 8 -73.981494903564439 9 10 -73.965564727783189 11 12 40.722433090209968 40.751852035522468 13 14 15 16 40.749631881713874
decision_type=1 1 1 1 1 1 1 1 2 2 2 2 2 2 1 2 1 1 2 1 1 2 2 1 1 1 1 2
left_child=-1 2 3 4 -2 -5 7 8 -3 -10 22 13 -13 15 -15 16 -8 19 20 -14 -19 -18 -11 27 -4 -25 -26 -9
right_child=1 6 24 5 -6 -7 11 23 9 10 -12 12 17 14 -16 -17 21 18 -20 -21 -22 -23 -24 25 26 -27 -28 -29
leaf_value=58.479655303609533 17.487882693899042 45.611619565704878 -12.469484057263323 -24.266818715438603 -22.812262615092916 -57.86801673917639 8.5154159463502026 -1.3014954663885323 -21.086548773084285 56.23507540957673 -11.18927384994995 66.433093040011443 15.356356417317068 66.013065937259384 12.132600493333751 -61.962256222030241 -16.699468659291121 -15.272818705282694 -3.2039196176099147 -13.267012835981607 -40.010992504884804 -43.821758976812035 25.568128648772586 -4.3421671730467661 2.6362557484997025 -16.132554556265148 -4.9594234197441098 6.0886639037586718
leaf_weight=10168 8079 9305 14366 10857 13420 10951 8196 8004 8549 7746 10234 14193 14068 7700 7766 7854 7775 12049 13219 11074 14926 14422 7947 11172 13782 7827 10190 10856
leaf_count=10168 8079 9305 14366 10857 13420 10951 8196 8004 8549 7746 10234 14193 14068 7700 7766 7854 7775 12049 13219 11074 14926 14422 7947 11172 13782 7827 10190 10856
internal_value=0 -3.36376 -15.4508 -24.6309 -7.6598 -41.2717 1.2322 8.00217 17.6577 10.0464 20.3376 -2.91781 2.36775 -10.7385 39.1606 -30.9464 -22.8246 -11.5972 -20.5561 2.74656 -29.0405 -34.3774 40.8627 -3.17148 -5.06213 -9.24159 -0.596949 2.95585
internal_weight=0 296527 81645 43307 21499 21808 214882 81640 43781 34476 25927 133242 79529 53713 15466 38247 30393 65336 40194 25142 26975 22197 15693 37859 38338 18999 23972 18860
internal_count=306695 296527 81645 43307 21499 21808 214882 81640 43781 34476 25927 133242 79529 53713 15466 38247 30393 65336 40194 25142 26975 22197 15693 37859 38338 18999 23972 18860
cat_boundaries=0 1 3 4 5 7 9 11 12 14 16 18 19 21 23 25 26 27
cat_threshold=2147500032 203719692 176161729 2 100 67141632 176161280 69501964 134217728 570501266 705592 2 13107489 6305798 1082266112 2052 16777280 72691714 83 269488385 16779264 536936594 525344 32772 8389185 30 29
is_linear=0
shrinkage=0.288339


Tree=25
num_leaves=29
num_cat=18
split_feature=5 7 5 6 5 5 1 5 2 4 4 7 7 2 7 6 6 3 7 5 6 2 4 7 1 9 5 2
split_gain=2.92839e+08 1.61723e+08 1.97918e+08 1.29529e+08 1.22617e+08 1.21648e+08 1.13941e+08 1.07234e+08 1.00399e+08 3.95122e+08 2.91529e+08 1.41323e+08 9.74401e+07 8.97231e+07 7.24132e+07 5.7171e+07 5.68219e+07 5.06186e+07 4.91971e+07 1.01627e+08 9.68937e+07 8.00377e+07 1.15953e+08 5.96475e+07 5.31082e+07 4.17661e+07 2.72679e+07 1.70213e+07
threshold=0 1 2 3 4 5 -73.986598968505845 6 40.742975234985359 40.743833541870124 40.736318588256843 7 8 40.770090103149421 9 10 11 -73.977245330810533 12 13 14 40.732477188110359 40.734769821166999 15 -73.978908538818345 16 17 40.757982254028327
decision_type=1 1 1 1 1 1 2 1 2 2 2 1 1 2 1 1 1 2 1 1 1 2 2 1 2 1 1 2
left_child=-1 2 16 5 -5 -4 -7 8 9 14 -10 15 -6 17 -3 -12 -2 -13 19 -9 -21 -20 -23 -24 -25 -14 -18 -28
right_child=1 7 3 4 12 6 -8 18 10 -11 11 13 25 -15 -16 -17 26 -19 21 20 -22 22 23 24 -26 -27 27 -29
leaf_value=47.444547234736717 6.3498847706978889 -21.08416581849858 2.8858927952172002 33.457251250271945 -30.060257716207996 67.966545339362852 25.535490342154958 -42.804678135010576 52.720147166265377 24.367101023492392 38.431480503679126 -34.555851410584211 20.575025388019604 7.486679354181498 -57.310192956217961 3.6982880032871197 -4.4325315667774428 -8.3417158506898677 11.296033355626925 11.925731796510753 -30.338371084944072 16.283977610830835 -35.427884345167655 -26.946625993342579 -0.4620585879150253 -7.6850685282112607 -31.718765832949892 -13.289746987690068
leaf_weight=10306 13503 8804 9922 8898 8864 8329 14472 12919 9549 13411 7859 12433 8975 13597 9866 7881 9909 12115 12509 8955 8959 8361 14850 11393 13984 8320 9399 7710
leaf_count=10306 13503 8804 9922 8898 8864 8329 14472 12919 9549 13411 7859 12433 8975 13597 9866 7881 9909 12115 12509 8955 8959 8361 14850 11393 13984 8320 9399 7710
internal_value=0 -1.83757 7.03015 16.5546 4.35834 29.5831 41.1555 -6.96191 -0.194191 -13.3252 6.45273 -1.79561 -5.602 -11.2788 -40.3924 21.1349 -8.90219 -21.671 -13.9879 -23.3727 -9.24605 -9.23023 -14.5243 -20.9428 -12.3835 7.00311 -16.5221 -23.4765
internal_weight=0 295746 108301 67780 35057 32723 22801 187445 95515 32081 63434 53885 26159 38145 18670 15740 40521 24548 91930 30833 17914 61097 48588 40227 25377 17295 27018 17109
internal_count=306052 295746 108301 67780 35057 32723 22801 187445 95515 32081 63434 53885 26159 38145 18670 15740 40521 24548 91930 30833 17914 61097 48588 40227 25377 17295 27018 17109
cat_boundaries=0 1 2 3 4 5 6 7 8 9 10 11 12 13 14 15 16 17 18
cat_threshold=8192 936209 26183188 70 2149599360 2149603456 1664669476 4198946 278544 9446026 76 96 4231266 71434322 50 10551300 26 17367044
is_linear=0
shrinkage=0.288339


Tree=26
num_leaves=33
num_cat=25
split_feature=8 7 7 10 2 8 7 8 2 6 8 2 4 6 10 8 6 7 8 8 7 10 8 8 8 7 7 7 4 2 8 3
split_gain=4.46411e+08 7.57763e+08 1.94286e+08 1.40913e+08 1.7772e+08 1.78301e+08 4.68038e+08 1.28474e+08 1.25273e+08 1.53963e+08 9.71393e+07 8.94766e+07 1.20962e+08 9.12718e+07 8.55846e+07 1.26627e+08 7.94222e+07 7.303e+07 9.33297e+07 7.17686e+07 6.95633e+07 5.63584e+07 8.19202e+07 4.93892e+07 4.24446e+07 2.90727e+07 1.7787e+07 1.15219e+07 1.10129e+07 5.58599e+07 7.4158e+06 5.2867e+06
threshold=0 1 2 3 40.777997970581062 4 5 6 40.753751754760749 7 8 40.779363632202156 40.773748397827156 9 10 11 12 13 14 15 16 17 18 19 20 21 22 23 40.765451431274421 40.756021499633796 24 -73.979496002197251
decision_type=1 1 1 1 2 1 1 1 2 1 1 2 2 1 1 1 1 1 1 1 1 1 1 1 1 1 1 1 2 2 1 2
left_child=1 -1 14 4 5 6 -3 16 9 -7 -8 12 13 -9 15 -2 -4 18 -15 -19 23 22 -22 -18 -5 -21 31 -16 29 -28 -23 -26
right_child=2 3 7 24 -6 8 10 11 -10 -11 -12 -13 -14 17 27 -17 20 19 -20 25 21 30 -24 -25 26 -27 28 -29 -30 -31 -32 -33
leaf_value=90.969042132885619 -13.446896725491477 82.220363774391927 -35.496907502725058 -21.497089709285618 56.902575871928263 40.532152493498984 22.45714030119899 21.197300829119655 -26.924571240731481 -15.883395946751499 -20.275602819486743 30.667967270209974 28.426828796218242 26.162326868876111 -4.6615777698049774 -62.405832947472099 17.421351796658662 -34.396173554114533 -14.420736964090475 7.0527883527091033 -49.566897436574671 1.9018935387900036 -10.493777881280339 -9.8388109840079672 -2.3106766574553039 -16.279428521058183 -3.5409859876900542 -20.321967263773939 -3.7863842454785188 27.381703061751555 -10.549257240539193 -12.84524342171232
leaf_weight=9736 7718 8738 10953 8776 7971 7815 8638 9495 12210 8153 8917 9204 10846 8803 7964 10313 11099 13011 9979 7715 7971 8017 10159 10872 8161 10293 12777 7730 9203 7763 7788 7702
leaf_count=9736 7718 8738 10953 8776 7971 7815 8638 9495 12210 8153 8917 9204 10846 8803 7964 10313 11099 13011 9979 7715 7971 8017 10159 10872 8161 10293 12777 7730 9203 7763 7788 7702
internal_value=0 13.9774 -8.3673 7.51022 16.8498 10.9322 27.9762 -3.8107 -5.00487 11.7901 0.756058 4.0343 0.516587 -4.61189 -28.0719 -41.6062 -13.1156 -9.55485 4.62603 -18.1329 -8.6915 -16.8633 -27.8132 3.94303 -3.21864 -6.29402 0.32664 -12.4398 4.48292 8.19112 -4.25471 -7.4509
internal_weight=0 126560 179930 116824 62442 54471 26293 146205 28178 15968 17555 79346 70142 59296 33725 18031 66859 49801 18782 31019 55906 33935 18130 21971 54382 18008 45606 15694 29743 20540 15805 15863
internal_count=306490 126560 179930 116824 62442 54471 26293 146205 28178 15968 17555 79346 70142 59296 33725 18031 66859 49801 18782 31019 55906 33935 18130 21971 54382 18008 45606 15694 29743 20540 15805 15863
cat_boundaries=0 2 3 4 5 7 8 10 11 12 13 14 16 17 18 20 22 23 24 26 28 30 31 32 33 35
cat_threshold=3214602755 17465985 65616 4718649 2 487632897 688128 10539014 2328 177227118 74 353402881 64 2 65868 143722860 4 3150598 1074069700 2099216 2162884 73744 11536832 2 16 135266410 0 143656042 2147532800 131072 8414272 15728655 524289 2072 34604068
is_linear=0
shrinkage=0.288339


Tree=27
num_leaves=32
num_cat=27
split_feature=8 8 5 10 10 5 8 8 5 6 8 8 3 8 5 4 4 5 5 5 5 3 8 5 8 5 9 9 8 8 8
split_gain=5.05446e+08 3.57827e+08 2.00076e+08 1.91751e+08 1.49396e+08 2.64938e+08 3.86252e+08 2.68674e+08 1.95798e+08 1.11446e+08 1.34905e+08 9.9192e+07 8.19759e+07 1.4438e+08 7.31669e+07 6.94986e+07 9.43584e+07 1.2995e+08 9.03121e+07 8.34916e+07 6.23459e+07 5.50991e+07 3.0832e+07 2.11208e+07 1.56519e+07 1.39663e+07 1.23432e+07 8.53697e+06 5.14823e+06 4.83097e+06 3.23832e+06
threshold=0 1 2 3 4 5 6 7 8 9 10 11 -73.96221542358397 12 13 40.74322700500489 40.763559341430671 14 15 16 17 -73.97985458374022 18 19 20 21 22 23 24 25 26
decision_type=1 1 1 1 1 1 1 1 1 1 1 1 2 1 1 2 2 1 1 1 1 2 1 1 1 1 1 1 1 1 1
left_child=-1 2 3 11 5 6 8 14 -3 -8 -11 -2 13 -9 -7 18 17 -17 -4 -18 -15 -10 25 27 -5 30 -25 -24 -27 -28 -6
right_child=1 4 15 24 22 7 9 12 21 10 -12 -13 -14 20 -16 16 19 -19 -20 -21 -22 -23 23 26 -26 28 29 -29 -30 -31 -32
leaf_value=64.127671984988822 -68.748416953752269 84.100941013989669 3.5192108576930936 -19.324526215535155 13.688546774675858 -48.272333325405548 30.241806176413888 -24.836086550232682 49.57042653318868 19.273942632599304 -29.098395531448354 -30.548594988274907 39.192462995651077 39.295480141887786 -13.035484700377252 46.66061169729214 10.454466213391381 -5.0731329852899218 -39.472164132591878 -30.261347592236714 4.9434887132544016 15.111111777995099 -9.5315266581890246 -11.503152354362172 -2.7624123140065149 3.0366767924874907 6.297539643571298 -21.912500184639523 -5.0314925773856718 -2.3172782080153054 5.5715464917997632
leaf_weight=10214 10441 10146 7882 7785 8391 8103 9240 8251 7739 8406 10974 12761 8424 8302 12462 7811 8005 8256 8297 8650 9309 7787 11252 9458 12076 13196 8435 8103 12970 14814 8287
leaf_count=10214 10441 10146 7882 7785 8391 8103 9240 8251 7739 8406 10974 12761 8424 8302 12462 7811 8005 8256 8297 8650 9309 7787 11252 9458 12076 13196 8435 8103 12970 14814 8287
internal_value=0 -0.896535 -15.8226 -30.1387 5.83363 13.1064 27.3711 -1.03206 53.0021 4.30653 -8.12248 -47.915 14.5887 6.50743 -27.0368 -3.19026 4.45427 20.1822 -18.6135 -10.7356 21.2296 32.3923 -2.53232 -7.24253 -9.3048 3.19403 -2.76205 -14.7759 -0.964769 0.817179 9.69636
internal_weight=0 296013 91964 43063 204049 109143 54292 54851 25672 28620 19380 23202 34286 25862 20565 48901 32722 16067 16179 16655 17611 15526 94906 52062 19861 42844 32707 19355 26166 23249 16678
internal_count=306227 296013 91964 43063 204049 109143 54292 54851 25672 28620 19380 23202 34286 25862 20565 48901 32722 16067 16179 16655 17611 15526 94906 52062 19861 42844 32707 19355 26166 23249 16678
cat_boundaries=0 1 3 4 5 6 7 9 11 12 13 15 17 19 20 21 22 23 24 26 27 29 30 31 32 34 36 38
cat_threshold=528384 3406881432 134751296 875358392 2 2 815591990 8588292 7570357 539166756 99249 545525794 34 538968416 25169922 2182111256 8192 67 34750468 172098624 26281730 1094849344 1245844484 3426877760 551685122 64291112 3271620650 2198888448 64 882836492 96 29 537004032 55836928 65540 51717 6422530 29622280
is_linear=0
shrinkage=0.288339


Tree=28
num_leaves=29
num_cat=13
split_feature=5 5 1 3 3 9 5 5 5 3 1 10 2 4 3 1 9 5 5 2 3 3 5 9 9 4 2 4
split_gain=4.45545e+08 1.50347e+08 1.32413e+08 7.63734e+08 3.99042e+08 1.5707e+08 2.36088e+08 1.04453e+08 7.85993e+07 7.49952e+07 1.56797e+08 7.49288e+07 7.95172e+07 1.59337e+08 9.19679e+07 7.92078e+07 8.32251e+07 9.48802e+07 5.87832e+07 4.34752e+07 2.18856e+07 3.69527e+07 1.58934e+07 9.15384e+06 7.73986e+06 5.86188e+06 5.56289e+07 1.50383e+07
threshold=0 1 -73.971622467041001 -73.981288909912095 -73.967006683349581 2 3 4 5 -73.96660995483397 -73.952716827392564 6 40.722951889038093 40.724603652954109 -73.993022918701158 -73.991870880126939 7 8 9 40.747640609741218 -73.980594635009751 -73.989513397216783 10 11 12 40.769132614135749 40.760042190551765 40.747335433959968
decision_type=1 1 2 2 2 1 1 1 1 2 2 1 2 2 2 2 1 1 1 2 2 2 1 1 1 2 2 2
left_child=-1 11 4 -4 5 6 -3 -6 19 -5 -11 12 -2 -14 -15 -16 18 -18 -17 -7 21 -10 23 -13 -24 26 27 -26
right_child=1 2 3 9 7 8 -8 -9 20 10 -12 22 13 14 15 16 17 -19 -20 -21 -22 -23 24 -25 25 -27 -28 -29
leaf_value=46.683097470489827 -40.192221270178926 53.373055128209366 57.958127460373731 -13.301411719268643 71.030205480117232 -7.9565829301695574 -4.6761180868349346 27.579186810759424 -13.860134779659079 -21.902966555980989 -73.467203857023961 9.5081130577509345 24.631824462184721 8.3032209419832146 4.8432239527827248 -35.666073971551242 -20.259218476068522 -63.423040404388374 -7.7936034281391517 17.433622507304445 -5.892178462838765 -38.311339988825381 -12.534575781584861 -1.8405011376318898 -17.341287898634345 -10.181616083322822 18.641684937839916 -0.68598805353450276
leaf_weight=15373 9738 9873 10254 11195 8207 11540 14045 10763 14081 12249 8204 10303 8435 9716 7706 9385 8331 8790 19004 10798 8839 8145 11544 13689 10677 9191 7772 7780
leaf_count=15373 9738 9873 10254 11195 8207 11540 14045 10763 14081 12249 8204 10303 8435 9716 7706 9385 8331 8790 19004 10798 8839 8145 11544 13689 10677 9191 7772 7780
internal_value=0 -3.5787 3.30434 -10.2159 9.19099 -0.01449 19.371 46.5947 -8.71105 -32.3727 -42.7412 -9.83274 -15.817 -12.4599 -17.4504 -22.1567 -26.7291 -42.5886 -17.0734 4.32807 -18.0762 -22.9003 -2.9861 3.04587 -6.06722 -3.93842 -1.73342 -10.3465
internal_weight=0 290254 138193 41902 96291 77321 23918 18970 53403 31648 20453 152061 81105 71367 62932 53216 45510 17121 28389 22338 31065 22226 70956 23992 46964 35420 26229 18457
internal_count=305627 290254 138193 41902 96291 77321 23918 18970 53403 31648 20453 152061 81105 71367 62932 53216 45510 17121 28389 22338 31065 22226 70956 23992 46964 35420 26229 18457
cat_boundaries=0 1 2 3 4 5 6 7 8 9 10 11 12 13
cat_threshold=2147483680 654563794 48 135529484 8922632 1479016452 2 23 553699520 16924880 67305744 14 96
is_linear=0
shrinkage=0.288339


Tree=29
num_leaves=27
num_cat=20
split_feature=7 5 5 5 1 4 9 7 5 4 2 7 9 2 5 5 7 9 5 7 9 6 5 7 5 3
split_gain=2.96789e+08 7.57721e+08 1.97336e+08 1.35251e+08 1.0283e+08 1.29266e+08 8.58975e+07 1.75979e+08 1.15025e+08 7.74002e+07 1.79837e+08 1.24734e+08 7.21149e+07 1.01209e+08 9.28619e+07 7.1916e+07 6.87184e+07 6.21452e+07 4.3379e+07 3.87374e+07 5.21112e+07 3.7485e+07 3.67774e+07 2.8709e+07 4.89059e+07 1.59725e+07
threshold=0 1 2 3 -73.980907440185533 40.749235153198249 4 5 6 40.723459243774421 40.73065376281739 7 8 40.769193649291999 9 10 11 12 13 14 15 16 17 18 19 -73.978336334228501
decision_type=1 1 1 1 2 2 1 1 1 2 2 1 1 2 1 1 1 1 1 1 1 1 1 1 1 2
left_child=1 -1 9 4 5 -3 15 8 -8 -2 -11 23 -13 14 -14 -4 -17 -10 25 -5 22 -20 -21 24 -12 -9
right_child=2 3 6 19 -6 -7 7 18 17 10 11 12 13 -15 -16 16 -18 -19 21 20 -22 -23 -24 -25 -26 -27
leaf_value=84.939088453841961 21.26488825452271 8.8577088153775314 -49.915325308743313 -24.224400652983185 0.068439223539047661 59.291179312863115 23.79430676771678 -25.711945771942734 -21.304325603076855 31.892333907011853 -0.87339522492122856 -14.90041389223404 -21.129097586572357 33.406431424042523 15.431164848445926 -6.5164918635223428 -34.910666715618504 7.029160591716261 -27.553456660862441 21.1021320543956 -16.284394009137621 -3.3108774523875106 -2.8681611496509376 -37.151968718901408 -31.134084425600612 -43.609519331271613
leaf_weight=10532 15004 8992 8514 8756 15289 7954 14629 8993 13792 11730 8823 14221 10405 10207 12806 15360 13169 11966 10142 8096 14934 11096 15240 7878 8891 8390
leaf_count=10532 15004 8992 8514 8756 15289 7954 14629 8993 13792 11730 8823 14221 10405 10207 12806 15360 13169 11966 10142 8096 14934 11096 15240 7878 8891 8390
internal_value=0 12.5436 -7.17383 2.85718 17.2239 32.6564 -15.2587 -9.87139 3.43661 2.21601 -1.16019 -6.47646 2.25098 9.56606 -0.972077 -26.7085 -19.6771 -8.15794 -23.7693 -7.00148 -3.02354 -14.9408 5.48552 -22.6823 -16.1254 -34.4517
internal_weight=0 89793 216016 79261 32235 16946 116051 79008 40387 99965 84961 73231 47639 33418 23211 37043 28529 25758 38621 47026 38270 21238 23336 25592 17714 17383
internal_count=305809 89793 216016 79261 32235 16946 116051 79008 40387 99965 84961 73231 47639 33418 23211 37043 28529 25758 38621 47026 38270 21238 23336 25592 17714 17383
cat_boundaries=0 1 2 3 4 5 6 7 8 9 10 11 12 13 14 15 16 17 18 19 20
cat_threshold=4752897 2147508240 625120218 1150361100 34 407944 302333956 8716536 48 4824 2181048352 11864106 81 2290435076 4194304 30 88 436469794 8650944 21004690
is_linear=0
shrinkage=0.288339


Tree=30
num_leaves=32
num_cat=13
split_feature=7 2 7 2 9 0 7 4 2 2 1 4 7 9 2 4 1 9 4 2 1 2 6 2 7 6 9 6 4 9 2
split_gain=6.49127e+08 1.36864e+09 1.6961e+08 8.84238e+07 7.17472e+07 2.55403e+08 9.88324e+07 9.17128e+07 4.49773e+08 2.93936e+08 1.31829e+08 2.55235e+08 1.13117e+08 7.0856e+07 5.76604e+07 1.28712e+08 1.15134e+08 7.03999e+07 4.5928e+07 1.1246e+08 4.30776e+07 7.72815e+07 4.32283e+07 3.9349e+07 3.8421e+07 4.67102e+07 3.7686e+07 3.59622e+07 2.96447e+07 2.51661e+07 5.58692e+06
threshold=0 40.74267768859864 1 40.721490859985359 2 2.5000000000000004 3 40.750741958618171 40.753408432006843 40.743604660034187 -73.969501495361314 40.769498825073249 4 5 40.730224609375007 40.733964920043952 -73.958087921142564 6 40.763994216918952 40.763906478881843 -73.978908538818345 40.765680313110359 7 40.733900070190437 8 9 10 11 40.758211135864265 12 40.757070541381843
decision_type=1 2 1 2 1 2 1 2 2 2 2 2 1 1 2 2 2 1 2 2 2 2 1 2 1 1 1 1 2 1 2
left_child=1 -1 3 -2 5 6 13 8 12 -9 18 -12 23 27 -5 -16 17 30 -11 -20 22 -22 -8 -6 25 -19 -14 -4 -3 -26 -17
right_child=2 28 4 14 7 -7 20 9 -10 10 11 -13 26 -15 15 16 -18 24 19 -21 21 -23 -24 -25 29 -27 -28 -29 -30 -31 -32
leaf_value=144.54310915489611 -32.211363921311595 12.499265154496026 15.300851801488067 18.099922040261294 -24.089541495479292 53.062690953556704 35.485928568990104 54.374651998941737 36.030107593315634 -26.835947166985868 55.128841151202856 -10.027044949392545 -29.702617749804645 -28.917889310406775 17.353823592739261 -28.550772833546965 12.778679619234808 10.528976069053565 20.059606621871886 -28.050974441499715 -15.028033250665709 24.67818640017272 10.235973622029842 4.9446863038814985 -28.50691594308709 -17.102889987453906 -58.292081252694068 -10.112740809674065 -12.586928202235935 -7.7036820762884908 -40.182771399633779
leaf_weight=8303 11440 7730 9314 7889 7703 11218 11830 9752 13210 11826 8520 11938 7955 8539 14173 7764 12041 10396 8308 7750 8453 7760 10896 7725 12739 9828 8008 9070 7816 7903 7994
leaf_count=8303 11440 7730 9314 7889 7703 11218 11830 9752 13210 11826 8520 11938 7955 8539 14173 7764 12041 10396 8308 7750 8453 7760 10896 7725 12739 9828 8008 9070 7816 7903 7994
internal_value=0 50.464 0.989297 -8.3884 6.31996 12.9648 6.09476 1.32696 -8.50048 8.87332 -0.361357 17.1891 -27.2733 -7.32788 -5.36597 -7.61237 -12.7765 -18.2187 -13.2476 -3.17688 15.3707 3.99652 23.4593 -9.58177 -11.8641 -2.9109 -44.2376 2.77112 -0.112197 -20.5958 -34.5608
internal_weight=0 23849 281942 102167 179775 77080 65862 102695 44601 58094 48342 20458 31391 26923 90727 82838 68665 56624 27884 16058 38939 16213 22726 15428 40866 20224 15963 18384 15546 20642 15758
internal_count=305791 23849 281942 102167 179775 77080 65862 102695 44601 58094 48342 20458 31391 26923 90727 82838 68665 56624 27884 16058 38939 16213 22726 15428 40866 20224 15963 18384 15546 20642 15758
cat_boundaries=0 1 2 3 4 5 6 7 8 9 10 11 12 13
cat_threshold=4194368 8981788 41 184448 2371746 9 72 52 8913936 44 66 88 52
is_linear=0
shrinkage=0.288339


Tree=31
num_leaves=29
num_cat=24
split_feature=1 8 7 5 8 5 8 7 8 7 5 8 8 5 8 5 7 2 5 7 8 7 8 2 4 5 8 8
split_gain=6.33128e+08 4.24625e+08 2.06827e+08 2.36067e+08 1.84895e+08 1.81994e+08 2.49228e+08 2.84299e+08 2.29432e+08 1.33642e+08 1.91785e+08 1.80772e+08 1.22344e+08 1.11185e+08 8.27254e+07 7.34707e+07 7.32412e+07 8.16863e+07 6.36943e+07 5.741e+07 7.01039e+07 5.09518e+07 5.50242e+07 5.06127e+07 5.17928e+07 4.36385e+07 4.32446e+07 2.86062e+07
threshold=-73.863063812255845 0 1 2 3 4 5 6 7 8 9 10 11 12 13 14 15 40.760446548461921 16 17 18 19 20 40.743860244750984 40.761728286743171 21 22 23
decision_type=2 1 1 1 1 1 1 1 1 1 1 1 1 1 1 1 1 2 1 1 1 1 1 2 2 1 1 1
left_child=1 9 3 4 -3 6 7 -4 15 10 -1 23 -5 27 -12 -7 -8 -18 -16 -15 -21 -10 -23 -11 -25 -14 -27 -13
right_child=-2 2 5 12 -6 8 16 -9 21 11 14 13 25 19 18 -17 17 -19 -20 20 -22 22 -24 24 -26 26 -28 -29
leaf_value=34.513401427167388 76.907552898014814 40.260701239702655 93.764573313015802 8.5410109189956742 -6.7061324608396413 46.404717965365982 -6.9969691552787596 19.096175920524985 7.0932464082385609 -60.321224225852148 4.4719811947534964 -19.250025278340193 -41.216810024290709 -22.493776162543206 -5.3864666948733753 8.6469596413319501 7.2787006740742779 44.511968908463629 -34.846420997155988 24.39555768116649 -8.988936710089602 -1.6741787655878666 -29.573385336063978 -19.121222261505011 -49.8515619391206 -7.7088432727180134 -32.196009124730367 -41.651265877196735
leaf_weight=8474 8255 12797 8055 10561 15169 9148 11430 8985 8486 9159 14232 9841 11666 8323 10277 8101 12664 7961 15097 9257 11845 9624 15097 9691 8768 12431 11647 9575
leaf_count=8474 8255 12797 8055 10561 15169 9148 11430 8985 8486 9159 14232 9841 11666 8323 10277 8101 12664 7961 15097 9257 11845 9624 15097 9691 8768 12431 11647 9575
internal_value=0 -3.75774 5.44931 -6.06267 14.8318 14.0363 26.5221 54.6328 1.86703 -16.6039 -4.68109 -24.09 -18.6856 -13.5123 -13.1135 28.7792 11.492 21.7279 -22.9627 -2.31755 5.68769 -12.1429 -18.7481 -42.7142 -33.8331 -26.7314 -19.6134 -30.4079
internal_weight=0 298361 173822 74271 27966 99551 49095 17040 50456 124539 48080 76459 46305 48841 39606 17249 32055 20625 25374 29425 21102 33207 24721 27618 18459 35744 24078 19416
internal_count=306616 298361 173822 74271 27966 99551 49095 17040 50456 124539 48080 76459 46305 48841 39606 17249 32055 20625 25374 29425 21102 33207 24721 27618 18459 35744 24078 19416
cat_boundaries=0 2 3 4 6 7 9 10 12 13 14 16 18 19 21 22 23 24 25 27 28 30 31 33 35
cat_threshold=3301759073 27986400 7349974 3221884380 151004050 239362050 703283890 2164248 1315849 9240864 571539604 71344130 2910480 2197818376 2215139328 589856 268567560 67125768 286386628 3296729088 8978432 68202820 202784 68506002 4199464 4227105 2099456 135201 404751360 1053716 1106434 536879254 34645013 295009 25296896
is_linear=0
shrinkage=0.288339


Tree=32
num_leaves=30
num_cat=29
split_feature=8 8 5 10 7 7 8 10 5 7 8 10 8 8 8 7 5 10 7 7 8 7 5 5 7 6 8 5 7
split_gain=1.36617e+09 4.54254e+08 3.26698e+08 5.13768e+08 7.83007e+08 1.87845e+08 1.7302e+08 2.14597e+08 1.65149e+08 1.43875e+08 2.28176e+08 1.49338e+08 1.91264e+08 1.36742e+08 1.33318e+08 1.65331e+08 1.14946e+08 1.11666e+08 9.81975e+07 8.99693e+07 7.97506e+07 7.87514e+07 6.62341e+07 5.65495e+07 4.8279e+07 4.59526e+07 2.66156e+07 1.80661e+07 8.64992e+06
threshold=0 1 2 3 4 5 6 7 8 9 10 11 12 13 14 15 16 17 18 19 20 21 22 23 24 25 26 27 28
decision_type=1 1 1 1 1 1 1 1 1 1 1 1 1 1 1 1 1 1 1 1 1 1 1 1 1 1 1 1 1
left_child=-1 2 3 4 -2 13 7 -7 14 10 18 12 -11 -4 19 -16 -8 -12 -10 -3 21 -17 -22 -21 -25 -18 -15 -13 -5
right_child=1 8 5 28 -6 6 16 -9 9 11 17 27 -14 26 15 20 25 -19 -20 23 22 -23 -24 24 -26 -27 -28 -29 -30
leaf_value=105.35331662108143 129.10045728096176 -31.32145114436566 7.0642476922922484 -8.3332987833782326 15.623191299356208 51.306753934248285 16.965408273820842 0.6451566834930893 38.651654140102927 -80.770616838724166 -45.555961836525981 -4.9928726633704148 -26.403247764103959 -22.545658552108922 35.304849542899419 32.170325366272436 -3.8779983531991795 -4.942134148012701 -4.1569889450243531 13.535386110304502 4.0549678875017428 -6.7372031264653511 -31.660232718912699 2.9522058825519011 -27.146589338360432 -34.703160667918738 -46.702148187307678 -22.534015396093963 4.4267940805788708
leaf_weight=10335 8983 15234 11112 8032 11517 15049 12320 12879 8801 8664 11938 10959 14354 7919 13632 8174 7751 10634 8930 9984 7730 9060 9675 8089 9701 8350 7774 8831 9644
leaf_count=10335 8983 15234 11112 8032 11517 15049 12320 12879 8801 8664 11938 10959 14354 7919 13632 8174 7751 10634 8930 9984 7730 9060 9675 8089 9701 8350 7774 8831 9644
internal_value=0 -0.949275 12.595 34.6513 65.6511 2.44811 11.8969 27.9861 -10.3739 -19.6676 -7.2816 -31.2975 -47.071 -17.3937 -1.90307 8.49276 -3.94261 -26.475 17.1592 -13.5662 -2.10851 11.7711 -15.8447 -3.77276 -13.5021 -19.9459 -34.6675 -12.8794 -1.38138
internal_weight=0 295720 121330 38176 20500 83154 56349 27928 174390 83111 40303 42808 23018 26805 91279 48271 28421 22572 17731 43008 34639 17234 17405 27774 17790 16101 15693 19790 17676
internal_count=306055 295720 121330 38176 20500 83154 56349 27928 174390 83111 40303 42808 23018 26805 91279 48271 28421 22572 17731 43008 34639 17234 17405 27774 17790 16101 15693 19790 17676
cat_boundaries=0 2 4 5 6 7 8 10 11 12 13 15 16 18 20 22 23 24 25 26 27 29 30 31 32 33 34 36 37 38
cat_threshold=524288 64 264546411 203589796 2417135820 2 5620749 2371615 88090699 134217764 2 1852775696 1300914 1611809536 58745106 2 2953908228 46154496 117702720 2261152 269502224 43070216 417822 1147734288 2 1098002 4255837 2684485760 4981761 11043201 105451776 1745486848 8456066 42 134219819 134217728 9470662 14856404
is_linear=0
shrinkage=0.288339


Tree=33
num_leaves=24
num_cat=6
split_feature=2 1 3 7 2 4 4 4 2 0 7 2 10 2 1 3 6 7 3 7 1 4 1
split_gain=4.84492e+08 3.37925e+08 8.42818e+08 1.25504e+08 1.25011e+08 8.40201e+08 3.77229e+08 1.58659e+08 2.09694e+08 1.11985e+08 1.08337e+08 9.83998e+07 7.01445e+07 6.81611e+07 1.29187e+08 3.45599e+08 7.43462e+07 1.52727e+08 7.91078e+07 5.03773e+07 4.76316e+07 3.64325e+07 1.62146e+07
threshold=40.685119628906257 -73.930179595947251 -73.934772491455064 0 40.750806808471687 40.759538650512702 40.738801956176765 40.760854721069343 40.761472702026374 1.5000000000000002 1 40.779668807983406 2 40.716413497924812 -74.000652313232408 -73.991428375244126 3 4 -73.991138458251939 5 -73.960247039794908 40.764581680297859 -73.992618560791001
decision_type=2 2 2 1 2 2 2 2 2 2 1 2 1 2 2 2 1 1 2 1 2 2 2
left_child=-1 2 3 4 5 10 -6 8 -8 11 22 -9 -12 -5 15 -15 17 -16 -19 21 -21 -18 -2
right_child=1 -3 -4 13 6 -7 7 9 -10 -11 12 -13 -14 14 16 -17 19 18 -20 20 -22 -23 -24
leaf_value=67.201705604494634 -12.952320199966895 -52.285365076610049 68.122868090224642 -23.878821381067315 56.473972421411666 56.741673213857545 -20.590813747716215 -0.72802747094991971 35.328587765369356 -46.304001187335608 -68.084842673464934 -37.68423483665191 -36.074990761195792 -15.39168590495551 43.050807484845159 69.561756705328875 13.871555957747548 24.931426389072854 -6.9660165809824983 -12.53175129252188 10.464258901737809 -9.5702022855062854 -31.399663779459214
leaf_weight=8526 8207 10764 14131 8300 7761 9045 10603 19520 11631 11056 12253 8584 11111 7868 8943 7962 16446 8524 26117 53667 8654 8224 7875
leaf_count=8526 8207 10764 14131 8300 7761 9045 10603 19520 11631 11056 12253 8584 11111 7868 8943 7962 16446 8524 26117 53667 8654 8224 7875
internal_value=0 -2.27416 -0.38448 -3.95328 -11.0481 -22.2642 -3.1724 -10.7605 8.67732 -21.7935 -40.4394 -12.0726 -52.9716 1.44476 2.8898 27.4377 -0.0973383 9.61376 0.911744 -4.96674 -9.32977 6.04971 -22.0559
internal_weight=0 297246 286482 272351 117646 48491 69155 61394 22234 39160 39446 28104 23364 154705 146405 15830 130575 43584 34641 86991 62321 24670 16082
internal_count=305772 297246 286482 272351 117646 48491 69155 61394 22234 39160 39446 28104 23364 154705 146405 15830 130575 43584 34641 86991 62321 24670 16082
cat_boundaries=0 1 2 3 4 5 6
cat_threshold=4965088 541216 2 10 1048848 1052686
is_linear=0
shrinkage=0.288339


Tree=34
num_leaves=29
num_cat=24
split_feature=8 5 5 10 7 5 7 8 10 7 8 10 8 3 1 8 5 7 10 5 7 8 8 5 4 7 8 1
split_gain=5.94077e+08 6.62682e+08 2.72598e+08 4.41948e+08 5.05248e+08 2.3405e+08 2.09685e+08 2.21227e+08 3.41377e+08 1.70233e+08 2.17691e+08 2.14601e+08 1.7479e+08 1.49432e+08 2.31131e+08 1.48103e+08 1.21488e+08 1.20038e+08 9.46798e+07 9.32557e+07 8.91541e+07 8.7365e+07 6.2687e+07 5.11145e+07 4.90899e+07 5.74386e+07 2.22979e+07 4.42538e+06
threshold=0 1 2 3 4 5 6 7 8 9 10 11 12 -73.954303741455064 -73.95940780639647 13 14 15 16 17 18 19 20 21 40.744417190551765 22 23 -73.981365203857408
decision_type=1 1 1 1 1 1 1 1 1 1 1 1 1 2 2 1 1 1 1 1 1 1 1 1 2 1 1 2
left_child=1 -1 3 4 -3 13 7 -4 -9 10 16 12 -11 14 15 17 -7 -2 -12 -17 -21 -8 -22 -23 -25 -26 -13 -14
right_child=5 2 6 -5 -6 9 21 8 -10 11 18 26 27 -15 -16 19 -18 -19 -20 20 22 23 -24 24 25 -27 -28 -29
leaf_value=94.971813565320616 0.59707117403148224 118.19053567544898 -13.16116886476831 -3.4349868159805448 16.722859872361514 37.954972659364039 -29.144902996036819 67.101586645075955 -1.7998875785630069 -21.046504952885194 -44.364269348342525 -22.930122948506387 -75.172424591717899 -26.090264219797593 45.000822245759636 30.697040519408606 -7.8549079121597076 -37.913599967930267 -5.8052476255257259 18.963369358602652 -30.665249928629159 17.950386641342543 4.9043529953501084 -24.778939537561509 19.306355914856326 -14.15526939000779 -4.0664817684435635 -62.199132517228499
leaf_weight=8239 14472 7911 11897 14074 8421 9962 14132 12721 11226 10912 11270 8110 7720 14774 10573 12620 9217 12510 9979 12910 8220 7928 8159 9580 7704 9379 14488 7706
leaf_count=8239 14472 7911 11897 14074 8421 9962 14132 12721 11226 10912 11270 8110 7720 14774 10573 12620 9217 12510 9979 12910 8220 7928 8159 9580 7704 9379 14488 7706
internal_value=0 16.3265 10.6362 34.0177 66.2083 -9.54917 2.20808 18.9281 34.8627 -20.1151 -6.2503 -31.5439 -49.2098 0.477666 5.43339 -0.672858 15.9905 -17.3095 -26.3118 10.049 1.09975 -10.1015 -13.0003 -2.27786 -8.32434 0.951995 -10.8916 -68.9142
internal_weight=0 123212 114973 30406 16332 183602 84567 35844 23947 89364 40428 48936 26338 94238 79464 68891 19179 26982 21249 41909 29289 48723 16379 34591 26663 17083 22598 15426
internal_count=306814 123212 114973 30406 16332 183602 84567 35844 23947 89364 40428 48936 26338 94238 79464 68891 19179 26982 21249 41909 29289 48723 16379 34591 26663 17083 22598 15426
cat_boundaries=0 2 3 4 5 6 7 8 10 11 12 14 15 17 19 20 21 22 23 24 26 28 29 30 32
cat_threshold=1477583985 63718384 8200 2718204962 2 7277062 1606354956 6415640 1342177280 17563760 2 10689209 92347264 1254414 2 2199919492 1087489 17586824 3310592 2147537506 12203534 2 1283459072 12765593 1056832 33555136 2688647170 134232068 1092632704 1577540 101208076 3180553
is_linear=0
shrinkage=0.288339


Tree=35
num_leaves=29
num_cat=24
split_feature=8 7 5 7 8 2 8 5 5 5 8 10 10 5 8 8 5 2 8 8 2 7 4 5 8 7 5 8
split_gain=2.89546e+08 2.11798e+08 3.10444e+08 1.89727e+08 1.83973e+08 1.45148e+08 1.20696e+08 1.61968e+08 1.19253e+08 1.10622e+08 1.73063e+08 1.44532e+08 1.09971e+08 1.81611e+08 2.23953e+08 1.36155e+08 9.44878e+07 8.29512e+07 1.5123e+08 7.77509e+07 7.27195e+07 7.27004e+07 6.25289e+07 4.59133e+07 4.24528e+07 2.7345e+07 1.3619e+07 1.36584e+07
threshold=0 1 2 3 4 40.719968795776374 5 6 7 8 9 10 11 12 13 14 15 40.754087448120124 16 17 40.747301101684577 18 40.755857467651374 19 20 21 22 23
decision_type=1 1 1 1 1 2 1 1 1 1 1 1 1 1 1 1 1 2 1 1 2 1 2 1 1 1 1 1
left_child=1 2 -1 6 -4 -3 16 -8 -6 17 11 -11 13 14 -5 -15 -2 18 -7 -9 -12 -16 -19 -22 -14 -26 -27 -28
right_child=3 5 4 12 8 9 7 19 -10 10 20 -13 24 15 21 -17 -18 22 -20 -21 23 -23 -24 -25 25 26 27 -29
leaf_value=57.433728886557461 6.8557029686880595 -34.592059107778404 42.225336694905415 27.188539147921976 19.695524573760096 30.551173547298554 36.273893551735362 -26.926142125539407 -22.130497631210506 48.183733570059701 -26.209674616708206 4.1411277632925607 -29.033551234171156 -20.585112063423207 -13.798867961622797 -64.009581778301424 -33.513002913202655 -0.018415465795047929 -21.025347576133417 9.1421546719601157 21.341739845875981 -49.470025401636505 -31.794771271762134 -6.8540362914157722 -20.718771193482088 -11.456866791853187 10.93592689513371 -3.8133179833066833
leaf_weight=13850 8204 10178 8546 8135 8884 9335 13306 7831 15385 13320 9130 11560 7840 10114 10822 15117 11557 7745 9434 13327 8134 8531 15303 11520 8013 8663 8564 13139
leaf_count=13850 8204 10178 8546 8135 8884 9335 13306 7831 15385 13320 9130 11560 7840 10114 10822 15117 11557 7745 9434 13327 8134 8531 15303 11520 8013 8663 8564 13139
internal_value=0 5.18362 21.3466 -12.5668 6.02525 -1.96413 1.14195 11.4361 -6.80631 1.5331 10.191 27.7688 -20.0757 -29.0738 -12.7987 -46.7083 -16.7877 -9.57606 4.64679 -4.25154 -5.03284 -29.6454 -21.1451 4.85112 -9.79183 -5.81254 -1.84 2.02252
internal_weight=0 152324 46665 153163 32815 105659 54225 34464 24269 95481 53664 24880 98938 52719 27488 25231 19761 41817 18769 21158 28784 19353 23048 19654 46219 38379 30366 21703
internal_count=305487 152324 46665 153163 32815 105659 54225 34464 24269 95481 53664 24880 98938 52719 27488 25231 19761 41817 18769 21158 28784 19353 23048 19654 46219 38379 30366 21703
cat_boundaries=0 2 3 4 5 7 9 10 11 12 14 15 16 17 19 21 22 24 26 27 28 30 31 32 34
cat_threshold=3080986187 168845086 2220092 340984838 9836672 2098177 134223120 1073905840 67305664 1423085702 1108085296 3316375586 2483028547 34604566 2 2 800760408 1073938560 67305664 1073774880 98836481 2721458640 656409610 34605582 1654784 4456480 6398979 537922712 1589504 64 4194333 2165336120 138444804 25723040
is_linear=0
shrinkage=0.288339


Tree=36
num_leaves=30
num_cat=28
split_feature=8 5 8 10 7 8 5 7 8 7 10 10 5 7 7 5 8 7 10 8 8 8 8 5 3 7 7 7 8
