tree
version=v3
num_class=1
num_tree_per_iteration=1
label_index=0
max_feature_idx=11
objective=regression
feature_names=passenger_count pickup_longitude pickup_latitude dropoff_longitude dropoff_latitude pickup_day pickup_month pickup_hour pickup_min pickup_weekday vendor_id_2 store_and_fwd_flag_Y
feature_infos=[-1.2664389177859448:3.2998653453847631] [-48.72519103895582:100.32087745239048] [-187.41567943415927:17.636157326736591] [-48.87777692520865:100.63177487213802] [-234.09131518896729:15.515202536376306] -1:0:1 -1:0:1 -1:0:1 -1:0:1 -1:0:1 -1:0 none
tree_sizes=2343 1818 1555 2713 2034 2562 2787 2755 2286 2366 2629 2876 2582 2047 2126 2851 2135 2009 3254 2032 2045 1483 2484 2888 2401 1949 3027 2558 2679 2038 2011 2304 2486 2417 2361 1665 2685 2219 2125 2227 2060 2511 2687 1675 2418 2509 2313 2037 2483 3043 2640

Tree=0
num_leaves=24
num_cat=4
split_feature=1 4 2 10 2 4 4 2 4 2 4 7 7 4 4 2 1 2 9 4 2 2 2
split_gain=3.33872e+10 9.59665e+09 5.55986e+09 3.12605e+09 9.68315e+08 2.4224e+09 2.29269e+09 1.07658e+09 7.05523e+08 3.82154e+08 7.60461e+08 2.6217e+08 2.14486e+08 2.001e+08 1.92532e+08 5.73597e+08 1.29464e+08 1.33803e+08 1.11798e+08 7.4047e+07 2.74716e+08 5.0367e+07 3.19719e+07
threshold=0.6345289540347262 -1.3684460394166853 -0.20469871214354199 0 -0.73000606482872288 -0.27516533870928023 -0.57711210995204609 -0.1415955300428631 1.1548099759633699 -0.99117983539982923 -0.77247104579761783 1 2 0.44115075939069698 0.62348576617990381 0.60640804315185715 -0.20145242186828585 0.28816910602817752 3 0.62348576617990381 0.66288124739590304 0.22447396161864028 -0.30651622922946359
decision_type=2 2 2 9 2 2 2 2 2 2 2 9 9 2 2 2 2 2 9 2 2 2 2
left_child=1 -1 -2 4 5 -3 7 -6 11 -5 -11 14 18 21 15 -8 -13 -18 -12 20 -20 22 -14
right_child=2 3 -4 9 6 -7 8 -9 -10 10 12 16 13 -15 -16 -17 17 -19 19 -21 -22 -23 -24
leaf_value=1182.2821582649324 1535.6149019025099 929.7205696315267 1201.9088894861527 956.99651061421162 977.17701640910457 1139.6081693418025 929.47350303504322 1126.7469358584594 1012.5430092593662 964.83372468916752 862.77910162342687 934.65902830292691 857.99390874118239 898.56390120180708 907.29793912220441 1000.5594396187897 868.9812580228479 914.43456155642707 893.79869020700028 879.30727783420616 952.5585807992469 872.39529754721627 829.30986061554222
leaf_weight=12870 7706 10835 9251 7859 8250 7830 46874 7735 8604 10671 9000 8641 7851 11103 15138 11758 10411 11619 42849 14860 7844 7740 9195
leaf_count=12870 7706 10835 9251 7859 8250 7830 46874 7735 8604 10671 9000 8641 7851 11103 15138 11758 10411 11619 42849 14860 7844 7740 9195
internal_value=961.186 939.474 1355.05 928.133 956.78 1018.06 947.893 1049.9 933.429 895.346 891.349 926.886 884.251 865.814 936.236 943.755 904.49 892.761 893.196 897.458 902.87 851.331 842.112
internal_weight=0 289537 16957 276667 147695 18665 129030 15985 113045 128972 121113 104441 110442 35889 73770 58632 30671 22030 74553 65553 50693 24786 17046
internal_count=306494 289537 16957 276667 147695 18665 129030 15985 113045 128972 121113 104441 110442 35889 73770 58632 30671 22030 74553 65553 50693 24786 17046
cat_boundaries=0 1 2 3 4
cat_threshold=1 1 1 2
is_linear=0
shrinkage=1


Tree=1
num_leaves=18
num_cat=3
split_feature=1 4 4 4 2 2 7 4 2 2 9 4 2 2 9 2 2
split_gain=1.11855e+10 5.85734e+09 1.16351e+09 9.57153e+08 1.74624e+09 1.27747e+09 3.46189e+08 4.09952e+08 2.85915e+09 8.23935e+08 1.71873e+08 1.55366e+08 1.48341e+09 5.635e+08 8.43878e+07 8.1454e+07 2.56547e+07
threshold=1.230169238305417 -1.8572080490439504 1.4405549794601147 -1.054517253442161 -0.54910238330912242 -1.1238977849964231 0 0.64171926685881486 0.39460392912114312 0.91896414211261401 1 0.28236301633568911 0.15130742027111885 0.22447396161864028 2 0.5763363578729469 0.73474547166453152
decision_type=2 2 2 2 2 2 9 2 2 2 9 2 2 2 9 2 2
left_child=1 -1 3 4 -3 -5 7 9 -9 10 -7 13 -13 14 -8 -14 -10
right_child=-2 2 -4 5 -6 6 11 8 16 -11 -12 12 15 -15 -16 -17 -18
leaf_value=230.29379489984962 245.56607102989594 -52.283498839234475 74.944751229242343 74.321825629738029 140.39690626646762 -17.024401667137642 -66.029240200856748 90.010588550383815 -93.016299378323282 64.287894357716638 -38.418628290595414 55.995964901780049 -61.563593561859136 -9.068272529471745 -94.614443747087122 -102.06831421655954 -116.39376207224551
leaf_weight=7779 14243 7823 9805 9345 7712 77115 24114 8120 7881 8989 52617 10060 8420 13913 14333 8994 15007
leaf_count=7779 14243 7823 9805 9345 7712 77115 24114 8120 7881 8989 52617 10060 8420 13913 14333 8994 15007
internal_value=0 -15.5898 -22.3661 -25.8584 43.5396 -30.0316 -33.9561 -26.574 -56.5231 -19.8579 -25.7154 -49.6187 -31.9426 -58.8462 -76.817 -82.763 -108.609
internal_weight=0 292027 284248 274443 15535 258908 249563 169729 31008 138721 129732 79834 27474 52360 38447 17414 22888
internal_count=306270 292027 284248 274443 15535 258908 249563 169729 31008 138721 129732 79834 27474 52360 38447 17414 22888
cat_boundaries=0 1 2 3
cat_threshold=1 1 1
is_linear=0
shrinkage=0.288339


Tree=2
num_leaves=15
num_cat=0
split_feature=1 4 4 4 2 2 2 1 4 0 4 2 2 2
split_gain=5.32546e+09 3.01069e+09 7.26511e+08 3.71963e+08 2.03953e+09 8.96113e+08 5.21039e+08 3.05645e+08 6.70824e+08 1.63841e+08 8.06671e+07 1.52352e+09 6.61337e+08 6.39552e+07
threshold=0.89775741697222078 -1.7573405610398409 1.4726980363711264 -0.80101949828907293 -0.03089857832748483 -0.92760308345212972 -0.91315920312136756 -0.3370707586688001 -0.046777718776863909 2.1582892795920867 0.63244622937068296 0.27289647846532233 0.8916154834535478 0.1719077086116039
decision_type=2 2 2 2 2 2 2 2 2 2 2 2 2 2
left_child=1 -1 3 4 6 -5 -3 8 -7 10 12 -12 -9 -11
right_child=-2 2 -4 5 -6 7 -8 9 -10 13 11 -13 -14 -15
leaf_value=156.88177134856079 163.51875898990502 -87.772192791430015 66.798794267295293 48.994033946823585 134.13184171284396 -38.446016449286404 2.2189084328903985 -34.243331297421754 72.339378937826865 -22.475220761407982 65.565184405081325 -72.144520917636342 36.339796062602652 11.80420468787392
leaf_weight=8627 15370 8787 8595 13943 8222 10458 13521 140131 7942 7973 8403 31762 11931 10304
leaf_count=8627 15370 8787 8595 13943 8222 10458 13521 140131 7942 7973 8403 31762 11931 10304
internal_value=0 -10.3141 -15.4618 -18.0622 11.9155 -21.833 -33.3678 -26.159 9.45125 -29.2735 -31.7533 -43.2788 -28.693 -3.17338
internal_weight=0 290599 281972 273377 30530 242847 22308 228904 18400 210504 192227 40165 152062 18277
internal_count=305969 290599 281972 273377 30530 242847 22308 228904 18400 210504 192227 40165 152062 18277
is_linear=0
shrinkage=0.288339


Tree=3
num_leaves=27
num_cat=1
split_feature=3 1 1 10 4 2 2 4 4 4 2 2 3 2 2 3 1 0 4 2 2 4 2 4 3 4
split_gain=6.17342e+09 7.03328e+09 4.09825e+09 1.45601e+09 4.63888e+08 9.69029e+08 6.29768e+08 2.90791e+09 3.10188e+08 2.32662e+08 6.80902e+08 6.23059e+08 1.94966e+08 1.65336e+08 1.51445e+08 1.08415e+08 1.05812e+08 7.76102e+07 4.8879e+07 6.78085e+08 5.51473e+08 9.7592e+07 2.32034e+08 4.0944e+07 2.91112e+07 1.31819e+07
threshold=0.62930346446971697 0.89775741697222078 0.012352587091854035 0 -0.57711210995204609 -0.057773667139751066 -0.27372151733081934 0.16764824920712926 -0.14878113114641148 0.24131159195002663 0.54294968366599561 0.20221617881385909 0.20402378038467014 -0.57218891334610678 -0.03539749187324235 0.30061127541775329 0.13043815498393449 1.0000000180025095e-35 0.37238441397318683 0.27289647846532233 0.36820241015589739 0.069916685568166367 -0.03539749187324235 0.67485214237820734 -0.16597477342298714 0.24672954643737743
decision_type=2 2 2 9 2 2 2 2 2 2 2 2 2 2 2 2 2 2 2 2 2 2 2 2 2 2
left_child=1 3 -2 4 5 13 7 8 -6 10 14 -11 16 -1 -8 17 -13 18 20 -20 21 22 -5 -21 -16 -19
right_child=2 -3 -4 15 6 -7 9 -9 -10 11 -12 12 -14 -15 24 -17 -18 25 19 23 -22 -23 -24 -25 -26 -27
leaf_value=-21.411940177087871 312.53161331138591 204.30447823653674 21.19892698785775 -76.60305328197424 -60.450385368234407 117.54065747397321 -51.705063032218455 177.57083742755725 13.261912437199671 27.133218243888791 72.960801709236335 -75.737742138885508 -20.776332191505436 31.377596376593623 2.030067816047298 -9.7950190964384873 -36.444098702138362 -24.005746790606651 12.968422915915351 -104.45610225417863 5.6729913568512051 -35.069177742947915 -29.835902596068198 -75.708576025555516 -18.219732642751318 -38.974528307352408
leaf_weight=12591 8298 12037 7743 31741 11400 7913 9797 7821 8070 11205 7729 18655 13233 8025 10655 7869 8462 14552 7750 7982 14632 13274 12360 11149 13139 7833
leaf_count=12591 8298 12037 7743 31741 11400 7913 9797 7821 8070 11205 7729 18655 13233 8025 10655 7869 8462 14552 7750 7982 14632 13274 12360 11149 13139 7833
internal_value=0 -10.9234 172.509 -20.2901 -0.834678 32.1787 -8.68476 29.7793 -29.9502 -19.9994 -3.86855 -32.908 -49.5971 -0.830923 -21.6453 -42.6803 -63.584 -44.8081 -48.2908 -58.9202 -44.2768 -57.008 -63.5545 -87.9927 -9.16893 -29.3345
internal_weight=0 289874 16041 277837 148695 28529 120166 27291 19470 92875 41320 51555 40350 20616 33591 129142 27117 121273 98888 26881 72007 57375 44101 19131 23794 22385
internal_count=305915 289874 16041 277837 148695 28529 120166 27291 19470 92875 41320 51555 40350 20616 33591 129142 27117 121273 98888 26881 72007 57375 44101 19131 23794 22385
cat_boundaries=0 1
cat_threshold=1
is_linear=0
shrinkage=0.288339


Tree=4
num_leaves=20
num_cat=0
split_feature=3 1 1 3 3 1 3 1 3 0 4 2 2 4 3 1 2 1 1
split_gain=2.4278e+09 3.08481e+09 3.77017e+08 3.25112e+09 2.43153e+09 8.66896e+08 3.78422e+08 2.737e+08 2.57654e+08 2.22097e+08 1.59674e+08 6.99446e+08 5.33099e+08 1.5415e+08 1.03159e+08 2.8284e+08 9.96611e+07 4.40822e+07 3.55338e+07
threshold=1.0973630430086589 1.2779341871157495 0.028653323590588108 -0.05988063517816343 0.10648562103057226 -0.19263865155219814 -0.19287857371280256 -0.051997413388613606 0.062659995823543424 1.3972385690636349 -0.86228406057021378 -0.52802852512172704 -0.88379787261293286 0.79477648112921606 0.0064757344409331124 -0.031337177593706467 0.75854235647177104 -0.16723982956571029 0.15451017283671623
decision_type=2 2 2 2 2 2 2 2 2 2 2 2 2 2 2 2 2 2 2
left_child=1 2 4 6 9 -6 -4 -7 -5 10 11 -1 -12 16 15 -14 18 -11 -10
right_child=-2 -3 3 8 5 7 -8 -9 13 17 12 -13 14 -15 -16 -17 -18 -19 -20
leaf_value=-47.550061516878742 136.25678412077343 162.51446503495035 109.59542108802174 -32.693733277774555 132.5467308626892 58.430427671202978 33.50425105519912 -7.9331261110247704 -86.28036506089316 -0.15722830029323551 30.581126866896152 59.929899053205297 -38.183333837127478 -51.835283860610453 -6.4686818076343355 9.0709337665797349 -61.733240645576167 27.937096859432149 -114.11405014978598
leaf_weight=10599 10437 8821 9283 15193 11238 14159 13183 8095 8473 10376 13239 9479 98235 13719 13596 11771 7768 8342 9991
leaf_count=10599 10437 8821 9283 15193 11238 14159 13183 8095 8473 10376 13239 9479 98235 13719 13596 11771 7768 8342 9991
internal_value=0 -4.85219 -10.0339 -27.1886 -3.66157 67.4666 65.1541 34.3333 -64.8397 -17.2434 -20.7843 3.21883 -24.3061 -76.9968 -30.1972 -33.1247 -90.0071 12.412 -101.663
internal_weight=0 295560 286739 77610 209129 33492 22466 22254 55144 175637 156919 20078 136841 39951 123602 110006 26232 18718 18464
internal_count=305997 295560 286739 77610 209129 33492 22466 22254 55144 175637 156919 20078 136841 39951 123602 110006 26232 18718 18464
is_linear=0
shrinkage=0.288339


Tree=5
num_leaves=26
num_cat=4
split_feature=1 3 3 10 3 5 9 1 4 3 9 4 2 2 4 4 3 2 4 2 2 2 4 4 1
split_gain=2.36719e+09 5.54412e+09 3.7303e+09 7.06278e+08 4.24674e+08 1.69088e+08 1.1532e+08 1.00012e+08 1.20717e+08 9.34513e+07 8.48592e+07 8.37656e+07 4.91006e+08 2.83025e+08 9.93678e+07 7.2619e+07 6.48804e+07 4.14513e+07 3.65874e+07 7.34153e+08 4.79132e+08 7.97302e+07 9.22883e+07 3.3415e+07 318561
threshold=0.6345289540347262 0.80655482715609839 0.0095178602688352956 0 0.30061127541775329 1 2 0.032444192543782079 0.0063599117732022628 0.31791336606344339 3 0.35394253042937401 0.2991796049688405 0.31895114607734293 0.034074832804952888 -0.31621676309494268 -0.099998669532455842 0.78458869805172382 0.30070070844695396 0.10525275265909821 0.53430703395988377 0.29432551403790036 0.060747839512388373 0.64171926685881486 -0.13321678071079437
decision_type=2 2 2 9 2 9 9 2 2 2 9 2 2 2 2 2 2 2 2 2 2 2 2 2 2
left_child=1 3 -2 4 5 11 7 8 -7 10 24 12 14 -13 15 -1 -8 -15 20 -20 21 22 -12 -21 -5
right_child=2 -3 -4 9 -6 6 16 -9 -10 -11 18 13 -14 17 -16 -17 -18 -19 19 23 -22 -23 -24 -25 -26
leaf_value=-15.89057029382171 248.37515500671148 217.79894160903976 -23.990818355442187 -44.428447835345906 59.120984775490761 12.638621314968585 9.8602371647027383 -6.6113776045664583 52.034666505841166 4.10167183176039 -39.609684248692389 20.133608118580042 41.895433824781627 -30.733211220930119 5.4595839760723175 -43.425239197454893 -21.674333928858402 -60.639999958314071 44.89672818188437 -65.994829430136491 44.535484731686132 -3.9183091631830931 -9.9103392030456625 -45.093712824542934 -50.809803136796035
leaf_weight=20962 8056 9060 8602 8274 10332 14846 11027 8149 11471 7972 44327 8011 14678 7764 10646 12906 10567 8112 7795 13003 8084 8614 10881 14043 7714
leaf_count=20962 8056 9060 8602 8274 10332 14846 11027 8149 11471 7972 44327 8011 14678 7764 10646 12906 10567 8112 7795 13003 8084 8614 10881 14043 7714
internal_value=0 -3.44443 108.146 -10.6438 2.89436 -1.30442 10.9251 21.2631 29.8903 -26.1199 -28.084 -9.55877 -3.73293 -23.9491 -18.8148 -26.4418 -5.5878 -46.1861 -25.1228 -32.8181 -21.3697 -29.7517 -33.7736 -55.2668 -47.6867
internal_weight=0 289238 16658 280178 149471 139139 56060 34466 26317 130707 122735 83079 59192 23887 44514 33868 21594 15876 106747 34841 71906 63822 55208 27046 15988
internal_count=305896 289238 16658 280178 149471 139139 56060 34466 26317 130707 122735 83079 59192 23887 44514 33868 21594 15876 106747 34841 71906 63822 55208 27046 15988
cat_boundaries=0 1 2 3 4
cat_threshold=1 1 1 2
is_linear=0
shrinkage=0.288339


Tree=6
num_leaves=28
num_cat=2
split_feature=7 3 1 1 3 4 3 3 1 3 4 1 1 3 3 1 1 3 1 1 3 1 4 1 1 7 4
split_gain=9.20156e+08 1.12569e+09 1.12343e+09 4.36128e+08 7.7664e+08 9.12803e+08 4.17828e+08 3.11503e+08 2.18245e+08 3.05726e+08 1.45924e+08 2.33773e+08 1.45718e+08 1.28181e+09 1.07987e+09 2.95154e+08 2.5081e+08 2.24381e+08 4.56435e+08 1.68959e+08 1.12261e+08 3.48435e+08 7.84286e+07 1.5259e+08 7.70298e+07 4.23956e+07 4.17582e+07
threshold=0 0.57677926072387209 0.89775741697222078 -0.11483106628762713 -0.1713935600540458 -0.39633997464960308 -0.12176888248765869 0.037182192015692693 0.27562843589117531 0.24423688117117023 -0.75673813949752888 -0.26494947683419656 -0.099572818751197917 -0.028318579714419815 -0.15238027363012199 1.0000000180025095e-35 -0.1832562508929548 -0.25343589097271785 -0.32844653180019556 -0.22798850454064365 -0.013488216304005382 0.085421586164756078 0.82457523081017914 -0.0026213452732621492 -0.23983497001919826 1 -0.2087953962380443
decision_type=9 2 2 2 2 2 2 2 2 2 2 2 2 2 2 2 2 2 2 2 2 2 2 2 2 9 2
left_child=1 2 10 4 24 -6 -5 -7 9 25 11 -1 13 17 15 -14 -15 19 -19 -12 21 -16 23 -22 -2 -8 -20
right_child=3 -3 -4 6 5 7 8 -9 -10 -11 12 -13 14 16 20 -17 -18 18 26 -21 22 -23 -24 -25 -26 -27 -28
leaf_value=-12.64510821388229 -59.188237741939567 110.87250263386105 110.38273558614614 0.91451064602980037 103.94897152312824 -33.510893482320647 -52.637585824819325 33.771168562132317 -99.933931688039607 0.054707169515853263 -56.414316923218912 48.776458256285501 21.64559229993796 110.77407204060813 -33.469195987749103 97.025627347808168 40.405305512100107 61.023137311556859 -31.596219951110573 -2.410048099814861 -6.0870937460857348 41.273395251822237 -14.954391872503731 -51.88341871209682 -26.014567435066585 -81.748471705735454 -8.2009644419178827
leaf_weight=8513 12941 8970 8257 13384 8692 13540 9064 9816 8260 8213 12768 12908 9833 9006 15413 7706 8064 8255 9037 7722 8018 7741 14141 24798 10832 8741 21181
leaf_count=8513 12941 8970 8257 13384 8692 13540 9064 9816 8260 8213 12768 12908 9833 9006 15413 7706 8064 8255 9037 7722 8018 7741 14141 24798 10832 8741 21181
internal_value=0 11.3627 6.7134 -22.0563 -4.74794 24.5278 -42.2957 -5.21907 -59.1399 -45.9882 2.05464 24.3989 -0.877308 8.35614 -8.88737 54.9835 77.7901 -11.8036 1.18732 -36.1291 -24.8989 -8.43804 -32.9941 -40.7259 -44.177 -67.1563 -15.2468
internal_weight=0 202331 193361 103483 55821 32048 47662 23356 34278 26018 185104 21421 163683 76033 87650 17539 17070 58963 38473 20490 70111 23154 46957 32816 23773 17805 30218
internal_count=305814 202331 193361 103483 55821 32048 47662 23356 34278 26018 185104 21421 163683 76033 87650 17539 17070 58963 38473 20490 70111 23154 46957 32816 23773 17805 30218
cat_boundaries=0 1 2
cat_threshold=1 2
is_linear=0
shrinkage=0.288339


Tree=7
num_leaves=28
num_cat=4
split_feature=10 3 1 2 4 4 2 4 4 2 4 2 3 4 2 4 4 3 5 1 9 4 4 6 4 2 4
split_gain=3.27393e+08 5.12784e+08 6.5474e+08 4.09776e+08 2.07701e+09 9.79986e+08 5.96866e+08 5.369e+08 1.30059e+08 4.50412e+08 3.67565e+08 3.46774e+08 2.36786e+08 1.65808e+08 2.47135e+08 1.59429e+08 1.38585e+08 6.27207e+07 5.97898e+07 4.431e+07 4.02049e+07 3.1265e+07 2.30649e+07 2.14258e+07 1.21601e+07 3.81017e+07 1.62953e+07
threshold=0 0.57677926072387209 0.42584161816148641 -0.26614439978014531 0.16764824920712926 -0.50970025315620382 -0.43532722758893788 -0.29089824500936917 0.28236301633568911 0.2991796049688405 -0.023230455043053055 0.054699171501430353 0.0031484093169390154 -0.1301308647375998 -0.15177728175143321 0.88250566725298774 -0.82935956791572307 -0.21217705943290685 1 -0.26817171544449969 2 -0.21619298794196259 0.59014450779551242 3 0.91720141425894997 0.78458869805172382 0.44115075939069698
decision_type=9 2 2 2 2 2 2 2 2 2 2 2 2 2 2 2 2 2 9 2 9 2 2 9 2 2 2
left_child=1 2 8 4 6 -5 7 19 9 12 -11 -10 13 16 -15 18 -1 -18 22 -2 -7 -22 -13 -23 25 26 -25
right_child=3 -3 -4 5 -6 20 -8 -9 11 10 -12 15 -14 14 -16 -17 17 -19 -20 -21 21 23 -24 24 -26 -27 -28
leaf_value=8.5221761992198548 -44.093883169563348 76.315762022518001 88.17095354488039 56.992748421291772 141.23435302268032 -46.117805901847049 54.025245091179869 28.908400724977295 35.848899688635441 83.664591113394508 7.8414546458204235 -31.079193192943613 42.359822846411234 44.837601823983839 -18.204282097917741 6.2381172084746357 -16.175572092658811 -42.412189324075463 -48.428475274291664 -71.547070228937756 -9.5804468533501019 -16.990370324284292 -9.8200871889134635 -40.792234122746343 -21.028189911271721 -15.554696357437132 -27.345735115081531
leaf_weight=11910 9571 9464 7851 12545 8703 10300 8066 7969 11488 10744 10491 9486 8946 10375 10197 12735 16889 13867 11619 11085 7921 10898 7784 27080 8812 8640 11184
leaf_count=11910 9571 9464 7851 12545 8703 10300 8066 7969 11488 10744 10491 9486 8946 10375 10197 12735 16889 13867 11619 11085 7921 10898 7784 27080 8812 8640 11184
internal_value=0 11.3806 7.37172 -7.50424 15.1074 -18.0477 -14.9909 -34.5112 3.00815 9.4833 46.333 -8.3786 -1.38638 -7.60948 13.6266 -20.6195 -17.8539 -28.0649 -32.448 -58.9918 -29.1769 -26.8004 -21.5652 -28.8374 -31.1336 -33.0025 -36.9114
internal_weight=0 163846 154382 142774 45394 97380 36691 28625 146531 93419 21235 53112 72184 63238 20572 41624 42666 30756 28889 20656 84835 74535 17270 66614 55716 46904 38264
internal_count=306620 163846 154382 142774 45394 97380 36691 28625 146531 93419 21235 53112 72184 63238 20572 41624 42666 30756 28889 20656 84835 74535 17270 66614 55716 46904 38264
cat_boundaries=0 1 2 3 4
cat_threshold=1 1 2 2
is_linear=0
shrinkage=0.288339


Tree=8
num_leaves=23
num_cat=4
split_feature=7 4 2 1 3 7 3 9 9 1 3 3 4 1 2 3 2 4 4 2 3 3
split_gain=5.07294e+08 4.04967e+08 7.124e+08 2.43754e+08 3.02461e+08 1.49733e+08 1.39526e+08 1.03929e+08 7.2873e+07 1.07759e+08 3.77009e+08 8.4111e+07 7.11611e+07 6.04064e+07 1.08784e+08 1.0629e+08 5.0625e+07 3.05623e+08 1.89738e+08 7.38648e+07 4.20519e+07 1.82685e+07
threshold=0 -1.3684460394166853 -1.1755168983096389 0.35409942322237875 0.42571870008676643 1 0.31791336606344339 2 3 0.21487976091624192 0.025679153729006737 -0.16597477342298714 -0.25057616065096017 0.015574825702068909 -0.5388022391387145 -0.043814408150022625 0.74705828768408755 0.53950747162436541 0.77070826023315064 0.20221617881385909 -0.0083546289695698595 -0.20295561551752381
decision_type=9 2 2 2 2 9 2 9 9 2 2 2 2 2 2 2 2 2 2 2 2 2
left_child=1 -1 -3 4 5 7 8 12 11 16 -11 -4 -2 14 -7 21 18 -18 19 -10 -14 -16
right_child=3 2 6 -5 -6 13 -8 -9 9 10 -12 -13 20 -15 15 -17 17 -19 -20 -21 -22 -23
leaf_value=70.925234474637094 21.102288422442655 81.726855561656365 3.9658092956622069 -67.351993541138143 38.509415083751207 -14.079939349720103 30.169711950353431 -26.499340263451032 -8.7617476955769309 66.981099810131411 -18.768860803012668 -32.765650120554568 -21.821742115225703 -10.495084771367177 -50.562778210484737 -19.902502806045753 26.891206774408538 -47.584843555796105 43.046716501525616 7.2358654898215224 7.0118440304566469 -71.560403163144741
leaf_weight=7717 11133 9234 8702 7758 8167 12111 11808 14887 73176 8000 9005 12712 9065 9586 7784 7724 7810 10918 7735 35635 7757 7937
leaf_count=7717 11133 9234 8702 7758 8167 12111 11808 14887 73176 8000 9005 12712 9065 9586 7784 7724 7810 10918 7735 35635 7757 7937
internal_value=0 6.40284 3.8248 -18.3748 -14.3833 -19.3161 -0.0781615 -7.09023 -2.14426 0.0730827 21.665 -17.8691 3.27989 -30.8939 -36.3661 -47.8125 -2.64949 -16.5392 -0.41004 -3.52139 -8.54741 -61.3965
internal_weight=0 202452 194735 103909 96151 87984 185501 42842 173693 152279 17005 21414 27955 45142 35556 23445 135274 18728 116546 108811 16822 15721
internal_count=306361 202452 194735 103909 96151 87984 185501 42842 173693 152279 17005 21414 27955 45142 35556 23445 135274 18728 116546 108811 16822 15721
cat_boundaries=0 1 2 3 4
cat_threshold=1 2 1 2
is_linear=0
shrinkage=0.288339


Tree=9
num_leaves=24
num_cat=6
split_feature=10 7 1 3 3 1 2 4 1 3 7 9 9 4 2 1 7 0 3 2 4 3 4
split_gain=4.98933e+08 2.33523e+08 1.5959e+08 1.15715e+09 8.14057e+08 1.86309e+08 1.26253e+08 1.23789e+08 1.36291e+08 1.30538e+08 8.88447e+07 8.83674e+07 5.30047e+07 5.49017e+07 2.12322e+08 5.10778e+07 6.00226e+07 1.43877e+07 8.95512e+06 6.83714e+06 8.03552e+07 3.5695e+06 3.42215e+06
threshold=0 1 0.15451017283671623 0.21628735012804387 0.27228147864632729 0.30282792063043035 -0.89788657555851237 -0.80101949828907293 -0.3370707586688001 -0.29925791125433793 2 3 4 -0.7151657579496119 -0.64209966199623059 0.17052659416387247 5 1.0000000180025095e-35 -0.055697712164919672 -0.049367802357094349 -0.028752600962951808 -0.0055977024382022822 0.64171926685881486
decision_type=9 9 2 2 2 2 2 2 2 2 9 9 9 2 2 2 9 2 2 2 2 2 2
left_child=2 12 4 5 6 -4 -1 -8 -9 -10 -11 -12 -2 -14 -15 16 18 19 -3 -16 -21 -18 -22
right_child=1 15 3 -5 -6 -7 7 8 9 10 11 -13 13 14 17 -17 21 -19 -20 20 22 -23 -24
leaf_value=-20.7379071610872 -23.204148489202368 -19.021772754384902 10.919856522525009 -79.612363102618048 84.890877299227157 68.403241172252592 38.419640069912816 40.282612270037525 33.731629088707749 22.096317839923582 -32.099215638898791 -0.88540073251668716 15.543630866363456 39.078859098696249 -19.127175065953015 -51.254044787640758 -39.221084083004669 -1.3943149120890965 -6.2814137206066416 14.443577060570892 -20.117155470684537 -30.544441467928451 -13.647742118693085
leaf_weight=12314 11840 11542 11438 11843 12187 7917 11351 9023 10206 11809 8628 57134 11796 7774 12502 7790 13687 10243 7731 7978 20411 7787 11205
leaf_count=12314 11840 11542 11438 11843 12187 7917 11351 9023 10206 11809 8628 57134 11796 7774 12502 7790 13687 10243 7731 7978 20411 7787 11205
internal_value=0 -13.6338 9.70036 -8.84215 14.0634 34.5724 6.85928 10.0114 6.65826 3.17654 -0.86636 -5.00641 -5.22145 -2.60678 -5.67133 -29.8555 -25.6948 -11.2844 -13.9473 -13.2248 -11.3346 -36.1693 -17.855
internal_weight=0 142286 163850 31198 132652 19355 120465 108151 96800 87777 77571 65762 93749 81909 70113 48537 40747 62339 19273 52096 39594 21474 31616
internal_count=306136 142286 163850 31198 132652 19355 120465 108151 96800 87777 77571 65762 93749 81909 70113 48537 40747 62339 19273 52096 39594 21474 31616
cat_boundaries=0 1 2 3 4 5 6
cat_threshold=1 1 2 2 2 2
is_linear=0
shrinkage=0.288339


Tree=10
num_leaves=27
num_cat=6
split_feature=7 4 2 1 1 9 9 7 4 2 10 1 4 4 2 1 1 10 4 4 2 4 4 2 2 1
split_gain=2.47383e+08 1.91325e+08 2.38968e+08 1.96427e+08 1.77312e+08 8.76144e+07 1.38996e+08 1.00009e+08 8.3802e+07 1.12201e+08 7.3073e+07 1.2623e+08 3.55692e+08 5.99706e+07 1.23368e+08 1.25508e+08 5.69886e+07 5.40476e+07 1.76208e+07 1.62324e+07 3.19762e+07 3.25318e+08 1.25364e+08 1.67572e+08 4.45101e+07 2.04104e+06
threshold=0 -1.0972357407470381 -1.1755168983096389 0.32614176469257322 0.35409942322237875 1 2 3 -0.20025169877706886 0.14550618964646841 4 -0.21936427767203912 -0.20025169877706886 0.76039330842050956 0.60640804315185715 0.052725341443458085 -0.10630161114302895 5 0.012715589152514304 0.88250566725298774 0.34381356304013039 0.17421230945144014 0.092526226410015996 0.0089996812745924189 1.0000000180025095e-35 0.061160024864314669
decision_type=9 2 2 2 2 9 9 9 2 2 9 2 2 2 2 2 2 9 2 2 2 2 2 2 2 2
left_child=1 -1 -3 10 5 7 -7 8 -2 -10 11 12 -4 14 15 -13 -8 18 -9 20 22 -22 24 -24 -12 -23
right_child=4 2 3 -5 -6 6 16 17 9 -11 19 13 -14 -15 -16 -17 -18 -19 -20 -21 21 25 23 -25 -26 -27
leaf_value=37.877515505030729 27.077509982668683 49.153974459793744 -11.181905808849196 -40.207448021781062 -54.540221845469226 1.8261560066906681 -47.188829998482561 -12.221771176622308 21.338396810500516 -25.174346789764172 -28.023526771468692 5.4365276505037627 61.548744702489316 -16.353986684293368 28.888754438666911 -34.363235269720604 -17.667580516660372 -27.084375865149124 7.0906954539205138 8.0636838326952684 50.75234078306876 -23.195879389408042 38.892662425473091 -18.870281974040463 -2.9934038934876122 -16.48887178048399
leaf_weight=13265 12557 8518 10755 9553 7771 14192 12804 7800 7912 9333 21754 34590 11546 12567 14144 8074 9609 14349 7795 7965 7933 7816 8276 8313 8123 9390
leaf_count=13265 12557 8518 10755 9553 7771 14192 12804 7800 7912 9333 21754 34590 11546 12567 14144 8074 9609 14349 7795 7965 7933 7816 8276 8313 8123 9390
internal_value=0 4.48175 2.13045 -0.100461 -12.8074 -9.4095 -20.5056 -2.59717 9.21854 -3.83349 2.15013 7.69695 26.5367 1.62288 5.61302 -2.13277 -34.614 -14.3522 -2.57753 -4.2414 -5.61596 2.66376 -10.0934 9.98222 -21.2384 -19.6065
internal_weight=0 202582 189317 180799 104122 96351 36605 59746 29802 17245 171246 91676 22301 69375 56808 42664 22413 29944 15595 79570 71605 25139 46466 16589 29877 17206
internal_count=306704 202582 189317 180799 104122 96351 36605 59746 29802 17245 171246 91676 22301 69375 56808 42664 22413 29944 15595 79570 71605 25139 46466 16589 29877 17206
cat_boundaries=0 1 2 3 4 5 6
cat_threshold=1 1 2 2 1 1
is_linear=0
shrinkage=0.288339


Tree=11
num_leaves=30
num_cat=8
split_feature=3 1 3 1 3 1 6 1 7 3 3 3 3 1 1 9 6 1 3 1 3 5 8 5 7 3 1 1 1
split_gain=3.08671e+08 8.62735e+08 5.17312e+08 7.21751e+08 3.76017e+08 1.95504e+08 1.40852e+08 1.06519e+08 8.57764e+07 1.13674e+08 8.56596e+07 7.25924e+07 6.77077e+07 6.71974e+07 3.59025e+07 2.60912e+07 5.83584e+07 4.60054e+07 1.23263e+08 1.00032e+08 7.774e+07 4.39479e+07 3.59326e+07 2.43651e+07 2.34859e+07 3.68356e+07 1.32969e+07 9.23487e+06 5.34382e+06
threshold=0.20402378038467014 -0.10848136079120375 0.24014902458986861 0.42584161816148641 0.44482705294263236 0.17052659416387247 0 -0.16269078682187751 1 -0.073570201403236279 -0.19078711220626923 0.38902305728858727 -0.11720569374584969 0.16540892107706059 0.094045813033272363 2 3 -0.2838090498764248 -0.2208281047560175 -0.19472362947627828 -0.23042981439978868 4 5 6 7 -0.2208281047560175 -0.18524645709329338 -0.15548813581080898 -0.18126604469252797
decision_type=2 2 2 2 2 2 9 2 9 2 2 2 2 2 2 9 9 2 2 2 2 9 9 9 9 2 2 2 2
left_child=5 11 -3 4 13 6 7 10 9 -7 -1 -2 -9 -4 15 16 21 20 -19 -20 -17 24 26 -21 25 -8 -23 -18 -26
right_child=1 2 3 -5 -6 8 14 12 -10 -11 -12 -13 -14 -15 -16 17 27 18 19 23 -22 22 -24 -25 28 -27 -28 -29 -30
leaf_value=6.1140793402032925 54.989406956199701 61.902498357175901 -2.4369711630420392 -95.659386429375161 56.544364649674989 50.124153989466407 -8.2802983292535757 13.905530192696684 -7.26411747966573 9.0234668629484638 47.308584661685195 94.030915155181788 -21.992434628373847 -38.249196598129622 5.4172539026702857 -49.383206674920551 -16.677604177385575 9.9179383143085804 6.7888797818716053 -35.477334579015178 -8.8367351507297354 3.1120908908155744 -23.613724481224438 -18.088589730562884 -13.407671748375721 12.437196228719079 -11.821159190440984 -29.39670657712113 -2.9350860531379785
leaf_weight=8765 8416 8076 9347 7784 7863 9492 11017 7771 8891 13587 8030 8182 9827 8114 10913 8033 10398 15287 8441 17773 7709 9145 15108 11107 8482 20016 10711 9308 7794
leaf_count=8765 8416 8076 9347 7784 7863 9492 11017 7771 8891 13587 8030 8182 9827 8114 10913 8033 10398 15287 8441 17773 7709 9145 15108 11107 8482 20016 10711 9308 7794
internal_value=0 19.135 -3.25589 -19.2336 4.42793 -4.25921 -7.37977 9.52465 16.7627 26.0142 25.9091 74.5052 -6.14626 -19.1535 -10.5898 -11.617 -8.68613 -15.9781 -11.8616 -20.7846 -29.6371 -5.30155 -13.044 -28.8416 0.429491 5.08005 -4.95403 -22.7571 -8.4228
internal_weight=0 57782 41184 33108 25324 247605 215635 34393 31970 23079 16795 16598 17598 17461 181242 170329 101979 68350 52608 37321 15742 82273 34964 28880 47309 31033 19856 19706 16276
internal_count=305387 57782 41184 33108 25324 247605 215635 34393 31970 23079 16795 16598 17598 17461 181242 170329 101979 68350 52608 37321 15742 82273 34964 28880 47309 31033 19856 19706 16276
cat_boundaries=0 1 2 3 4 5 6 7 8
cat_threshold=2 1 1 1 1 1 1 1
is_linear=0
shrinkage=0.288339


Tree=12
num_leaves=26
num_cat=2
split_feature=4 2 3 2 4 3 7 2 7 4 2 3 1 1 3 2 4 1 4 1 1 3 3 3 1
split_gain=1.27497e+08 1.87703e+09 1.26924e+09 1.04519e+09 1.14599e+09 6.31338e+08 2.39699e+08 2.25421e+08 1.76014e+08 1.44673e+08 9.50085e+07 1.18282e+08 2.51973e+08 9.99882e+07 2.59451e+08 7.8875e+07 7.38962e+07 7.28813e+07 6.50064e+07 3.62223e+07 4.24766e+07 3.3439e+07 2.47154e+07 2.21921e+07 1.33566e+07
threshold=-0.64645150824823017 -0.31409334677991713 -0.15238027363012199 -0.47842208365776956 -0.17576671215110271 -0.12861366560032791 0 -1.3097739499085812 1 -1.054517253442161 -0.2468464285186634 -0.22643702425096038 -0.14515801791326713 0.30282792063043035 0.28540064627877365 -0.77191699628027888 -0.29089824500936917 -0.21936427767203912 -0.97877008205034222 -0.23983497001919826 0.0985948557769286 0.033189401866333131 -0.1112165085224301 -0.2637981320737966 -0.099572818751197917
decision_type=2 2 2 2 2 2 9 2 9 2 2 2 2 2 2 2 2 2 2 2 2 2 2 2 2
left_child=1 7 18 4 15 -6 -7 -1 10 -9 -5 12 -12 14 17 -2 -10 -13 -3 -18 21 24 -19 -11 -21
right_child=3 2 -4 8 5 6 -8 9 16 23 11 13 -14 -15 -16 -17 19 22 -20 20 -22 -23 -24 -25 -26
leaf_value=-69.905099234642336 3.8390527520012934 10.879180570514233 170.85841678668416 -25.013963398284822 145.24830190641103 81.295643785007044 11.486969927817626 12.752835915570401 5.557313887804308 -42.991883913279771 -14.903667048966636 18.430637098201558 54.661134538910026 -31.124843568068979 44.799703952827237 -34.665835888120327 -6.164289330522843 1.0930332948040331 47.966579990554656 -47.736515122555659 -14.177233258616958 -21.850230232994218 -10.637764554838604 -20.895501838802133 -31.849374353916101
leaf_weight=8161 9296 7735 7972 13904 8468 8582 7807 9679 7734 7761 8088 9617 9203 9800 9396 8358 7705 19293 8025 10910 13956 13070 65809 7746 8477
leaf_count=8161 9296 7735 7972 13904 8468 8582 7807 9679 7734 7761 8088 9617 9203 9800 9396 8358 7705 19293 8025 10910 13956 13070 65809 7746 8477
internal_value=0 15.6654 77.5461 0.565426 41.7123 81.536 48.2059 -28.4328 -7.8959 -14.8598 -2.40302 0.00330541 22.1818 -3.37292 -0.74416 -14.4453 -20.7676 -5.2877 29.8753 -24.532 -27.569 -33.29 -7.97928 -32.0784 -40.9103
internal_weight=0 57079 23732 249473 42511 24857 16389 33347 206962 25186 145110 131206 17291 113915 104115 17654 61852 94719 15760 54118 46413 32457 85102 15507 19387
internal_count=306552 57079 23732 249473 42511 24857 16389 33347 206962 25186 145110 131206 17291 113915 104115 17654 61852 94719 15760 54118 46413 32457 85102 15507 19387
cat_boundaries=0 1 2
cat_threshold=1 1
is_linear=0
shrinkage=0.288339


Tree=13
num_leaves=21
num_cat=8
split_feature=1 1 2 9 2 2 7 10 2 10 2 0 8 7 2 0 10 10 1 1
split_gain=1.12076e+08 7.1897e+08 1.26519e+08 6.63809e+07 7.15393e+07 6.78988e+08 9.20834e+07 1.05637e+08 7.99138e+07 1.81282e+08 7.98561e+07 6.69602e+07 5.29384e+07 4.16112e+07 3.49181e+07 2.10112e+07 5.7967e+07 1.63395e+07 7.2182e+06 6.45545e+06
threshold=0.89775741697222078 0.32614176469257322 -1.3097739499085812 0 -0.28804700519996429 -0.20469871214354199 1 2 -0.88379787261293286 3 0.1616075644414165 1.0000000180025095e-35 4 5 0.48493737741927095 1.0000000180025095e-35 6 7 -0.16269078682187751 -0.031337177593706467
decision_type=2 2 2 9 2 2 9 9 2 9 2 2 9 9 2 2 9 9 2 2
left_child=1 2 -1 15 8 -6 7 12 9 -5 18 13 -7 17 -12 16 -4 -10 -8 -9
right_child=-2 -3 3 4 5 6 10 19 11 -11 14 -13 -14 -15 -16 -17 -18 -19 -20 -21
leaf_value=-31.958677134741205 -19.953228104459924 89.177349272040388 11.614886980884252 43.083706756983645 80.062716243897071 0.79956767698054498 -29.401327117916651 2.4042417592470855 -16.079893107584954 -16.160698017330663 11.187849155621318 8.2809675732743084 21.1826050149301 -27.763200092786583 -7.8513901994510507 -17.51689297860111 -16.386560616345889 0.23069022742089382 -16.82901999079407 -3.923401822838386
leaf_weight=8354 15302 8199 11956 8814 10371 13581 7829 26505 9277 8273 16296 13997 48200 13522 15634 11788 12525 11262 8066 26999
leaf_count=8354 15302 8199 11956 8814 10371 13581 7829 26505 9277 8273 16296 13997 48200 13522 15634 11788 12525 11262 8066 26999
internal_value=0 5.31699 2.87113 3.93639 5.68339 8.74196 4.17932 8.59074 -2.4619 14.4424 -6.45182 -8.48302 16.7073 -15.3749 1.86791 -7.5477 -2.7157 -7.16111 -23.1096 -0.78934
internal_weight=0 291448 283249 274895 238626 173481 163110 115285 65145 17087 47825 48058 61781 34061 31930 36269 24481 20539 15895 53504
internal_count=306750 291448 283249 274895 238626 173481 163110 115285 65145 17087 47825 48058 61781 34061 31930 36269 24481 20539 15895 53504
cat_boundaries=0 1 2 3 4 5 6 7 8
cat_threshold=2 1 1 1 2 1 1 1
is_linear=0
shrinkage=0.288339


Tree=14
num_leaves=21
num_cat=1
split_feature=1 3 3 2 4 2 4 4 2 9 4 1 0 2 2 2 3 2 4 3
split_gain=1.20223e+08 5.5022e+08 2.17697e+08 2.02894e+08 1.60247e+08 5.46706e+07 4.98898e+08 3.9619e+08 1.60749e+08 1.2138e+08 9.87505e+07 8.14907e+07 6.66578e+07 5.49176e+07 9.35459e+07 4.61717e+07 3.77076e+07 5.20856e+07 1.41962e+08 6.80203e+06
threshold=0.6345289540347262 0.085190740235699683 0.57677926072387209 -1.1238977849964231 -1.1848607354382616 0.1616075644414165 0.034074832804952888 0.012715589152514304 -0.22754845725707121 0 -0.20025169877706886 -0.20514851909765 1.3972385690636349 -0.057773667139751066 -0.43532722758893788 0.013972164667149914 0.31791336606344339 1.1958841100934856 0.97158934199842717 -0.053321051361940264
decision_type=2 2 2 2 2 2 2 2 2 9 2 2 2 2 2 2 2 2 2 2
left_child=2 -2 3 -1 -5 7 9 12 11 10 -7 -9 13 14 -6 19 17 18 -8 -10
right_child=1 -3 -4 4 5 6 16 8 15 -11 -12 -13 -14 -15 -16 -17 -18 -19 -20 -21
leaf_value=-37.796125191780938 21.674261015216938 -82.822680346305717 34.540377323349823 32.24294800700207 -10.565298553773868 67.497957335894597 -14.389229902941516 47.315191272024087 2.3529206973015251 10.63871038001137 24.884691716767914 9.88068412074084 -44.56640129586512 -1.2341384909725799 -34.300517626530898 -15.283395021014282 -28.12728197193152 12.363266499223061 24.162236628613609 14.078583506638918
leaf_weight=13511 9001 7745 13101 11054 31022 9885 68362 12346 7721 12014 8491 7987 8166 14468 24935 11202 7928 9777 8929 8821
leaf_count=13511 9001 7745 13101 11054 31022 9885 68362 12346 7721 12014 8491 7987 8166 14468 24935 11202 7928 9777 8929 8821
internal_value=0 -26.7777 -1.69227 -3.41546 -1.64169 -3.1351 1.13298 -7.35863 13.2486 33.2524 47.9535 32.6836 -19.9655 -17.0773 -21.1676 -1.03412 -9.15665 -7.41093 -9.92012 8.63477
internal_weight=0 16746 289720 276619 263108 252054 125386 126668 48077 30390 18376 20333 78591 70425 55957 27744 94996 87068 77291 16542
internal_count=306466 16746 289720 276619 263108 252054 125386 126668 48077 30390 18376 20333 78591 70425 55957 27744 94996 87068 77291 16542
cat_boundaries=0 1
cat_threshold=1
is_linear=0
shrinkage=0.288339


Tree=15
num_leaves=29
num_cat=4
split_feature=10 2 4 2 2 5 2 4 4 2 2 0 4 8 4 2 4 4 8 2 4 4 2 4 4 4 2 2
split_gain=1.25071e+08 9.6644e+07 1.23892e+08 3.97378e+07 9.28332e+07 7.29879e+07 5.51876e+07 1.20366e+08 1.03457e+08 1.88403e+08 1.60607e+08 5.28213e+07 3.51601e+07 3.96654e+07 2.90657e+07 2.31677e+07 1.43163e+08 6.30602e+07 2.20217e+07 1.62294e+07 8.66606e+07 5.24853e+07 1.33763e+07 2.06939e+07 4.64143e+06 4.48633e+06 2.69721e+07 2.10917e+07
threshold=0 -1.1755168983096389 -1.1848607354382616 -0.31409334677991713 -0.4476400436086041 1 0.1827998150907599 0.15524946874537274 0.44959026541941555 0.72515568226448901 0.70917269993148901 1.0000000180025095e-35 0.23120502300209334 2 -1.054517253442161 -0.6673764525748439 -0.37352205094304564 -0.57711210995204609 3 0.39460392912114312 0.21078350224181006 0.33279166964174028 0.8392860153699665 0.63244622937068296 0.61754685453020142 -0.12064944438466314 0.013972164667149914 -0.11353651661343155
decision_type=9 2 2 2 2 9 2 2 2 2 2 2 2 9 2 2 2 2 9 2 2 2 2 2 2 2 2 2
left_child=1 -1 -3 4 5 -4 7 11 9 12 -10 -5 13 -8 -2 16 -16 -17 -12 21 -21 25 23 -22 -23 27 -27 -19
right_child=14 2 3 6 -6 -7 8 -9 10 -11 18 -13 -14 -15 15 17 -18 19 -20 20 22 24 -24 -25 -26 26 -28 -29
leaf_value=31.075564380521666 -20.780289483958921 36.218300371392239 -12.041347736768287 -12.717515345928467 36.067368890005845 19.250005098472318 -3.3877011854078902 9.2623944577200596 12.579234732292266 48.456425849156233 -36.305074974869761 -40.324685817217436 -14.738860855790913 21.656230959817531 -25.341661909670052 12.797862967312387 25.1111825625505 -32.36571630085502 -15.853228444145861 16.035171139349611 -17.346136049328813 -4.1443500859587914 -20.019656920872738 2.9386742318337076 5.444470049425683 -7.1479920749225982 -26.45004932449476 -11.811115735315337
leaf_weight=10330 12482 8419 15329 14989 7983 10316 12081 15139 15196 9221 10294 9393 8122 9230 8240 11050 10650 8653 7860 11087 9004 8864 14408 7732 7863 12947 11294 8137
leaf_count=10330 12482 8419 15329 14989 7983 10316 12081 15139 15196 9221 10294 9393 8122 9230 8240 11050 10650 8653 7860 11087 9004 8864 14408 7732 7863 12947 11294 8137
internal_value=0 4.16153 2.33964 0.360397 9.03953 0.560955 -2.25994 -10.9092 2.49232 12.6355 -9.26524 -23.4265 1.33707 7.48874 -7.51775 -6.23453 3.09185 -7.82208 -27.5324 -10.1073 -5.79823 -13.2484 -13.5871 -7.99671 0.365636 -18.7912 -16.1846 -22.4826
internal_weight=0 163902 153572 145153 33628 25645 111525 39521 72004 38654 33350 24382 29433 21311 142411 129929 18890 111039 18154 99989 42231 57758 31144 16736 16727 41031 24241 16790
internal_count=306313 163902 153572 145153 33628 25645 111525 39521 72004 38654 33350 24382 29433 21311 142411 129929 18890 111039 18154 99989 42231 57758 31144 16736 16727 41031 24241 16790
cat_boundaries=0 1 2 3 4
cat_threshold=1 1 1 1
is_linear=0
shrinkage=0.288339


Tree=16
num_leaves=21
num_cat=2
split_feature=3 4 7 1 3 3 4 1 3 1 1 1 7 4 3 3 1 1 3 3
split_gain=6.24287e+07 1.12393e+08 1.29585e+08 5.51158e+07 2.3113e+08 5.35283e+07 1.03614e+08 9.80376e+07 6.2106e+07 4.62965e+08 1.38155e+08 1.24978e+08 1.21123e+08 1.17827e+08 9.72242e+07 7.73272e+07 5.55041e+07 4.33375e+07 3.40948e+07 5.28191e+07
threshold=-0.43719930425908576 -1.1848607354382616 0 -0.38095006680202032 -0.19078711220626923 -0.35895963062509212 -0.10304109230036064 0.15451017283671623 -0.025846852479409769 0.085421586164756078 -0.080713245708969664 -0.10971339320081526 1 0.21078350224181006 -0.14087723534370164 -0.069387278389992521 -0.29233850502111125 0.29268734618037168 -0.06168689738842778 -0.13859564097275287
decision_type=2 2 9 2 2 2 2 2 2 2 2 2 9 2 2 2 2 2 2 2
left_child=-1 2 -2 4 -3 -5 7 16 9 10 15 12 -10 -13 -12 -8 -7 -15 19 -18
right_child=1 3 -4 5 -6 6 8 -9 11 -11 14 13 -14 17 -16 -17 18 -19 -20 -21
leaf_value=16.228983187344291 -1.4221207700994285 -17.789150929196477 -51.029243606242503 12.14547855257605 43.595746373897491 9.8509928352361396 -22.521459781205788 -44.66844515528058 29.892139290677878 52.125589904068349 38.27671447714296 -38.734519344367712 -10.965407237551659 -4.1405939295154361 -3.3266101751797499 8.8434425181839167 -12.412124307067677 -24.493962196963608 1.3566308737795056 -36.585535216762949
leaf_weight=12171 8439 10814 9047 15018 9550 8906 31978 8184 13347 13734 7784 11719 10922 54749 11519 8174 30923 10290 8895 9923
leaf_count=12171 8439 10814 9047 15018 9550 8906 31978 8184 13347 13734 7784 11719 10922 54749 11519 8174 30923 10290 8895 9923
internal_value=0 -4.79676 -27.1757 -3.3755 11.041 -4.52437 -5.56578 -15.2124 -1.8612 4.53274 -6.50235 -6.49337 11.5224 -12.1942 13.5159 -16.1323 -11.0602 -7.38059 -14.8119 -18.3301
internal_weight=0 293915 17486 276429 20364 256065 241047 66831 174216 73189 59455 101027 24269 76758 19303 40152 58647 65039 49741 40846
internal_count=306086 293915 17486 276429 20364 256065 241047 66831 174216 73189 59455 101027 24269 76758 19303 40152 58647 65039 49741 40846
cat_boundaries=0 1 2
cat_threshold=1 1
is_linear=0
shrinkage=0.288339


Tree=17
num_leaves=20
num_cat=5
split_feature=6 7 1 3 10 3 1 1 3 1 1 10 1 3 3 10 1 1 3
split_gain=1.33805e+08 1.46402e+08 1.05438e+08 1.25797e+08 8.83443e+07 7.06773e+07 2.25862e+08 1.02781e+08 5.02967e+07 1.84015e+08 8.83584e+07 7.65557e+07 1.09566e+08 7.19156e+07 5.62003e+07 4.87699e+07 4.50766e+07 3.13218e+07 7.23556e+06
threshold=0 1 0.6345289540347262 0.62930346446971697 2 -0.38576836448261137 -0.22116494042480625 -0.39345993434756038 -0.098002274457864594 -0.24277289345810013 -0.31423077322580645 3 -0.11284086008728855 -0.0027457094745384557 0.08024728576550251 4 -0.013425321789864964 -0.097961699446002221 -0.10427665897781878
decision_type=9 9 2 2 9 2 2 2 2 2 2 9 2 2 2 9 2 2 2
left_child=1 4 3 5 17 6 -2 -7 10 -10 -9 12 -12 15 -15 -11 -13 -1 -3
right_child=2 18 -4 -5 -6 7 -8 8 9 13 11 16 -14 14 -16 -17 -18 -19 -20
leaf_value=53.693214502546823 -45.659300622020666 -0.32854670560640181 -26.518338550095748 30.962712813651688 9.6739718166654516 24.077911274199401 15.21443566020745 -21.928267201506586 28.828163774931603 -31.745586167514041 29.106085976982548 -8.7455204926483994 -0.93555871548007186 8.6741318368259623 -9.7362577286063718 -9.16611091426328 15.945702618611874 28.403736872063522 -12.142928557750079
leaf_weight=7737 11198 7700 13874 9927 14944 13176 9173 10276 11212 17170 21511 27688 18961 18760 51524 14900 7838 9158 9746
leaf_count=7737 11198 7700 13874 9927 14944 13176 9173 10276 11212 17170 21511 27688 18961 18760 51524 14900 7838 9158 9746
internal_value=0 14.2668 -2.12485 -0.727652 25.8832 -2.08326 -18.2832 -0.529262 -2.15849 -6.14418 3.08848 6.48592 15.0508 -9.98988 -4.8188 -21.2921 -3.27986 40.1348 -6.94833
internal_weight=0 49285 257188 243314 31839 233387 20371 213016 199840 113566 86274 75998 40472 102354 70284 32070 35526 16895 17446
internal_count=306473 49285 257188 243314 31839 233387 20371 213016 199840 113566 86274 75998 40472 102354 70284 32070 35526 16895 17446
cat_boundaries=0 1 2 3 4 5
cat_threshold=2 1 1 1 1
is_linear=0
shrinkage=0.288339


Tree=18
num_leaves=33
num_cat=2
split_feature=0 1 3 0 4 2 2 3 3 1 7 1 3 2 4 2 3 3 4 0 4 4 3 3 10 1 2 4 4 1 1 3
split_gain=1.7435e+08 6.94589e+08 1.68836e+08 1.89929e+08 1.25323e+08 3.09618e+08 1.19692e+08 1.12001e+08 9.51953e+07 1.96142e+08 1.36239e+08 1.02952e+08 1.45607e+08 7.99827e+07 7.6657e+07 7.35971e+07 7.18726e+07 6.79018e+07 5.63265e+07 4.87715e+07 9.11006e+07 8.23911e+07 5.46768e+07 4.31044e+07 4.24529e+07 3.5516e+07 2.22525e+07 1.04031e+08 7.74066e+07 1.64728e+08 5.68537e+07 1.51793e+07
threshold=1.0000000180025095e-35 0.29268734618037168 0.15373363779362584 0.63618785853518356 0.78300284926235919 0.58864917389261306 0.82519731242449723 -0.016055009971134602 -0.046096002520882862 -0.097961699446002221 0 -0.24836442516397297 -0.15732372810023063 -0.38950934490048267 -0.18378945244992059 0.028534437459639721 -0.22843341932555158 0.23216344429194632 1.1195411760786367 2.1582892795920867 -0.61618389712114097 -0.14013324225288812 -0.20980039863001596 -0.055697712164919672 1 -0.36663953650371311 0.11448736467373759 -0.034170555450205566 -0.038650787045692157 -0.013425321789864964 -0.047069283749549704 -0.22843341932555158
decision_type=2 2 2 2 2 2 2 2 2 2 9 2 2 2 2 2 2 2 2 2 2 2 2 2 9 2 2 2 2 2 2 2
left_child=4 2 19 -4 6 -6 8 -8 11 10 -10 12 14 16 25 -11 -13 24 -7 20 -2 -21 -22 -24 -17 -1 27 31 29 -28 -30 -15
right_child=1 -3 3 -5 5 18 7 -9 9 15 -12 13 -14 26 -16 17 -18 -19 -20 21 22 -23 23 -25 -26 -27 28 -29 30 -31 -32 -33
leaf_value=-4.4252160614912954 -23.647540131049471 91.892103964953776 -2.1788673511873058 59.449412774379638 47.959699716291098 4.1381339516249565 -6.8787753659546249 40.571139128266495 20.890980687067454 -53.497472271762504 -21.982531010354382 39.866784367053157 16.637610776732032 -13.928625347015943 -50.272158083519905 -47.758842442111252 2.0155611457984848 -1.8534806228917799 -29.308355033425649 6.1181399569372603 25.650877674302201 -32.054093469516324 -10.096195528272286 13.489431524445239 -20.324439091873266 -28.842729604690344 44.382432204345612 17.440636065412178 -27.346489645350019 -12.882886206133261 6.1646560206776471 -31.895985929118734
leaf_weight=9704 9485 7956 8250 8312 12318 8544 8367 8089 13595 9484 11170 7716 8343 7834 8078 8953 9012 8137 8122 8125 10355 11040 13770 12000 10113 10113 8258 7767 9140 8345 7724 8092
leaf_count=9704 9485 7956 8250 8312 12318 8544 8367 8089 13595 9484 11170 7716 8343 7834 8078 8953 9012 8137 8122 8125 10355 11040 13770 12000 10113 10113 8258 7767 9140 8345 7724 8092
internal_value=0 10.9115 2.92832 28.8527 -4.22127 13.4089 -6.94231 16.5072 -9.19641 -18.283 1.54635 -4.11863 -16.6937 2.05711 -26.6775 -31.6496 19.5559 -23.9311 -12.2075 -3.7205 1.41178 -15.9016 8.02006 0.891899 -33.3172 -16.9361 -3.07883 -9.82869 1.70835 15.6561 -12.0295 -23.1442
internal_weight=0 89293 81337 16562 217018 28984 188034 16456 171578 61452 24765 110126 36238 73888 27895 36687 16728 27203 16666 64775 45610 19165 36125 25770 19066 19817 57160 23693 33467 16603 16864 15926
internal_count=306311 89293 81337 16562 217018 28984 188034 16456 171578 61452 24765 110126 36238 73888 27895 36687 16728 27203 16666 64775 45610 19165 36125 25770 19066 19817 57160 23693 33467 16603 16864 15926
cat_boundaries=0 1 2
cat_threshold=1 1
is_linear=0
shrinkage=0.288339


Tree=19
num_leaves=20
num_cat=0
split_feature=3 1 2 4 0 4 2 2 1 3 4 2 3 3 1 1 4 2 1
split_gain=1.38557e+08 2.12502e+08 1.09149e+08 9.20032e+07 8.99944e+07 6.83874e+07 1.82493e+08 1.47724e+08 6.26551e+07 9.85396e+07 1.20599e+08 5.1992e+07 5.75413e+07 1.04639e+08 5.02448e+07 3.46441e+07 3.23538e+07 5.11926e+07 2.97697e+07
threshold=0.62930346446971697 -0.018448223152846971 -1.7884346726732139 -1.5195236164707133 1.0000000180025095e-35 0.91720141425894997 0.64086024951457699 1.0070481336380286 -0.11284086008728855 -0.16882676638673952 -0.42103334414056809 0.10525275265909821 -0.036209093580488523 0.18348943104692803 -0.23699181830439106 0.29268734618037168 0.49189198699439196 0.63008653549736915 0.094045813033272363
decision_type=2 2 2 2 2 2 2 2 2 2 2 2 2 2 2 2 2 2 2
left_child=2 -2 -1 -4 5 7 -7 15 9 10 -6 -10 -13 -14 -11 16 17 -5 -18
right_child=1 -3 3 4 8 6 -8 -9 11 14 -12 12 13 -15 -16 -17 18 -19 -20
leaf_value=34.435063079953444 8.2861906572943944 -57.564599088223801 30.711342876953861 -6.8191694383037111 24.659100691637132 46.133295746291715 -10.766492061842124 29.887542935784825 -21.630405142019509 47.523639023398289 -20.020183629258977 18.364141078379191 -25.277129092627511 18.416899136390743 17.585888857235108 -26.476275866740647 -9.6010818008444385 13.698723700730962 -31.320161884455686
leaf_weight=7866 7748 8501 7888 124127 9595 7782 11602 9050 7794 8105 10409 14051 10315 8069 11144 7833 16417 10950 7716
leaf_count=7866 7748 8501 7888 124127 9595 7782 11602 9050 7794 8105 10409 14051 10315 8069 11144 7833 16417 10950 7716
internal_value=0 -26.2492 1.06287 0.127624 -0.756215 -4.08245 12.1479 -5.87267 7.421 15.6073 1.41935 -0.577667 4.51138 -6.10089 30.3008 -7.82019 -6.89261 -5.15044 -16.6063
internal_weight=0 16249 290713 282847 274959 195477 19384 176093 79482 39253 20004 40229 32435 18384 19249 167043 159210 135077 24133
internal_count=306962 16249 290713 282847 274959 195477 19384 176093 79482 39253 20004 40229 32435 18384 19249 167043 159210 135077 24133
is_linear=0
shrinkage=0.288339


Tree=20
num_leaves=20
num_cat=1
split_feature=1 3 3 2 1 1 3 1 1 3 2 3 9 1 1 3 3 2 1
split_gain=2.53642e+08 8.7319e+08 2.20349e+08 1.18521e+08 3.2668e+07 5.13065e+07 4.85065e+07 2.40761e+08 7.17915e+07 1.61957e+08 1.64937e+08 6.47665e+07 6.32726e+07 5.48653e+07 4.86791e+07 4.09494e+07 3.86184e+07 3.07793e+07 3.04943e+07
threshold=0.42584161816148641 0.2485148706163561 0.62930346446971697 -1.2229922754625007 -0.40881295360799602 -0.36663953650371311 -0.16302771402738123 -0.21121390942276033 -0.034369872756261639 0.053913884068490653 -0.23725663911884134 -0.10427665897781878 0 0.22340921606092837 -0.20514851909765 -0.22843341932555158 -0.23261634233870684 -0.4913268619860735 -0.10734410010506903
decision_type=2 2 2 2 2 2 2 2 2 2 2 2 9 2 2 2 2 2 2
left_child=2 -2 3 -1 -5 -6 7 16 9 14 -11 -10 15 -13 -8 -9 17 -7 -14
right_child=1 -3 -4 4 5 6 8 12 11 10 -12 13 18 -15 -16 -17 -18 -19 -20
leaf_value=-30.651688749673909 87.084713347428419 -38.509186736398156 40.542801158527084 -14.130775011694904 21.17764698602187 -6.8491572950558419 6.7264912635205407 34.289161450692554 15.838372242949189 -10.80286550501253 37.624209191501066 -16.106920460253576 -6.3739774560559219 2.6509758250717192 -10.971167289941722 13.130319933908488 1.7637435110113127 -29.47295371666517 15.554399646979798
leaf_weight=10033 11250 7714 11565 11040 10868 8209 19704 19927 8143 8533 18361 50457 9347 17417 37298 12460 9047 12919 11957
leaf_count=10033 11250 7714 11565 11040 10868 8209 19704 19927 8143 8533 18361 50457 9347 17417 37298 12460 9047 12919 11957
internal_value=0 36.0357 1.65664 0.0170491 1.18189 1.84899 0.98223 6.59609 -1.96323 3.85099 22.2688 -8.37824 18.1708 -11.2952 -4.85269 26.1887 -13.9938 -20.7277 5.9419
internal_weight=0 18964 287285 275720 265687 254647 243779 83866 159913 83896 26894 76017 53691 67874 57002 32387 30175 21128 21304
internal_count=306249 18964 287285 275720 265687 254647 243779 83866 159913 83896 26894 76017 53691 67874 57002 32387 30175 21128 21304
cat_boundaries=0 1
cat_threshold=1
is_linear=0
shrinkage=0.288339


Tree=21
num_leaves=14
num_cat=1
split_feature=2 1 4 2 3 2 4 4 3 1 2 2 10
split_gain=3.93374e+08 1.65228e+08 7.87507e+07 1.33238e+08 5.79994e+07 3.75976e+07 8.22408e+07 4.22024e+07 1.2266e+08 1.12694e+08 9.83593e+07 3.6869e+07 2.54497e+07
threshold=-2.0410841859998254 0.6345289540347262 1.4726980363711264 1.1958841100934856 0.51850353783499414 -0.8678148902798225 -0.68911789983688199 0.27058938446863812 0.062659995823543424 -0.15766788545898378 0.20221617881385909 0.1827998150907599 0
decision_type=2 2 2 2 2 2 2 2 2 2 2 2 9
left_child=-1 2 3 4 5 6 -2 8 11 12 -11 -7 -9
right_child=1 -3 -4 -5 -6 7 -8 9 -10 10 -12 -13 -14
leaf_value=61.073835679581926 -28.724145076701973 -37.803713241630092 -27.176690622237228 31.98355003587028 19.744832389368653 -2.5918748978383936 3.2548560909257405 -35.211201752940916 33.426242378058191 24.333318733737766 -4.7644641590727739 7.5328538981507727 -13.650684572020433
leaf_weight=8656 12248 9785 8428 11032 11466 92127 14612 9638 10172 11737 53217 44198 8813
leaf_count=8656 12248 9785 8428 11032 11466 92127 14612 9638 10172 11737 53217 44198 8813
internal_value=0 -1.07283 0.184053 1.01551 -0.264999 -1.16302 -11.3584 0.0307155 2.97815 -5.14457 0.510804 0.692433 -24.9914
internal_weight=0 297473 287688 279260 268228 256762 26860 229902 146497 83405 64954 136325 18451
internal_count=306129 297473 287688 279260 268228 256762 26860 229902 146497 83405 64954 136325 18451
cat_boundaries=0 1
cat_threshold=1
is_linear=0
shrinkage=0.288339


Tree=22
num_leaves=25
num_cat=3
split_feature=3 3 3 3 5 2 2 4 3 0 4 4 4 3 3 4 9 8 3 0 2 4 3 4
split_gain=1.15376e+08 9.14909e+07 1.99857e+08 5.79132e+08 9.52156e+07 9.62187e+07 1.01457e+08 1.1783e+08 6.7039e+07 5.5687e+07 5.51686e+07 7.53448e+07 4.53948e+07 1.44564e+08 5.03309e+07 4.3616e+07 3.46034e+07 3.46003e+07 2.9678e+07 2.50982e+07 3.05144e+07 1.73422e+07 1.15212e+07 6.99255e+06
threshold=0.67517301796748519 -0.21693038103886567 -0.14306376328244272 -0.15998558819974465 0 1.1958841100934856 0.49452716681931352 0.83957879708301464 -0.43719930425908576 1.0000000180025095e-35 0.79477648112921606 0.41281068976404672 0.36571616229632797 0.075493964159543694 0.17826077728046189 -0.028752600962951808 1 2 -0.31874652983868057 1.0000000180025095e-35 -0.28058828011101783 -0.61618389712114097 -0.0055977024382022822 -0.47469193185279185
decision_type=2 2 2 2 9 2 2 2 2 2 2 2 2 2 2 2 9 9 2 2 2 2 2 2
left_child=1 8 3 15 9 6 7 12 -1 16 11 22 13 -6 -14 23 -4 -10 21 20 -20 -19 -8 -3
right_child=-2 2 4 -5 5 -7 10 -9 17 -11 -12 -13 14 -15 -16 -17 -18 18 19 -21 -22 -23 -24 -25
leaf_value=16.681360250649167 -20.374058392931094 -7.7887783417265641 6.8600922597705738 92.954773067388501 4.0050852377715769 35.97083808141538 -7.5401133249517258 41.631790396527428 5.8834157362954347 -27.016845776285184 10.038877650338547 -28.860082979267141 8.7816881037863368 38.55037032437707 -20.126411060827699 21.562656456490394 -15.048778403544038 -27.80636460281784 -11.397602234954086 -16.802846278788053 10.819856925981975 -11.525989134715935 7.7478628413598738 3.9016262681198342
leaf_weight=12196 15224 7826 15282 8606 45174 9327 7819 9449 14706 10098 12604 13191 11138 12908 9001 11334 9777 8598 8740 8671 12297 15100 8481 9179
leaf_count=12196 15224 7826 15282 8606 45174 9327 7819 9449 14706 10098 12604 13191 11138 12908 9001 11334 9777 8598 8740 8671 12297 15100 8481 9179
internal_value=0 5.32744 8.47679 27.7225 4.38802 7.77647 5.73417 11.3184 -2.95471 -9.00771 -5.8952 -12.7122 7.62731 11.7145 -4.1593 7.75766 -1.70281 -6.4825 -9.89066 -3.80622 1.58258 -17.4887 0.412685 -1.48613
internal_weight=0 291502 211194 36945 174249 139092 129765 87670 80308 35157 42095 29491 78221 58082 20139 28339 25059 68112 53406 29708 21037 23698 16300 17005
internal_count=306726 291502 211194 36945 174249 139092 129765 87670 80308 35157 42095 29491 78221 58082 20139 28339 25059 68112 53406 29708 21037 23698 16300 17005
cat_boundaries=0 1 2 3
cat_threshold=2 1 2
is_linear=0
shrinkage=0.288339


Tree=23
num_leaves=30
num_cat=7
split_feature=9 3 5 10 2 4 5 2 4 2 4 4 3 3 3 3 4 3 10 4 2 2 2 7 4 2 7 2 2
split_gain=6.51e+07 1.42708e+08 6.15634e+07 9.41198e+07 8.72047e+07 1.2305e+08 1.39353e+08 1.18702e+08 6.9006e+07 6.30702e+07 4.87918e+07 7.88914e+07 4.46586e+07 5.75053e+07 4.27138e+07 3.49085e+07 3.33471e+07 5.74854e+07 6.44207e+07 2.92717e+07 2.6692e+07 2.3059e+07 1.46279e+07 1.40319e+07 1.3182e+07 2.17976e+07 8.33475e+06 5.12304e+06 4.82006e+06
threshold=0 0.47344204901032738 1 2 0.56627299862621461 -0.2087953962380443 3 -0.15177728175143321 0.62348576617990381 -0.36831709425113929 0.97158934199842717 0.28236301633568911 -0.23042981439978868 -0.11720569374584969 -0.033642299913270758 -0.16882676638673952 0.58014213028032113 -0.22263436696619329 4 0.38728378881366837 -0.28804700519996429 0.27289647846532233 0.31255795314394447 5 -0.60253481947007048 -0.26614439978014531 6 0.72515568226448901 0.39460392912114312
decision_type=9 2 9 9 2 2 9 2 2 2 2 2 2 2 2 2 2 2 9 2 2 2 2 9 2 2 9 2 2
left_child=2 10 16 4 5 9 7 -7 -6 -4 11 12 20 15 -15 -14 17 -1 -19 -13 -2 -9 -21 24 -5 -26 -25 -24 -27
right_child=1 -3 3 23 8 6 -8 21 -10 -11 -12 19 13 14 -16 -17 -18 18 -20 22 -22 -23 27 26 25 28 -28 -29 -30
leaf_value=4.6387618198134621 10.192024370247802 -43.9265964517447 -13.385600522743122 9.6119254936680676 9.1535514134337337 42.67195464946186 58.345011132447816 -8.4260741714200407 -26.088331397895995 15.719227518553401 -25.02930963030818 23.854165328775711 -15.47324193342061 8.0314054381918343 -15.266251653225048 -40.514848195763449 7.1625507674335713 -37.355283517041975 -4.9763450882027538 13.376844494299293 -7.6999091426206343 13.098331371046404 -6.7790683691423901 -4.256330557893186 9.9699225458994896 -11.105743129480839 -15.04453832603442 3.6739873632625568 -3.5448839285058988
leaf_weight=9584 13032 8348 13037 7706 10188 9033 8749 8796 8357 11678 9234 7945 11268 11451 15113 7954 7954 10991 9542 8336 14674 7708 7749 11583 7783 13621 12346 7727 14563
leaf_count=9584 13032 8348 13037 7706 10188 9033 8749 8796 8357 11678 9234 7945 11268 11451 15113 7954 7954 10991 9542 8336 14674 7708 7749 11583 7783 13621 12346 7727 14563
internal_value=0 -7.66699 0.910733 3.6181 10.4701 15.8873 27.0517 16.2184 -6.75977 0.370804 -5.00122 -3.23066 -8.4183 -13.9416 -5.22727 -25.9299 -9.40035 -13.7807 -22.3673 8.76734 0.719193 1.63681 3.68564 -4.24385 -1.16433 -3.48573 -9.84674 -1.56501 -7.2153
internal_weight=0 122831 183219 145148 77546 59001 34286 25537 18545 24715 114483 105249 73492 45786 26564 19222 38071 30117 20533 31757 27706 16504 23812 67602 43673 35967 23929 15476 28184
internal_count=306050 122831 183219 145148 77546 59001 34286 25537 18545 24715 114483 105249 73492 45786 26564 19222 38071 30117 20533 31757 27706 16504 23812 67602 43673 35967 23929 15476 28184
cat_boundaries=0 1 2 3 4 5 6 7
cat_threshold=1 2 1 1 1 1 2
is_linear=0
shrinkage=0.288339


Tree=24
num_leaves=24
num_cat=3
split_feature=0 4 4 2 1 2 2 4 2 4 1 4 6 1 4 1 2 8 4 4 9 2 4
split_gain=9.08109e+07 9.23735e+07 7.21914e+08 1.72764e+08 1.69918e+08 9.22366e+07 8.58043e+07 9.85016e+07 7.33742e+07 1.50894e+08 8.52319e+07 6.37739e+07 6.17465e+07 5.86193e+07 6.29439e+07 3.98722e+07 6.34492e+07 3.92325e+07 4.75217e+07 3.8082e+07 5.14855e+07 3.12149e+07 3.02048e+07
threshold=1.3972385690636349 -0.57711210995204609 -0.67536463075316644 -0.99117983539982923 -0.047069283749549704 -0.97590720783697404 -0.28058828011101783 -0.91021211949763692 1.0855423357632901 0.88250566725298774 -0.0026213452732621492 0.88250566725298774 0 -0.17520065436741764 0.034074832804952888 -0.34578975726123451 -0.68335943490817475 1 0.034074832804952888 0.18046379539859239 2 -0.18765019765499397 -0.034170555450205566
decision_type=2 2 2 2 2 2 2 2 2 2 2 2 9 2 2 2 2 9 2 2 9 2 2
left_child=1 2 3 -1 6 -3 7 -5 10 -10 15 12 -12 -2 -15 -7 -17 18 -18 22 -21 -19 -14
right_child=13 5 -4 4 -6 8 -8 -9 9 -11 11 -13 19 14 -16 16 17 21 -20 20 -22 -23 -24
leaf_value=-31.569388221069417 0.66041967100203902 22.019594357504044 92.237373747481655 26.143806819243039 -27.377565520167543 -21.31884753865608 38.831521602408287 -17.90851265850409 6.3987813122311223 -49.041137828777785 24.869941054193905 30.255010406255657 -0.86148760029792026 -44.892243144367242 -12.27757546444343 18.555979070130618 -11.976612477161648 -19.192947199668492 14.694875316662335 15.352040909692892 -9.5121790345495025 -6.3481789168056988 -24.976090677948811
leaf_weight=12439 11505 12095 7723 9117 8664 13484 10752 7756 7844 8421 8849 8089 9358 8027 12737 8883 9338 21269 13525 16753 11718 60381 7968
leaf_count=12439 11505 12095 7723 9117 8664 13484 10752 7756 7844 8421 8849 8089 9358 8027 12737 8883 9338 21269 13525 16753 11718 60381 7968
internal_value=0 0.303554 10.6924 -2.32911 7.72893 -2.38907 18.7753 5.90175 -3.82909 -22.3784 -2.2313 6.45844 2.90636 -15.8533 -24.9795 -6.52902 -4.75988 -6.75124 3.7979 -1.36417 5.11952 -9.70592 -12.0002
internal_weight=0 274426 56451 48728 36289 217975 27625 16873 205880 16265 189615 62735 54646 32269 20764 126880 113396 104513 22863 45797 28471 81650 17326
internal_count=306695 274426 56451 48728 36289 217975 27625 16873 205880 16265 189615 62735 54646 32269 20764 126880 113396 104513 22863 45797 28471 81650 17326
cat_boundaries=0 1 2 3
cat_threshold=2 2 1
is_linear=0
shrinkage=0.288339


Tree=25
num_leaves=19
num_cat=2
split_feature=1 4 3 4 3 3 5 3 1 6 4 4 1 2 3 3 4 4
split_gain=1.10113e+08 7.11111e+08 1.27797e+08 1.04954e+08 6.51526e+07 7.67478e+07 5.37778e+07 4.19193e+07 7.14779e+07 5.48875e+07 5.37969e+07 5.28425e+07 3.87824e+07 3.74779e+07 7.84525e+07 4.07767e+07 3.43593e+07 7.00451e+06
threshold=0.33940980602866383 0.12482557046989819 0.57677926072387209 -1.0972357407470381 0.27836573030195461 0.23216344429194632 0 -0.028318579714419815 -0.1832562508929548 1 0.63244622937068296 -0.14878113114641148 0.05708484073954289 -0.17877076302531675 -0.16882676638673952 -0.036209093580488523 -1.5195236164707133 -0.25057616065096017
decision_type=2 2 2 2 2 2 9 2 2 9 2 2 2 2 2 2 2 2
left_child=2 -2 3 16 5 6 13 9 -9 11 -10 -8 -11 17 -15 -16 -1 -5
right_child=1 -3 -4 4 -6 -7 7 8 10 12 -12 -13 -14 14 15 -17 -18 -19
leaf_value=-10.878678831389365 -29.438424824145098 72.647412741123162 27.501455547335759 -9.6118766930083535 -19.656703288762532 23.896323499583293 -2.2563966411760061 11.096142427634833 -22.322677800103026 -5.2824254839057438 -1.327128637800278 27.254377165567121 12.017744585381063 35.280276691691135 -10.975489047106313 14.792359387900492 -36.297621533530418 2.412728547980953
leaf_weight=8482 11858 10774 11914 8274 15262 10396 9683 10591 29747 94061 15397 10450 12108 9341 9047 11566 9347 7754
leaf_count=8482 11858 10774 11914 8274 15262 10396 9683 10591 29747 94061 15397 10450 12108 9341 9047 11566 9347 7754
internal_value=0 19.2227 -1.65144 -2.93655 -1.43086 -0.259431 -1.36682 -3.59257 -10.1748 -0.684394 -15.1734 13.0959 -3.30363 7.43755 13.4501 3.48318 -24.2826 -3.80643
internal_weight=0 22632 283420 271506 253677 238415 228019 182037 55735 126302 45144 20133 106169 45982 29954 20613 17829 16028
internal_count=306052 22632 283420 271506 253677 238415 228019 182037 55735 126302 45144 20133 106169 45982 29954 20613 17829 16028
cat_boundaries=0 1 2
cat_threshold=2 2
is_linear=0
shrinkage=0.288339


Tree=26
num_leaves=31
num_cat=5
split_feature=8 4 6 2 4 2 7 4 10 3 10 2 4 3 3 4 0 3 2 0 2 3 4 4 4 3 4 3 3 4
split_gain=9.40694e+07 1.81512e+08 4.97938e+08 7.09811e+07 1.3884e+08 6.72688e+07 8.86289e+07 6.31844e+07 7.94331e+07 5.80855e+07 1.14221e+08 4.69229e+07 1.18169e+08 9.79788e+07 9.34378e+07 5.47358e+07 5.42894e+07 4.63321e+07 4.25513e+07 3.83421e+07 3.42956e+07 3.35146e+07 2.66094e+07 2.60339e+07 3.68083e+07 2.0411e+07 1.8193e+07 1.39364e+07 1.58415e+07 7.28567e+06
threshold=0 -0.64645150824823017 1 0.5048273109896112 0.16118838039526925 -0.46314945609480412 2 0.74257657347130523 3 0.10648562103057226 4 -0.22754845725707121 0.13024352495715194 0.015792244788789472 -0.055697712164919672 -0.3346586466387555 1.0000000180025095e-35 0.033189401866333131 0.30533601297867358 1.0000000180025095e-35 -0.26614439978014531 -0.093819351444620849 -0.68911789983688199 -0.18378945244992059 0.34883715023927891 0.14926551548402453 -0.34257719550502541 -0.18042487110510194 -0.038966020111856098 0.50220693880713008
decision_type=9 2 9 2 2 2 9 2 9 2 9 2 2 2 2 2 2 2 2 2 2 2 2 2 2 2 2 2 2 2
left_child=1 2 20 5 -5 6 -3 11 -9 29 -11 13 14 15 18 22 17 -14 26 23 -1 -21 -2 -7 27 -26 -13 -25 -29 -6
right_child=7 3 -4 4 9 19 -8 8 -10 10 -12 12 16 -15 -16 -17 -18 -19 -20 21 -22 -23 -24 24 25 -27 -28 28 -30 -31
leaf_value=-8.4131873556801704 -9.0859475380424275 24.411453200644395 77.686945922621362 42.80594845177167 -3.3429514883360065 8.1934219846674257 -10.716995657890461 26.991995391925933 -9.5973442915547231 35.435725523427728 -11.519497740044025 1.4251765152600679 -20.16765365246777 -42.77528929142013 32.805950999320423 5.000590447979457 -32.907326285034131 4.6835277224706529 14.740579181729391 -29.707777298073101 14.880932215186711 -6.7049983250751257 -31.118187214526493 -24.058698694175284 14.089410927451148 -6.3313209009885805 -17.388365816908593 -0.25285597461606202 -17.972557433642294 -15.437645261984059
leaf_weight=13605 10868 14192 10097 8803 7772 12020 10230 10661 9092 9357 7895 7763 12413 8442 9585 14802 9973 12438 9925 10408 8478 10692 7885 7851 7877 8298 9420 8218 8515 8915
leaf_count=13605 10868 14192 10097 8803 7772 12020 10230 10661 9092 9357 7895 7763 12413 8442 9585 14802 9973 12438 9925 10408 8478 10692 7885 7851 7877 8298 9420 8218 8515 8915
internal_value=0 5.33063 24.8497 0.868445 10.6697 -3.39699 9.7059 -4.85727 10.1717 2.27308 13.9814 -7.47664 -2.97919 -15.1199 8.43251 -8.09777 -14.9976 -7.74766 -0.23848 -7.73294 0.545219 -18.1043 -18.4202 -3.57054 -7.04707 3.62772 -8.91249 -14.0629 -9.30282 -9.83754
internal_weight=0 173223 32180 141043 42742 98301 24422 133267 19753 33939 17252 113514 71517 41997 36693 33555 34824 24851 27108 73879 22083 21100 18753 52779 40759 16175 17183 24584 16733 16687
internal_count=306490 173223 32180 141043 42742 98301 24422 133267 19753 33939 17252 113514 71517 41997 36693 33555 34824 24851 27108 73879 22083 21100 18753 52779 40759 16175 17183 24584 16733 16687
cat_boundaries=0 1 2 3 4 5
cat_threshold=1 1 1 1 1
is_linear=0
shrinkage=0.288339


Tree=27
num_leaves=26
num_cat=5
split_feature=1 3 6 4 5 9 1 1 5 3 4 4 3 3 1 4 4 1 3 4 3 1 1 10 3
split_gain=2.44059e+08 5.60459e+07 5.96581e+07 9.76795e+07 7.98672e+07 5.53539e+07 1.93168e+08 5.46678e+07 4.53355e+07 3.07143e+07 8.07067e+07 2.54186e+07 2.50753e+07 7.56339e+07 5.75622e+07 5.62736e+07 4.68067e+07 3.8207e+07 3.81337e+07 6.57176e+07 3.77375e+07 1.88405e+07 2.8271e+07 2.98121e+07 1.61511e+07
threshold=1.3706209330212538 1.2515607959057859 0 -0.99856645421601697 1 2 -0.15330838616272244 0.15451017283671623 3 -0.067390883315578354 0.49189198699439196 -0.46312668285073971 -0.067390883315578354 -0.023280058812280544 -0.031337177593706467 0.24672954643737743 -0.080639934323509896 0.0092251202056455352 -0.13374725293476344 -0.75673813949752888 0.070740642553584879 0.0985948557769286 -0.18903732604657561 4 -0.1713935600540458
decision_type=2 2 9 2 9 9 2 2 9 2 2 2 2 2 2 2 2 2 2 2 2 2 2 9 2
left_child=1 2 4 -4 21 6 -6 8 -5 11 -11 -10 14 -14 18 20 -16 -17 19 -7 -15 22 -1 -24 -13
right_child=-2 -3 3 7 5 12 -8 -9 9 10 -12 24 13 15 16 17 -18 -19 -20 -21 -22 -23 23 -25 -26
leaf_value=-2.9189272310985079 49.794094672742737 23.878615467357385 -37.567173384726154 13.364752186266662 48.270486449364746 17.344612514900327 -5.7948884581304476 -20.379874028748443 2.9610718956917697 18.677483505366297 -15.522386337324866 -8.6205910677490056 -24.056043510791902 3.6425396732461861 5.237062927795594 -13.725182265897631 36.066440194262022 4.9714067874695083 16.697701586153613 -8.0269860947837834 31.551282767405425 2.85427185164066 -31.310525411872305 -7.5344948123178748 -23.969760394246002
leaf_weight=13567 8289 7772 7837 14886 9814 11199 12360 14080 8743 12843 10271 13389 10303 8411 7881 16324 8518 20352 11588 34428 7704 7946 9545 8161 10016
leaf_count=13567 8289 7772 7837 14886 9814 11199 12360 14080 8743 12843 10271 13389 10303 8411 7881 16324 8518 20352 11588 34428 7704 7946 9545 8161 10016
internal_value=0 -0.190322 -0.839854 -6.90216 1.97869 4.85543 18.199 -4.02405 -0.726321 -4.53269 3.47887 -10.2891 2.68398 -1.53341 6.29717 2.88429 21.3245 -3.35863 1.97194 -1.78469 17.0531 -9.66466 -12.8454 -20.415 -15.2343
internal_weight=0 297938 290166 92065 198101 158882 22174 84228 70148 55262 23114 32148 136708 63094 73614 52791 16399 36676 57215 45627 16115 39219 31273 17706 23405
internal_count=306227 297938 290166 92065 198101 158882 22174 84228 70148 55262 23114 32148 136708 63094 73614 52791 16399 36676 57215 45627 16115 39219 31273 17706 23405
cat_boundaries=0 1 2 3 4 5
cat_threshold=1 2 2 2 1
is_linear=0
shrinkage=0.288339


Tree=28
num_leaves=27
num_cat=2
split_feature=1 4 6 3 2 3 1 10 1 3 3 1 3 3 1 2 2 1 2 2 2 4 2 2 3 1
split_gain=1.91446e+08 8.73501e+07 2.26952e+08 4.36286e+08 9.21798e+07 5.12383e+07 4.51302e+07 4.37059e+07 3.88725e+07 5.1256e+07 3.62115e+07 3.20404e+07 8.4321e+07 5.43564e+07 1.10701e+08 9.85888e+07 6.49416e+07 9.86397e+07 6.33803e+07 5.76117e+07 4.36648e+07 2.86497e+07 2.66018e+07 2.6343e+07 1.53354e+07 1.49598e+07
threshold=0.6345289540347262 -0.3346586466387555 0 -0.15238027363012199 -0.8678148902798225 0.38902305728858727 0.22340921606092837 1 -0.24277289345810013 -0.21693038103886567 0.049540828191097078 0.018797064312283784 -0.098002274457864594 -0.12395541042648828 -0.18126604469252797 0.3319743168673745 -0.4913268619860735 -0.24277289345810013 -0.11353651661343155 -0.33126025373030293 0.3624011795314675 0.80925909023989395 0.68525742266252199 0.8118189642492829 -0.2208281047560175 -0.25556707617521801
decision_type=2 2 9 2 2 2 2 9 2 2 2 2 2 2 2 2 2 2 2 2 2 2 2 2 2 2
left_child=1 2 4 7 -1 6 11 -4 -6 -10 -2 13 -13 14 19 24 -15 -18 -19 -3 -14 22 -22 -8 -16 -21
right_child=10 5 3 -5 8 -7 23 -9 9 -11 -12 12 20 16 15 -17 17 18 -20 25 21 -23 -24 -25 -26 -27
leaf_value=-22.59441340483308 -17.813624270281821 -4.7110526624731994 19.208451302942553 86.503073575100615 17.828751750769424 -19.282374831969694 24.928746874180369 -9.5397349966930456 10.652199174413843 -13.636808429084274 -44.802034820594592 15.918126495521825 -32.888633391054142 -14.204967874767767 29.269935619918265 -17.603458450747588 36.560975869571287 -17.133141868865458 8.2824940328675716 -21.549047227861667 -12.989919498158024 -23.106469037687464 9.5818908326315402 2.8568761253782817 11.405024031944164 -39.16184602284563
leaf_weight=13177 8706 12827 9221 8052 13319 13846 7901 8302 15031 13795 8051 8750 9008 12739 7841 8856 8790 9850 46108 8353 9602 8669 7825 10373 8345 8290
leaf_count=13177 8706 12827 9221 8052 13319 13846 7901 8302 15031 13795 8051 8750 9008 12739 7841 8856 8790 9850 46108 8353 9602 8669 7825 10373 8345 8290
internal_value=0 0.752572 8.78835 31.2157 -1.60201 -2.37473 -1.16315 5.60132 4.98389 -0.975255 -30.8948 -2.58173 -9.3284 -0.336961 -7.30871 6.77908 4.56933 8.27307 3.79489 -19.2697 -15.6382 -9.62119 -2.85589 12.4511 20.1364 -30.4321
internal_weight=0 288870 80897 25575 55322 207973 194127 17523 42145 28826 16757 175853 43854 131999 54512 25042 77487 64748 55958 29470 35104 26096 17427 18274 16186 16643
internal_count=305627 288870 80897 25575 55322 207973 194127 17523 42145 28826 16757 175853 43854 131999 54512 25042 77487 64748 55958 29470 35104 26096 17427 18274 16186 16643
cat_boundaries=0 1 2
cat_threshold=1 1
is_linear=0
shrinkage=0.288339


Tree=29
num_leaves=20
num_cat=2
split_feature=3 1 2 4 7 2 2 4 2 4 1 3 1 2 2 5 1 1 2
split_gain=1.11647e+08 3.81112e+08 7.64048e+07 5.89516e+07 5.46471e+07 4.46416e+07 3.61145e+07 5.82914e+07 3.98906e+07 4.49627e+07 3.77963e+07 3.51936e+07 1.01667e+08 5.35385e+07 2.8666e+07 2.63217e+07 2.20116e+07 4.61221e+07 2.66845e+07
threshold=0.80655482715609839 0.6345289540347262 -1.3097739499085812 -1.3233311491656312 0 -0.78387463491487275 -0.1031179799814063 -0.29089824500936917 -0.28058828011101783 0.11523995868421948 -0.20514851909765 -0.14990854639493487 -0.25357686997470291 -0.2468464285186634 0.28047359601588612 1 -0.19263865155219814 -0.099572818751197917 -0.18765019765499397
decision_type=2 2 2 2 9 2 2 2 2 2 2 2 2 2 2 9 2 2 2
left_child=1 2 -1 -4 5 -5 8 -8 9 10 -6 16 -13 -14 -9 -16 18 -18 -7
right_child=-2 -3 3 4 6 11 7 14 -10 -11 -12 12 13 -15 15 -17 17 -19 -20
leaf_value=-30.02342855698884 -27.992483792860305 47.263685101660897 21.422529910144547 15.769083403335115 9.87067322849202 -20.949258329816345 -36.207887148166357 -19.314881276810574 16.378848176556073 -25.456481485562531 -14.660701896458937 33.343778928247616 -23.013962140109317 1.5503784652176333 4.2347788250757104 -14.611478523453545 11.869642909946773 -10.194093167262492 -2.1035335421300774
leaf_weight=8190 12681 13243 8694 14132 12985 14871 7996 14943 7816 7763 8647 7932 7988 88381 15142 10305 12635 20697 10768
leaf_count=8190 12681 13243 8694 14132 12985 14871 7996 14943 7816 7763 8647 7932 7988 88381 15142 10305 12635 20697 10768
internal_value=0 -0.420527 -2.68644 -1.8559 -2.63017 0.257407 -8.61099 -13.8 -1.85183 -6.72327 0.0506078 -1.09042 2.09258 -0.498656 -9.31649 -3.41304 -6.71678 -1.82377 -13.0583
internal_weight=0 293128 279885 271695 263001 177404 85597 48386 37211 29395 21632 163272 104301 96369 40390 25447 58971 33332 25639
internal_count=305809 293128 279885 271695 263001 177404 85597 48386 37211 29395 21632 163272 104301 96369 40390 25447 58971 33332 25639
cat_boundaries=0 1 2
cat_threshold=1 1
is_linear=0
shrinkage=0.288339


Tree=30
num_leaves=20
num_cat=3
split_feature=1 1 2 4 4 7 7 2 4 1 1 7 4 4 4 2 1 0 4
split_gain=3.80849e+08 4.10716e+08 1.3292e+08 1.23463e+08 3.21704e+08 5.01029e+08 1.64586e+08 9.44058e+07 9.09038e+07 5.38356e+07 7.94723e+07 6.76631e+07 6.66765e+07 4.1588e+07 1.12696e+08 3.47153e+07 2.43776e+07 3.40576e+07 1.52163e+07
threshold=1.230169238305417 0.33940980602866383 -0.94382285070880545 -0.36362386486011128 -0.84394636845875481 0 1 -0.62878051005176994 -0.66129878737238934 0.048555385594768193 0.085421586164756078 2 0.13024352495715194 0.19286257586015479 0.46344772593529082 -1.3097739499085812 -0.2594527168521536 2.1582892795920867 0.11523995868421948
decision_type=2 2 2 2 2 9 9 2 2 2 2 9 2 2 2 2 2 2 2
left_child=1 2 15 4 6 8 -4 -5 -6 11 -11 12 -9 -12 -15 -1 18 -18 -13
right_child=-2 -3 3 7 5 -7 -8 9 -10 10 13 16 -14 14 -16 -17 17 -19 -20
leaf_value=-0.27490548954652211 -41.049605740775007 70.291734918121037 14.42996243087191 28.535463085042032 34.714137295239738 80.179293803050243 -32.338459398542327 34.418750416307091 -2.9911258342711617 33.367178754562573 -11.765703368272527 -6.042472301372027 0.80793274318013897 34.319810900307296 -1.3412923036908215 -23.499383397787565 -0.44329884140749509 -20.012319439817347 -23.325303773279813
leaf_weight=8191 14267 8249 13776 11822 8084 13279 11363 8033 15283 9584 10066 9336 12475 10396 24927 15388 85451 8035 7786
leaf_count=8191 14267 8249 13776 11822 8084 13279 11363 8033 15283 9584 10066 9336 12475 10396 24927 15388 85451 8035 7786
internal_value=0 7.10379 5.2492 7.13207 18.3779 35.589 -6.73578 3.6167 10.1082 2.02488 9.59374 -1.15134 14.036 4.53618 9.19421 -15.4533 -3.97346 -2.13714 -13.9565
internal_weight=0 291524 283275 259696 61785 36646 25139 197911 23367 186089 54973 131116 20508 45389 35323 23579 110608 93486 17122
internal_count=305791 291524 283275 259696 61785 36646 25139 197911 23367 186089 54973 131116 20508 45389 35323 23579 110608 93486 17122
cat_boundaries=0 1 2 3
cat_threshold=1 1 2
is_linear=0
shrinkage=0.288339


Tree=31
num_leaves=23
num_cat=2
split_feature=2 1 7 1 4 0 2 4 4 2 4 1 1 1 7 4 4 2 2 2 4 2
split_gain=3.23133e+08 1.91143e+08 9.88646e+07 1.46372e+08 7.49126e+07 7.48348e+07 5.30988e+07 5.18811e+07 4.54399e+07 8.90974e+07 4.05324e+07 4.03549e+07 4.02156e+07 3.68347e+07 4.60076e+07 2.96323e+07 2.73056e+07 7.43669e+07 5.86225e+07 2.72623e+07 1.70354e+07 1.12244e+07
threshold=-2.0410841859998254 0.6345289540347262 0 0.23250730154859386 -0.8779127754377547 1.3972385690636349 0.054699171501430353 0.3595688677817237 0.54836374338279059 0.96123025094935277 -1.1196368987238887 -0.10971339320081526 0.022019302922322133 0.025146769809060211 1 -0.25057616065096017 -0.58951089041370552 -0.3229727814094841 -0.28058828011101783 -0.43532722758893788 0.75237056812169179 0.19546780849549847
decision_type=2 2 9 2 2 2 2 2 2 2 2 2 2 2 9 2 2 2 2 2 2 2
left_child=-1 2 3 5 -4 8 -7 13 10 11 -2 -10 21 14 15 -6 18 -18 -12 -16 -13 -9
right_child=1 -3 4 -5 7 6 -8 12 9 -11 16 20 -14 -15 19 -17 17 -19 -20 -21 -22 -23
leaf_value=53.54239015897037 19.432988978415928 -42.270002280644221 -28.151147360043939 -25.034725569722077 -6.1808996187320036 5.1778356629225364 36.005024124490696 -30.504174077916169 3.4072039494083777 -13.488348118266126 -24.23273504531436 18.195229992258156 -1.4634769449954907 16.884213313722395 -25.187706001544477 14.953439628435685 14.758372427380406 -4.0405279179635887 8.092375248796051 -5.0792496765611777 36.496952178590554 -15.665370324144368
leaf_weight=8597 8183 9885 14508 15040 9782 8664 10017 9990 8044 8618 11636 8092 10325 8445 8809 12508 23019 72254 7718 15351 9368 7763
leaf_count=8597 8183 9885 14508 15040 9782 8664 10017 9990 8044 8618 11636 8092 10325 8445 8809 12508 23019 72254 7718 15351 9368 7763
internal_value=0 -2.968 -1.6111 2.20812 -9.07764 4.54912 21.7709 -5.7245 2.49143 11.7897 -0.0964179 20.3435 -15.7916 -0.563432 -3.75356 5.68626 -1.50015 0.507771 -11.3562 -12.4558 28.107 -24.0909
internal_weight=0 298019 288134 190653 97481 175613 18681 82973 156932 34122 122810 25504 28078 54895 46450 22290 114627 95273 19354 24160 17460 17753
internal_count=306616 298019 288134 190653 97481 175613 18681 82973 156932 34122 122810 25504 28078 54895 46450 22290 114627 95273 19354 24160 17460 17753
cat_boundaries=0 1 2
cat_threshold=1 2
is_linear=0
shrinkage=0.288339


Tree=32
num_leaves=25
num_cat=4
split_feature=1 3 1 3 7 3 1 1 3 3 3 10 1 10 1 1 1 3 10 1 3 3 1 1
split_gain=4.66594e+08 1.01854e+08 5.97486e+07 1.05058e+08 8.85885e+07 7.45257e+07 1.30227e+08 5.77592e+07 4.56554e+07 5.77812e+07 8.09575e+07 8.62136e+07 7.33356e+07 5.12223e+07 2.49225e+07 4.25273e+07 3.83794e+07 2.33623e+07 2.96594e+07 2.2924e+07 1.98228e+07 1.77284e+07 1.535e+07 9.18178e+06
threshold=0.6345289540347262 0.72893308533061385 0.0030649581564405433 0.15373363779362584 0 0.066842918836787182 0.12541525362095249 1.3706209330212538 -0.43719930425908576 -0.25685828252909676 -0.16597477342298714 1 -0.18126604469252797 2 -0.21557340871875688 -0.16723982956571029 -0.26494947683419656 0.32627921208993094 3 0.052725341443458085 -0.048567729755981448 0.20402378038467014 -0.19472362947627828 -0.17918106676809475
decision_type=2 2 2 2 9 2 2 2 2 2 2 9 2 9 2 2 2 2 9 2 2 2 2 2
left_child=1 2 3 8 -5 6 19 -2 -1 12 11 22 13 -10 16 -16 -12 18 21 -4 -8 -7 -11 -13
right_child=7 -3 5 4 -6 17 20 -9 9 10 14 23 -14 -15 15 -17 -18 -19 -20 -21 -22 -23 -24 -25
leaf_value=17.792452832156254 66.977826221300575 28.269319403891938 -5.1060283476661716 38.504700512058257 3.0263480549940089 -19.024172732267935 9.9542012939493318 32.524432526683725 -30.704870299119023 33.772069023671882 -5.0972114297798221 3.7619298268528256 6.1815099067989587 -6.3496235383426827 -21.71185291489255 -2.8008222322051965 16.780567146662289 -2.5400005125990388 -10.369505087769417 -24.032003232040889 28.357395464298229 -37.86106324820409 17.503471853043337 -9.477068121139169
leaf_weight=10384 8195 10217 10531 11071 12362 8903 11999 8372 15244 9665 17061 9560 13939 13600 12739 43562 10861 8007 14559 10785 8256 8167 10113 7903
leaf_count=10384 8195 10217 10531 11071 12362 8903 11999 8372 15244 9665 17061 9560 13939 13600 12739 43562 10861 8007 14559 10785 8256 8167 10113 7903
internal_value=0 0.0781156 -0.959046 1.74165 19.8444 -7.54266 0.988167 49.7481 -0.693371 -1.86824 1.34236 12.5261 -10.9728 -19.2588 -3.60797 -7.09856 3.42995 -16.4783 -19.9949 -14.723 17.5177 -28.1384 25.5323 -2.24058
internal_weight=0 289488 279271 198064 23433 81207 41571 16567 174631 164247 121464 37241 42783 28844 84223 56301 27922 39636 31629 21316 20255 17070 19778 17463
internal_count=306055 289488 279271 198064 23433 81207 41571 16567 174631 164247 121464 37241 42783 28844 84223 56301 27922 39636 31629 21316 20255 17070 19778 17463
cat_boundaries=0 1 2 3 4
cat_threshold=1 1 1 1
is_linear=0
shrinkage=0.288339


Tree=33
num_leaves=24
num_cat=2
split_feature=2 1 4 3 0 10 4 4 4 4 1 1 2 2 4 4 2 10 3 4 3 3 1
split_gain=2.08204e+08 2.77138e+08 1.04398e+08 1.56452e+08 7.43792e+07 8.05565e+07 7.89453e+07 6.41194e+07 9.06191e+07 5.80516e+07 8.57909e+07 5.62414e+07 5.46317e+07 8.07306e+07 4.53685e+07 4.4623e+07 1.85994e+07 1.23836e+07 1.15239e+07 8.23385e+06 6.67395e+06 4.23212e+06 7.70882e+06
threshold=-2.0410841859998254 0.6345289540347262 -0.47469193185279185 0.041270048596640199 2.1582892795920867 0 -0.19243734134324988 -0.67536463075316644 -0.57711210995204609 0.68495871132604358 0.018797064312283784 -0.099572818751197917 0.3319743168673745 0.04771401625950434 -1.033366392654721 0.27058938446863812 -0.37944598565341964 1 0.0031484093169390154 -0.074388448376357677 -0.2637981320737966 -0.14306376328244272 -0.031337177593706467
decision_type=2 2 2 2 2 9 2 2 2 2 2 2 2 2 2 2 2 9 2 2 2 2 2
left_child=-1 2 3 7 5 6 -4 11 -9 12 -11 14 13 -8 -2 -14 19 -16 -6 -7 -18 -22 -23
right_child=1 -3 4 -5 18 16 9 8 -10 10 -12 -13 15 -15 17 -17 20 -19 -20 -21 21 22 -24
leaf_value=43.89452656132309 11.051459206309959 -48.89805121085621 29.754220914382735 21.517568292639165 -8.1178511272800762 0.36097691537409726 -0.29843367017486933 -53.181136041981418 -11.154956576521142 1.7847424007236747 37.485695548099287 -29.580308704702588 5.9927632368226096 27.602714034350729 -19.56916643309787 -18.756540903287085 5.1410511844500615 -4.3425932387581963 -22.530727169146378 12.892157696249983 -7.9921072418758676 0.92364801948652941 -5.5244982189863086
leaf_weight=8526 11018 9915 14902 10821 11096 7738 24899 8020 9125 11208 11131 8937 10629 13127 9433 13948 7857 8431 7979 9942 15000 28199 33891
leaf_count=8526 11018 9915 14902 10821 11096 7738 24899 8020 9125 11208 11131 8937 10629 13127 9433 13948 7857 8431 7979 9942 15000 28199 33891
internal_value=0 -1.64989 -0.00956939 -10.0905 2.98567 4.60847 10.4369 -16.3302 -30.9315 7.02914 19.6271 -9.67194 2.51901 9.36129 -3.46261 -8.06391 -1.06454 -12.4223 -14.1992 7.42822 -2.83631 -3.65291 -2.59769
internal_weight=0 297246 287331 65785 221546 202471 99844 54964 17145 84942 22339 37819 62603 38026 28882 24577 102627 17864 19075 17680 84947 77090 62090
internal_count=305772 297246 287331 65785 221546 202471 99844 54964 17145 84942 22339 37819 62603 38026 28882 24577 102627 17864 19075 17680 84947 77090 62090
cat_boundaries=0 1 2
cat_threshold=1 1
is_linear=0
shrinkage=0.288339


Tree=34
num_leaves=24
num_cat=5
split_feature=1 7 1 7 3 3 4 5 3 4 3 3 4 1 3 1 6 4 6 1 3 4 3
split_gain=2.87425e+08 1.98466e+08 5.47502e+08 9.02454e+07 2.25252e+08 1.17652e+08 1.28004e+08 8.15718e+07 1.38876e+08 7.53312e+07 7.44647e+07 6.79148e+07 6.42637e+07 3.72239e+07 3.72027e+07 4.17564e+07 3.72091e+07 7.52977e+07 3.69829e+07 3.36452e+07 2.71322e+07 1.85273e+07 6.62783e+06
threshold=0.89775741697222078 0 0.05708484073954289 1 -0.20761387069136347 0.38902305728858727 -1.0972357407470381 2 -0.23499300314168622 0.018862883667215617 0.14508259247078079 0.30061127541775329 -0.017291543393253585 0.022019302922322133 0.19898525948235377 0.11480082055200935 3 -0.14878113114641148 4 -0.29233850502111125 1.0000000180025095e-35 -0.42103334414056809 -0.099998669532455842
decision_type=2 9 2 9 2 2 2 9 2 2 2 2 2 2 2 2 9 2 9 2 2 2 2
left_child=1 2 10 5 -5 6 -3 8 -8 -10 18 13 -2 22 16 -16 19 -18 21 -9 -11 -1 -6
right_child=12 3 -4 4 11 -7 7 14 9 20 -12 -13 -14 -15 15 -17 17 -19 -20 -21 -22 -23 -24
leaf_value=17.377095106480379 -55.456981324356263 -33.144529494661313 89.425294166763365 20.57606776519691 -28.423899168963789 33.0540052872364 -18.719144056414443 16.86605034984921 47.818382797696877 26.912331895334678 30.948243755756046 -43.608051448034345 -18.377781427235735 1.6858437554932131 0.25490096837830012 -29.033247719551131 -24.14769640447868 2.7292424308881089 -15.085818167178283 1.646995156416208 4.8751609581621302 -0.25646860900652729 -17.691840695766786
leaf_weight=7798 7972 8835 7770 13644 7806 9720 7908 14554 8087 8243 7772 9462 7703 7706 8432 7719 13174 25076 9825 69680 10623 13395 13910
leaf_count=7798 7972 8835 7770 13644 7806 9720 7908 14554 8087 8243 7772 9462 7703 7706 8432 7719 13174 25076 9825 69680 10623 13395 13910
internal_value=0 2.63322 19.8748 -0.653028 -11.2365 2.2442 0.591331 2.32022 14.7754 24.6229 5.82619 -22.4141 -37.376 -15.5229 -0.816671 -13.7975 0.900803 -6.55061 -0.515634 4.28686 14.5593 6.26189 -21.6179
internal_weight=0 291139 46560 244579 52528 192051 182331 173496 34861 26953 38790 38884 15675 29422 138635 16151 122484 38250 31018 84234 18866 21193 21716
internal_count=306814 291139 46560 244579 52528 192051 182331 173496 34861 26953 38790 38884 15675 29422 138635 16151 122484 38250 31018 84234 18866 21193 21716
cat_boundaries=0 1 2 3 4 5
cat_threshold=2 1 2 1 1
is_linear=0
shrinkage=0.288339


Tree=35
num_leaves=16
num_cat=2
split_feature=2 4 3 2 4 4 2 4 4 2 3 2 4 10 10
split_gain=1.15595e+08 5.53784e+07 9.84471e+07 6.23421e+07 5.41141e+07 5.75741e+07 5.51361e+07 6.21379e+07 5.55479e+07 3.55187e+07 3.48236e+07 5.86318e+07 1.19195e+08 2.78418e+07 2.76685e+07
threshold=-2.0410841859998254 -1.3684460394166853 -0.4526951326945115 0.68525742266252199 -0.81560629883229863 0.99023960840704472 -0.81074972372691845 0.76039330842050956 -0.042818444343631919 -0.51713641864257121 -0.087259767628397669 0.94430012892231174 1.0105569377349741 0 1
decision_type=2 2 2 2 2 2 2 2 2 2 2 2 2 9 9
left_child=-1 -2 -3 4 9 6 14 8 -8 -4 -5 13 -13 -12 -6
right_child=1 2 3 10 5 -7 7 -9 -10 -11 11 12 -14 -15 -16
leaf_value=-36.675949978910701 15.673823925961496 -34.300109796717294 27.401644027563837 -23.883834837734344 -27.624183834508106 18.96690817455827 -6.1885462593538367 -24.487700720459646 4.5492120578554278 0.84063246053678098 -27.565182943941071 22.856276093967239 -20.295543218039288 -6.4592722077478868 -5.922976970596129
leaf_weight=8572 12812 8401 9031 13735 10359 10432 69754 9056 93904 7767 11422 11764 9619 9582 9277
leaf_count=8572 12812 8401 9031 13735 10359 10432 69754 9056 93904 7767 11422 11764 9619 9582 9277
internal_value=0 -2.82577 -3.66322 -2.72236 -0.529188 -1.83368 -2.96743 -1.31857 -0.0279175 15.168 -11.2933 -7.1851 3.44157 -17.9832 -17.4215
internal_weight=0 296915 284103 275702 219580 202782 192350 172714 163658 16798 56122 42387 21383 21004 19636
internal_count=305487 296915 284103 275702 219580 202782 192350 172714 163658 16798 56122 42387 21383 21004 19636
cat_boundaries=0 1 2
cat_threshold=1 1
is_linear=0
shrinkage=0.288339


Tree=36
num_leaves=28
num_cat=10
split_feature=2 6 2 0 10 7 3 2 10 2 7 5 8 2 10 2 2 10 2 3 3 2 2 3 6 3 3
split_gain=8.82654e+07 5.33634e+07 7.80084e+07 7.11409e+07 6.63852e+07 6.39232e+07 7.44657e+07 5.38631e+07 4.1929e+07 2.50134e+07 3.94579e+07 4.27064e+07 6.99572e+07 3.89449e+07 2.71957e+07 2.45077e+07 9.98209e+07 3.61259e+07 2.39962e+07 4.06755e+07 1.74583e+07 1.63156e+07 1.18924e+07 9.47831e+06 5.21628e+06 2.04238e+06 1.51799e+06
threshold=-1.7884346726732139 0 -0.3229727814094841 0.63618785853518356 1 2 -0.21693038103886567 0.82519731242449723 3 1.2323489883054639 4 5 6 -0.011482214604385617 7 0.5048273109896112 0.27289647846532233 8 -0.25608104053341302 -0.13374725293476344 -0.028318579714419815 0.37424042570411314 0.58864917389261306 -0.15998558819974465 9 -0.055697712164919672 -0.15998558819974465
decision_type=2 9 2 2 9 9 2 2 9 2 9 9 9 2 9 2 2 9 2 2 2 2 2 2 9 2 2
left_child=-1 2 4 7 5 6 -2 8 18 10 11 20 13 -13 21 16 17 -12 -3 -20 -4 -14 -15 -10 -25 -16 -6
right_child=1 3 9 -5 26 -7 -8 -9 23 -11 15 12 14 22 25 -17 -18 -19 19 -21 -22 -23 -24 24 -26 -27 -28
leaf_value=-28.561585150182456 -11.107343272829498 -8.9312630685822558 -19.03564132873268 12.744204807905813 2.7075095533795688 36.703655730861612 27.750686337996783 9.4146857725662869 0.15709059332927411 13.326039633281923 -26.842683611131005 27.939801185422112 -21.740870257270959 10.991626466213411 6.0431871178772614 -21.012273816960256 20.649829397568563 -3.4808560356993481 -41.328619747779243 -15.781550318817198 -1.5583201708657275 -4.4548299281188424 0.023416115522346317 -5.0067023046837278 -13.931352344761471 -0.53394081716800779 -1.7468440575968618
leaf_weight=9680 7857 11174 10742 13785 13749 12142 8458 10643 13972 8903 11549 9225 9616 22096 7805 11572 8678 10505 8292 14015 8508 8629 13070 11099 10845 7811 11734
leaf_count=9680 7857 11174 10742 13785 13749 12142 8458 10643 13972 8903 11549 9225 9616 22096 7805 11572 8678 10505 8292 14015 8508 8629 13070 11099 10845 7811 11734
internal_value=0 -0.665502 1.96671 -6.34849 11.3535 20.9104 9.06437 -9.64402 -12.5728 -1.44118 -2.38699 0.804717 3.79908 11.3223 -6.06586 -9.73428 -5.45446 -15.755 -19.9059 -25.364 -11.3407 -13.6076 6.92251 -5.71456 -9.44399 2.76299 0.656591
internal_weight=0 296474 202649 93825 53940 28457 16315 80040 69397 148709 139806 97502 78252 44391 33861 42304 30732 22054 33481 22307 19250 18245 35166 35916 21944 15616 25483
internal_count=306154 296474 202649 93825 53940 28457 16315 80040 69397 148709 139806 97502 78252 44391 33861 42304 30732 22054 33481 22307 19250 18245 35166 35916 21944 15616 25483
cat_boundaries=0 1 2 3 4 5 6 7 8 9 10
cat_threshold=1 1 1 1 1 2 1 1 1 2
is_linear=0
shrinkage=0.288339


Tree=37
num_leaves=22
num_cat=3
split_feature=4 2 2 7 2 4 3 3 4 10 3 2 4 2 4 2 4 3 4 10 3
split_gain=1.84767e+08 1.64326e+08 3.91533e+08 1.44482e+09 7.00642e+07 5.39594e+07 8.84915e+07 5.29076e+07 4.40552e+07 3.89749e+07 3.45119e+07 6.78067e+07 3.49539e+07 4.13356e+07 3.45783e+07 6.09786e+07 3.47636e+07 4.05622e+07 3.21882e+07 2.40684e+07 2.12864e+07
threshold=-1.7573405610398409 -0.26614439978014531 -0.4913268619860735 0 -0.92760308345212972 -0.91021211949763692 -0.30847935516972097 -0.025846852479409769 -0.31621676309494268 1 -0.10427665897781878 -0.041435507421237611 0.2176601367835708 0.34985157858823596 1.4726980363711264 1.0250437878205074 0.99023960840704472 -0.065394488241075646 -0.17576671215110271 2 -0.25343589097271785
decision_type=2 2 2 9 2 2 2 2 2 9 2 2 2 2 2 2 2 2 2 9 2
left_child=-1 2 4 18 9 -3 -7 8 20 -2 11 -8 13 19 15 16 17 -12 -4 -13 -6
right_child=1 5 3 -5 7 6 10 -9 -10 -11 14 12 -14 -15 -16 -17 -18 -19 -20 -21 -22
leaf_value=-36.250176759101414 20.953636956704536 -23.880338842602523 -21.49206542480016 131.16901408473723 -2.0737923280314354 19.750139783754502 11.075420259402932 -29.013205378438798 11.793732277882787 -0.6167391502672892 11.203749423801751 -27.536249925495557 -25.316032302745882 4.0033176741154906 -18.978611958394374 18.185003369484747 15.545793597988325 -5.8948476291329124 3.7745593724349691 -6.0878180300409817 -22.456473739608537
leaf_weight=10814 14918 9298 8605 9520 9186 15025 11063 7924 10994 13008 13432 9245 15188 12903 7859 14472 8736 79551 8089 8253 7908
leaf_count=10814 14918 9298 8605 9520 9186 15025 11063 7924 10994 13008 13432 9245 15188 12903 7859 14472 8736 79551 8089 8253 7908
internal_value=0 2.02135 12.2767 41.9095 0.0993749 -2.49024 -1.46703 -8.29994 -2.40655 10.9258 -3.23724 -9.12972 -14.0413 -8.36932 -0.542996 0.712991 -1.78194 -3.41906 -9.27871 -17.4762 -11.5496
internal_weight=0 295177 90152 26214 63938 205025 195727 36012 28088 27926 180702 56652 45589 30401 124050 116191 101719 92983 16694 17498 17094
internal_count=305991 295177 90152 26214 63938 205025 195727 36012 28088 27926 180702 56652 45589 30401 124050 116191 101719 92983 16694 17498 17094
cat_boundaries=0 1 2 3
cat_threshold=1 1 1
is_linear=0
shrinkage=0.288339


Tree=38
num_leaves=21
num_cat=3
split_feature=2 4 1 7 3 1 1 2 4 10 3 4 4 3 2 2 2 6 2 3
split_gain=8.95249e+07 1.49966e+08 6.92982e+07 6.2455e+07 1.05604e+08 6.66298e+07 6.62867e+07 4.37521e+07 1.08874e+08 9.08137e+07 8.21104e+07 6.85447e+07 4.04747e+07 1.16245e+08 5.86402e+07 3.61867e+07 7.55378e+07 3.47006e+07 6.61351e+07 3.12399e+07
threshold=-1.5087916780726085 -1.6754981908496434 0.33940980602866383 0 0.30061127541775329 -0.35024402828132567 -0.23983497001919826 0.43509415103207871 -0.0062472515534560792 1 -0.067390883315578354 -0.18378945244992059 -0.24171988889253501 -0.33880554701591531 -0.25608104053341302 -0.71520700711288832 -0.25608104053341302 2 0.35565280921277614 -0.25343589097271785
decision_type=2 2 2 9 2 2 2 2 2 9 2 2 2 2 2 2 2 9 2 2
left_child=-1 -2 3 4 6 -5 12 9 -9 11 -10 -8 13 -3 -14 -7 -17 -18 -19 -11
right_child=1 2 -4 5 -6 15 7 8 10 19 -12 -13 14 -15 -16 16 17 18 -20 -21
leaf_value=-26.250221057329981 37.511704855497449 -23.12587707745886 -20.18961611699434 14.135048131012386 30.674002276519648 6.7045854283329325 2.62312761308231 29.427626605886722 -28.139954389707437 14.476507111720244 0.029566477856287816 26.827724141043809 -4.5456066093733902 19.743116026676351 -35.977188793143775 -31.033492297758102 -23.06402850368233 6.3487506346329088 -15.792565500696142 -6.0560032431613795
leaf_weight=10941 8651 9588 14618 11722 10881 10358 15276 7818 11595 7798 32848 26794 11737 11500 8482 13254 9012 25121 20168 28469
leaf_count=10941 8651 9588 14618 11722 10881 10358 15276 7818 11595 7798 32848 26794 11737 11500 8482 13254 9012 25121 20168 28469
internal_value=0 0.240318 -0.89055 0.149195 3.20634 -6.08282 1.45755 4.64194 -1.81836 8.95008 -7.34745 18.0554 -8.60213 0.241041 -17.7995 -9.13332 -11.5657 -6.78466 -3.5187 -1.62416
internal_weight=0 295690 287039 272421 182786 89635 171905 130598 52261 78337 44443 42070 41307 21088 20219 77913 67555 54301 45289 36267
internal_count=306631 295690 287039 272421 182786 89635 171905 130598 52261 78337 44443 42070 41307 21088 20219 77913 67555 54301 45289 36267
cat_boundaries=0 1 2 3
cat_threshold=1 1 2
is_linear=0
shrinkage=0.288339


Tree=39
num_leaves=22
num_cat=1
split_feature=4 4 4 3 4 1 7 4 4 1 2 1 3 1 3 2 2 3 1 2 3
split_gain=1.30342e+08 1.39613e+08 4.30076e+08 7.35957e+07 1.47173e+08 5.67808e+07 1.28581e+08 7.80846e+07 5.66337e+07 7.56651e+07 7.34951e+07 7.71922e+07 4.00975e+07 4.7021e+07 4.54526e+07 5.62619e+07 4.3725e+07 2.50573e+07 8.92072e+07 3.04621e+07 6.92653e+06
threshold=1.4726980363711264 -0.64645150824823017 -0.74163038179195151 0.30061127541775329 0.60671094555530569 -0.04214115411022102 0 -1.033366392654721 0.2176601367835708 -0.26220109684313092 -0.06688988669277314 0.23696157256877334 -0.35382604329065664 0.22340921606092837 -0.0083546289695698595 -0.82945573267987271 -0.1031179799814063 0.1007816351032446 0.065045665541250228 0.78458869805172382 -0.19753682888673077
decision_type=2 2 2 2 2 2 9 2 2 2 2 2 2 2 2 2 2 2 2 2 2
left_child=1 2 5 8 -5 6 7 -1 12 -10 -11 17 -3 14 15 -14 -17 19 -19 -12 -8
right_child=-2 3 -4 4 -6 -7 20 -9 9 10 11 -13 13 -15 -16 16 -18 18 -20 -21 -22
leaf_value=41.279459365776027 33.16698375784371 7.2881265189903566 71.22573566745389 3.4254231533228578 -46.54152619617448 -14.791177480235348 -6.1890420431299331 4.9540195403556728 -21.908742033241865 26.924477423796414 -0.67841910003971573 24.049530890995516 12.939471049585602 -28.48886423755733 8.6907804455216002 -19.969688928208765 -5.8964544406715467 21.179403342610872 -12.765222505032334 -17.176288109973591 -18.444932078557649
leaf_weight=9580 9477 14661 8526 9990 9545 13311 7740 10088 9530 11111 28911 11216 8382 9136 13351 31986 43147 13772 11984 13666 7728
leaf_count=9580 9477 14661 8526 9990 9545 13311 7740 10088 9530 11111 28911 11216 8382 9136 13351 31986 43147 13772 11984 13666 7728
internal_value=0 -1.0777 11.7483 -4.11975 -21.056 1.20564 7.28121 22.7201 -2.61633 2.45003 5.02353 1.94635 -6.82232 -8.77707 -6.9013 -9.39853 -11.8991 -1.69932 5.3918 -5.99082 -12.3608
internal_weight=0 297361 56973 240388 19535 48447 35136 19668 220853 100190 90660 79549 120663 106002 96866 83515 75133 68333 25756 42577 15468
internal_count=306838 297361 56973 240388 19535 48447 35136 19668 220853 100190 90660 79549 120663 106002 96866 83515 75133 68333 25756 42577 15468
cat_boundaries=0 1
cat_threshold=1
is_linear=0
shrinkage=0.288339


Tree=40
num_leaves=21
num_cat=6
split_feature=1 9 1 4 4 9 4 4 1 4 4 6 1 6 10 4 9 4 4 1
split_gain=2.06329e+08 8.00705e+08 9.79849e+07 7.66526e+07 8.379e+07 4.36968e+08 5.21708e+08 9.68051e+07 3.72087e+07 3.06542e+07 4.21285e+07 8.21312e+07 6.36751e+07 5.13393e+07 8.13253e+07 3.70988e+07 2.566e+07 1.84525e+07 2.58877e+07 1.25314e+07
threshold=0.6345289540347262 0 0.28387357586437217 -1.7573405610398409 -0.64645150824823017 1 -0.91021211949763692 -0.82935956791572307 -0.21121390942276033 -0.54877204032539584 -0.017291543393253585 2 0.17052659416387247 3 4 0.48293152380351584 5 -0.24171988889253501 -0.12064944438466314 -0.26494947683419656
decision_type=2 9 2 2 2 9 2 2 2 2 2 9 2 9 9 2 9 2 2 2
left_child=2 -2 3 -1 5 7 -7 8 -5 -6 11 -11 13 14 -12 -14 -15 19 -19 -13
right_child=1 -3 -4 4 9 6 -8 -9 -10 10 12 17 15 16 -16 -17 -18 18 -20 -21
leaf_value=-25.058508795616703 93.245580776526666 -33.434088969333956 -24.817293160888518 -8.5811908909164281 -16.45334607022685 2.2611437422591503 105.37642122424526 -32.090419610192043 18.594110293152355 30.483598942433019 -33.277021384187883 -11.393352044960531 29.457478064450395 -4.7548054034445535 2.5664902044851909 3.992244635737431 4.1887386676312008 17.435312796557238 0.21987831419710252 1.778036631240514
leaf_weight=8310 8811 7747 11641 8580 8218 8520 7772 9243 8077 10701 11244 8530 7709 64840 9831 12328 45221 13367 15824 19914
leaf_count=8310 8811 7747 11641 8580 8218 8520 7772 9243 8077 10701 11244 8530 7709 64840 9831 12328 45221 13367 15824 19914
internal_value=0 34.0683 1.03102 2.11767 2.95978 14.7527 51.6587 -8.52767 4.61473 0.771487 1.42074 7.35869 -1.2652 -3.57999 -16.5964 13.8491 -1.07974 3.03764 8.12317 -2.18706
internal_weight=0 16558 289870 278229 269919 42192 16292 25900 16657 227727 219509 68336 151173 131136 21075 20037 110061 57635 29191 28444
internal_count=306428 16558 289870 278229 269919 42192 16292 25900 16657 227727 219509 68336 151173 131136 21075 20037 110061 57635 29191 28444
cat_boundaries=0 1 2 3 4 5 6
cat_threshold=1 1 2 2 1 1
is_linear=0
shrinkage=0.288339


Tree=41
num_leaves=25
num_cat=1
split_feature=3 4 4 4 4 2 2 2 3 4 4 7 4 4 4 3 3 4 3 2 3 2 3 2
split_gain=1.1176e+08 9.58791e+07 3.14685e+08 6.32229e+07 5.71808e+07 1.34156e+08 9.4948e+07 5.48679e+07 4.93475e+07 4.60981e+07 5.46106e+07 4.23245e+07 3.97039e+07 8.19179e+07 3.19911e+07 4.03976e+07 3.63033e+07 2.98551e+07 8.59833e+07 2.56476e+07 3.08848e+07 1.95416e+07 1.80001e+07 4.06257e+06
threshold=-0.43719930425908576 0.2176601367835708 0.25891994403413504 -1.5195236164707133 0.38728378881366837 0.064052175977907549 0.53430703395988377 -1.2615882179855749 0.15858202583161526 0.62348576617990381 0.74257657347130523 0 -0.58951089041370552 -0.81560629883229863 -0.12064944438466314 -0.24069698906892537 -0.22263436696619329 1.5362548101661877 0.23216344429194632 0.013972164667149914 0.21229455997921554 0.12289322945639429 0.095077649176094015 0.5048273109896112
decision_type=2 2 2 2 2 2 2 2 2 2 2 9 2 2 2 2 2 2 2 2 2 2 2 2
left_child=-1 3 -3 -2 5 -4 -7 -5 11 19 -11 21 13 -13 15 -14 -16 18 22 -6 23 -9 -12 -21
right_child=1 2 4 7 9 6 -8 8 -10 10 17 12 14 -15 16 -17 -18 -19 -20 20 -22 -23 -24 -25
leaf_value=26.52746604971308 -25.029718859791398 58.420133549539024 40.92716747068075 18.815597840589476 -25.873360380507815 -23.234404840461178 20.46749938137657 -12.133134470458785 15.125267418425434 18.294586089323467 -1.7652363776681921 4.1532539005362388 14.574155929711178 -30.0082605814295 -20.639073878359397 -3.5804707355304655 -2.5809035782615291 12.97519149850593 -25.900781288348732 -9.1277314782302224 7.592372323355117 -30.093070868934838 14.838671016500625 -18.316857863324969
leaf_weight=12267 13263 8354 8995 8016 7717 8755 7723 14740 8925 13333 16687 10261 17200 13431 12089 24833 38968 8226 12212 7808 8182 7724 7977 8695
leaf_count=12267 13263 8354 8995 8016 7717 8755 7723 14740 8925 13333 16687 10261 17200 13431 12089 24833 38968 8226 12212 7808 8182 7724 7977 8695
internal_value=0 -1.4967 4.57154 -5.96121 0.675603 12.7319 -2.75114 -4.33288 -5.59241 -2.71129 2.12622 -6.92636 -4.71612 -15.2392 -2.02968 3.85829 -6.87611 -2.67109 -6.17713 -11.4237 -6.8541 -18.3728 3.62731 -14.0189
internal_weight=0 294114 124664 169450 116310 25473 16478 156187 148171 90837 58435 139246 116782 23692 93090 42033 51057 45102 36876 32402 24685 22464 24664 16503
internal_count=306381 294114 124664 169450 116310 25473 16478 156187 148171 90837 58435 139246 116782 23692 93090 42033 51057 45102 36876 32402 24685 22464 24664 16503
cat_boundaries=0 1
cat_threshold=2
is_linear=0
shrinkage=0.288339


Tree=42
num_leaves=27
num_cat=2
split_feature=4 3 3 3 7 4 3 3 4 4 3 4 4 3 0 9 4 4 4 4 4 3 3 4 3 4
split_gain=9.99882e+07 9.3402e+07 1.60573e+08 7.98551e+07 4.9549e+07 1.03177e+08 1.13856e+08 8.47915e+07 1.02132e+08 7.82379e+07 6.82169e+07 6.78127e+07 4.92086e+07 7.03742e+07 4.40321e+07 6.02041e+07 4.75113e+07 6.05805e+07 5.56645e+07 4.12832e+07 3.41185e+07 3.35636e+07 3.34708e+07 2.42985e+07 2.15236e+07 7.73378e+06
